%YAML:1.0
cvHOGClassifier: !!opencv-object-detector-hog
   winSize: [ 64, 64 ]
   blockSize: [ 16, 16 ]
   blockStride: [ 8, 8 ]
   cellSize: [ 8, 8 ]
   nbins: 9
   derivAperture: 1
   winSigma: 4.
   histogramNormType: 0
   L2HysThreshold: 2.0000000000000001e-01
   gammaCorrection: 1
   nlevels: 64
   signedGradient: 0
   SVMDetector: [ -6.18478358e-02, -5.29500991e-02, -6.25207350e-02,
       -2.10386626e-02, 3.74110341e-02, 1.33404750e-02, 6.40863972e-03,
       -1.55099444e-02, -2.38650776e-02, -3.29749025e-02,
       -2.15662783e-03, -8.22586752e-03, -3.42126340e-02,
       -1.70885539e-03, 2.96927541e-02, 2.27071997e-02, -4.16237628e-03,
       -2.13701222e-02, -4.37020734e-02, -3.33142839e-02,
       -2.48881672e-02, -3.00284266e-03, 3.30095105e-02, 1.83858275e-02,
       1.48791792e-02, -1.32490816e-02, -2.17437334e-02, -8.49685457e-04,
       5.49987741e-02, 6.67812005e-02, 3.81763205e-02, 5.13756881e-03,
       2.84507256e-02, -3.92079074e-03, -1.09801954e-02, -5.40054264e-03,
       -4.56420705e-03, 5.10904938e-02, 5.29631879e-03, -3.18460986e-02,
       -1.77749563e-02, 3.41624254e-03, -3.70287313e-03, -1.06751695e-02,
       -9.85473860e-03, 2.52928566e-02, 6.86404705e-02, 1.00579644e-02,
       -2.52292380e-02, -1.61375478e-02, -9.86444857e-03,
       -4.96127084e-02, -3.80783156e-02, -3.47078405e-02,
       -1.29428525e-02, 5.42160831e-02, 5.38618788e-02, -1.47792874e-02,
       -1.45860547e-02, -8.90461728e-03, -2.53219251e-02,
       -1.21701201e-02, -1.94081049e-02, -1.45284366e-02, 2.72431970e-02,
       1.70522742e-02, -6.05011708e-04, -2.00284403e-02, 2.07984308e-03,
       -3.47239189e-02, -2.19720490e-02, -4.26532105e-02, 1.92643590e-02,
       3.91155630e-02, -3.88926864e-02, -2.53707170e-02, 2.16596685e-02,
       -2.01358038e-04, -4.90658656e-02, -2.94909701e-02,
       -3.53375860e-02, 1.95803400e-02, 2.81752087e-02, -2.81211883e-02,
       -1.39949294e-02, 9.26747266e-03, -1.10240676e-03, -2.90096309e-02,
       -2.33839136e-02, -1.33509347e-02, -1.16427559e-02, 7.33245490e-03,
       -1.85147040e-02, 4.25700285e-03, 2.64734756e-02, 4.34922017e-02,
       -1.73825454e-02, -1.39743015e-02, -3.00969165e-02, 1.40679311e-02,
       -3.77633469e-03, -1.51241105e-02, 6.05515903e-04, 2.57194638e-02,
       3.70091014e-02, -1.15057817e-02, -2.59804577e-02, -3.03738061e-02,
       2.93133091e-02, -5.10555459e-03, -1.09573007e-02, 2.84891902e-03,
       1.88993360e-03, 6.10398082e-03, -3.11256610e-02, -2.89681610e-02,
       1.45875588e-02, 6.65433053e-03, -3.93352173e-02, -2.60080565e-02,
       2.81814635e-02, -2.45528249e-03, 1.20132626e-03, -3.51468511e-02,
       -4.84580081e-03, 5.98609261e-03, 8.93834978e-03, -1.30251423e-02,
       -1.13745304e-02, 1.40792020e-02, 2.88403314e-02, 4.66940403e-02,
       -3.30240605e-03, -1.39994510e-02, 3.18606058e-03, -1.92200225e-02,
       -4.22130264e-02, -1.98855419e-02, 2.84116529e-02, 1.17801530e-02,
       9.73744504e-03, -2.67176479e-02, -1.31107168e-02, -5.66524640e-03,
       -2.40499619e-02, -3.29254791e-02, -2.20366474e-02, 4.67071347e-02,
       1.57270692e-02, 8.36722320e-04, -1.92295201e-02, 5.05049191e-02,
       4.52337675e-02, -2.45350543e-02, -1.71521548e-02, -1.08441133e-02,
       3.12124863e-02, -3.61016183e-03, -2.58665793e-02, 2.77342871e-02,
       7.17635825e-02, 3.00177187e-02, -1.65054053e-02, -3.17025892e-02,
       -1.82564966e-02, 2.63415333e-02, 1.10241147e-02, 2.46698279e-02,
       -1.66008677e-02, 2.35931072e-02, 1.76098682e-02, -2.51092780e-02,
       -2.22780332e-02, -1.42978141e-02, 2.03748271e-02, -1.47541920e-02,
       3.88605008e-03, 1.79643407e-02, 2.72103641e-02, 1.10918134e-02,
       -3.58531438e-02, -1.47481905e-02, 1.15672536e-02, 2.34053247e-02,
       -2.41361074e-02, -1.46818953e-02, 4.87173833e-02, 7.29477331e-02,
       1.13029429e-03, -1.94272622e-02, -5.62934205e-03, 2.89505534e-02,
       3.79851088e-02, -1.14728305e-02, 9.81353223e-03, 3.51156928e-02,
       4.49696258e-02, -1.77366231e-02, -1.26460623e-02, -1.86383780e-02,
       -3.67216324e-03, 3.33247520e-02, -2.32423302e-02, 1.78754590e-02,
       6.09913692e-02, 4.83954921e-02, 6.91274181e-03, 5.18907327e-03,
       2.49595637e-03, 1.54003445e-02, 2.14768499e-02, -1.10972244e-02,
       2.41699610e-02, 7.94937834e-02, 6.47199377e-02, 1.83877721e-02,
       2.80918693e-03, 1.66541077e-02, 2.08854619e-02, 4.34582047e-02,
       7.77429994e-03, 1.45672476e-02, 1.02928253e-02, 2.70239227e-02,
       -4.31316812e-03, 6.33185823e-03, 2.36837901e-02, 1.91491228e-02,
       5.45686185e-02, 9.51806176e-03, 6.00161403e-03, -5.91032626e-03,
       -6.16290141e-03, -2.18154490e-03, 2.28262004e-02, 2.29853485e-02,
       2.08847411e-02, 3.49283852e-02, -3.28819267e-03, 4.13856022e-02,
       6.68519959e-02, 6.05926812e-02, 1.88420508e-02, 2.69963071e-02,
       2.80610975e-02, 3.43773030e-02, 5.36912456e-02, -1.05109261e-02,
       1.06019620e-02, 4.84710000e-02, 1.16274515e-02, 3.58046368e-02,
       -5.45640960e-02, -3.78492102e-02, -1.26463464e-02,
       -1.00020114e-02, -2.96353176e-02, 6.31504413e-03, -9.89988260e-03,
       -1.43884839e-02, -2.05053203e-02, -3.60992178e-02, 7.10967416e-03,
       3.88303362e-02, 2.83533777e-03, -3.02431751e-02, -1.23399301e-02,
       -2.58370638e-02, -1.25146024e-02, -1.00555709e-02,
       -2.36077718e-02, -3.12919319e-02, 3.92548516e-02, 3.85218114e-02,
       -3.34220640e-02, -1.05726300e-02, -1.84159856e-02,
       -1.56300962e-02, 8.12598271e-04, -1.03460113e-02, 8.94861482e-03,
       5.84419891e-02, 4.14842516e-02, -1.59198008e-02, 3.79264005e-04,
       -1.17808515e-02, -5.95535245e-03, 2.88802921e-03, -2.62953490e-02,
       1.54371858e-02, 5.32702580e-02, 1.55667518e-03, -3.00669745e-02,
       -6.21268759e-03, -1.79319661e-02, -4.20554029e-03,
       -1.49541069e-02, -4.29740734e-02, 5.98557061e-03, 7.93466996e-03,
       -2.45001577e-02, -2.84473877e-02, -3.37343104e-03,
       -1.84547193e-02, -1.99061763e-02, -3.30148526e-02,
       -1.87266264e-02, 4.72828001e-03, 3.55307125e-02, 6.22821506e-03,
       -2.60412768e-02, -8.00832815e-04, -1.27922362e-02,
       -1.56402644e-02, -2.03418918e-02, -4.65747528e-02, 1.20038884e-02,
       7.78328814e-03, -9.47732572e-03, -2.55723502e-02, 7.35267671e-03,
       -2.69996803e-02, -2.35636253e-02, -3.72524299e-02,
       -2.85026785e-02, -1.18534919e-02, -1.42070036e-02,
       -2.12259404e-02, -1.01653775e-02, 1.73958372e-02, -5.38892578e-03,
       -1.64626278e-02, -2.07410846e-02, 1.08093303e-02, -2.05102973e-02,
       -3.56859863e-02, -1.53284371e-02, 1.04002627e-02, 2.35453825e-02,
       -4.73040948e-03, -2.10977606e-02, -2.34302804e-02,
       -1.88717153e-02, 4.18814644e-02, 1.77016240e-02, -1.21673737e-02,
       -5.96237322e-03, 1.54691618e-02, -5.09466836e-03, -8.98872409e-03,
       -1.50769297e-02, 4.52621505e-02, 4.59718965e-02, 1.60303991e-02,
       -5.19768707e-03, 5.88856451e-03, 2.65912171e-02, -3.00645083e-03,
       -2.47483654e-03, 1.84295059e-03, 7.56599754e-03, -1.96267292e-02,
       -3.13842557e-02, -9.33247712e-03, 2.97929230e-03, -6.54601073e-03,
       -3.23981270e-02, -2.39160694e-02, -9.36223101e-03,
       -3.92999500e-02, -4.93010879e-02, -3.50815244e-02,
       -1.51689872e-02, -1.54511929e-02, -1.40133351e-02,
       -2.41758060e-02, -1.53691359e-02, -1.27551109e-02, 5.78148365e-02,
       4.40341197e-02, 5.35296975e-03, 6.46584341e-03, 3.91234178e-03,
       2.87024118e-02, 4.95050708e-03, 2.19101254e-02, 6.12619147e-02,
       3.94894928e-02, 8.51757545e-03, -7.28369411e-03, -3.57286748e-03,
       -1.33486548e-02, 3.74585832e-03, 4.25816104e-02, 6.62962049e-02,
       6.99172765e-02, -2.98403632e-02, -3.59510668e-02, -2.55631059e-02,
       -4.29090438e-03, -2.36947206e-03, 3.15631251e-03, -4.61488357e-03,
       1.07590826e-02, 6.61086105e-03, -3.39852124e-02, -3.90629657e-02,
       -4.78783902e-03, 1.16153210e-02, -2.08161511e-02, -1.20820552e-02,
       1.17354775e-02, -2.27151485e-03, -7.09050847e-03, -4.69426392e-03,
       4.27165441e-03, 1.41636934e-02, 1.90333985e-02, -2.10872442e-02,
       2.10367553e-02, 7.02396184e-02, 8.74327943e-02, 5.62823676e-02,
       -5.48327109e-03, -3.37395049e-03, 2.13751048e-02, 4.37257588e-02,
       -9.37496498e-03, 2.15228572e-02, 4.83854115e-02, 2.88855620e-02,
       3.69450869e-03, -1.81237385e-02, -1.05090011e-02, 7.45257270e-03,
       3.47927101e-02, -9.45821032e-03, 3.22152325e-03, 4.92534935e-02,
       2.37400848e-02, -1.52831161e-02, -1.60751177e-03, -2.76127760e-03,
       4.59711021e-03, 1.40181929e-02, -1.59581415e-02, 2.51646340e-02,
       7.57008344e-02, 3.25490087e-02, -1.09139066e-02, 6.62953500e-03,
       1.13711441e-02, 2.38068309e-02, 3.57210860e-02, 6.80004014e-03,
       2.76226997e-02, 2.90962663e-02, -7.00159743e-03, -6.93743397e-03,
       -5.68267936e-03, -7.72089511e-03, 1.36544891e-02, 5.11150435e-03,
       -1.03153121e-02, 5.21936454e-02, 7.28151873e-02, 2.28914842e-02,
       -1.12531725e-02, 2.36828793e-02, 8.60548858e-03, 1.20119490e-02,
       2.78639118e-03, -2.95279045e-02, 2.27872096e-02, 8.12129825e-02,
       3.96515056e-02, 1.21681998e-02, 2.54215952e-02, 7.87156355e-03,
       2.42850520e-02, -1.15472439e-03, -4.29691263e-02, -1.30496491e-02,
       4.49711271e-02, 7.65840104e-03, 3.79628241e-02, 7.88679067e-03,
       7.77787995e-03, 1.64426807e-02, 4.54457337e-03, 1.18168294e-02,
       4.99032959e-02, 7.48508200e-02, 3.72497253e-02, 7.52465916e-04,
       2.62526367e-02, -7.89273065e-03, 2.05824152e-02, -1.24429883e-02,
       -7.65565457e-03, 1.97510347e-02, 6.22727945e-02, 7.18347821e-03,
       1.71879474e-02, -5.76589117e-03, -3.26482207e-02, 3.24939340e-02,
       5.62284254e-02, -6.67723548e-03, -2.33649835e-02, -9.98553727e-03,
       -2.07834616e-02, 7.66517082e-03, -3.72603349e-03, -7.15759769e-03,
       4.83464114e-02, 2.80089788e-02, -1.68513674e-02, -1.18694920e-02,
       -5.09458501e-03, 2.08450225e-03, 1.91390701e-02, 1.03036016e-02,
       -2.77421195e-02, -1.84093360e-02, 7.56930634e-02, 1.53434053e-02,
       -5.91783747e-02, -4.70247604e-02, -7.56834401e-03, 2.37916913e-02,
       7.57784676e-03, -2.23924369e-02, -2.26030201e-02, -4.71299421e-03,
       -3.02710701e-02, -3.43836546e-02, -2.56745480e-02,
       -6.75178878e-03, 2.36299355e-02, 7.53838429e-03, 1.56791024e-02,
       2.18328815e-02, -6.29967870e-03, -2.56328564e-02, -1.69809982e-02,
       -1.74629763e-02, -1.99789181e-02, 4.69482766e-04, -2.17679888e-02,
       2.63491254e-02, 5.47714420e-02, -3.06066452e-03, -9.69228521e-03,
       -2.40253843e-02, -4.04439084e-02, -3.00570093e-02,
       -1.59606952e-02, -7.20281154e-03, -1.88942831e-02, 1.11180583e-04,
       1.40164960e-02, 1.34838570e-03, -3.80480550e-02, -3.02248746e-02,
       -2.75773946e-02, -1.61383804e-02, -1.59877501e-02,
       -1.53416749e-02, 5.94745427e-02, 2.78530978e-02, 1.70659237e-02,
       -3.77610698e-02, -6.04252703e-02, -3.87291610e-02,
       -8.86423420e-03, -1.84519254e-02, 4.07588184e-02, 3.69529054e-02,
       -2.03276593e-02, -4.94222008e-02, -5.50591014e-02,
       -4.57040630e-02, -3.04651912e-02, -2.36470904e-02, 6.07106090e-02,
       7.22715929e-02, 4.46531326e-02, -2.17279214e-02, -3.54092792e-02,
       -2.02519801e-02, -3.63309979e-02, -1.19661968e-02,
       -2.34042993e-03, -1.84578653e-02, -6.12663664e-03, 6.40000403e-02,
       5.01597933e-02, 1.62742995e-02, -7.04111680e-02, -4.72953953e-02,
       -2.16352139e-02, -8.60989466e-03, 5.60432896e-02, 7.82197267e-02,
       6.64478093e-02, 2.75321100e-02, -5.88824460e-03, -4.30937372e-02,
       -3.45859490e-02, 6.65446930e-03, 1.16225146e-02, 5.25655374e-02,
       3.54003347e-02, 7.49041152e-04, -3.08795050e-02, -4.09814529e-02,
       -3.30694392e-02, -2.51540430e-02, 9.33376490e-04, 3.41827981e-02,
       2.35542357e-02, -2.18798383e-03, -2.34378893e-02, -6.11945391e-02,
       -8.36948901e-02, -2.75146626e-02, 4.21857983e-02, 6.92047551e-02,
       4.20203097e-02, 1.70538649e-02, 3.75890620e-02, 3.20851617e-02,
       -2.17682440e-02, -3.77211943e-02, -3.06632388e-02,
       -1.28071783e-02, 1.48806777e-02, 1.46244485e-02, 2.50948668e-02,
       3.11215501e-02, 1.83985904e-02, -4.24116738e-02, -3.64875160e-02,
       4.24255505e-02, 4.87069525e-02, 7.58164003e-02, 3.81363481e-02,
       -6.12937985e-03, -1.32245487e-02, -1.28263691e-02,
       -6.91059381e-02, -8.62319842e-02, -1.41531080e-02, 4.91276532e-02,
       5.99115491e-02, 9.57258698e-03, -2.82547623e-02, -2.87157372e-02,
       -2.55477373e-02, -6.07676022e-02, -5.53958006e-02,
       -2.24126223e-02, 1.78113878e-02, -2.20569950e-02, -3.29122357e-02,
       3.06686461e-02, 4.21642214e-02, 2.79308036e-02, -3.34279500e-02,
       -8.49303603e-03, 5.51088154e-02, 6.24294207e-02, 9.43560004e-02,
       6.31917268e-02, -2.16747895e-02, -2.27373987e-02, -1.29139749e-02,
       -4.37934101e-02, 2.47239619e-02, 3.66247930e-02, 3.08295265e-02,
       6.82517141e-03, -2.32772692e-03, 1.17146336e-02, 8.07927642e-03,
       5.95570682e-03, -5.80769032e-03, 3.52164879e-02, 5.29025830e-02,
       4.38295715e-02, -8.01002607e-03, 6.51282538e-03, -2.00891681e-02,
       -1.10980608e-02, -1.91344339e-02, -2.12877411e-02, 6.32857531e-03,
       4.15721349e-02, 6.48141373e-03, -1.64265726e-02, -1.37495417e-02,
       -1.99598689e-02, -8.74705706e-03, -5.08244941e-03, 4.17611888e-03,
       5.84022924e-02, 9.37035829e-02, 5.44486679e-02, -1.10685360e-02,
       -7.50509463e-03, -1.89797170e-02, 2.25642207e-03, -2.27117594e-02,
       -1.51630340e-03, 1.88983008e-02, 5.93346432e-02, 1.82707142e-03,
       -3.45575362e-02, -2.94693355e-02, 5.54767670e-03, 6.95883157e-03,
       -1.25433886e-02, -1.36399064e-02, 1.28390631e-02, 6.17455728e-02,
       5.41227087e-02, -7.60044903e-04, -1.93173462e-03, 1.30803538e-02,
       -6.99666329e-03, 6.34012558e-03, -1.62836593e-02, 1.60413552e-02,
       4.44773547e-02, 4.57319357e-02, -2.94108074e-02, -8.65441002e-03,
       1.19886305e-02, 1.23072555e-02, -5.23241609e-03, 8.20819382e-03,
       2.48537827e-02, 5.43161929e-02, 4.28919159e-02, 4.58914833e-03,
       7.15419929e-03, 1.16211791e-02, 4.23086761e-03, 1.50313287e-03,
       -7.62502023e-04, 4.56806347e-02, 4.43973802e-02, 3.19950767e-02,
       -5.13610383e-03, 2.23355908e-02, 2.28108149e-02, -1.90910827e-02,
       -3.25577296e-02, 7.88131431e-02, 3.72168273e-02, -4.46192026e-02,
       -6.14803061e-02, -8.21200447e-05, 2.86016818e-02, 8.31376947e-03,
       -2.70381477e-02, -3.74062844e-02, 1.33389896e-02, 1.01480456e-02,
       -1.59965623e-02, -2.69970521e-02, 1.70502497e-03, 1.15094362e-02,
       1.26073342e-02, -1.39389895e-02, -3.86544429e-02, 4.49792063e-03,
       4.04009335e-02, 5.16315438e-02, -4.62137200e-02, 4.52938257e-04,
       7.30514154e-03, 2.04513166e-02, -2.78484225e-02, -4.79931608e-02,
       -9.38903261e-03, 2.66964957e-02, 2.89662480e-02, -1.83239356e-02,
       1.85043029e-02, 1.41214766e-02, -1.32891512e-03, -3.67506891e-02,
       -2.33133696e-02, 1.60572175e-02, 4.74153794e-02, -3.56745757e-02,
       -4.96582612e-02, -2.34752707e-02, -7.86939543e-03,
       -2.45793257e-02, -3.08327023e-02, 1.25260381e-02, 6.39066845e-02,
       3.67054604e-02, -1.11120464e-02, -6.10357299e-02, -4.68528569e-02,
       -1.51166031e-02, 1.45010464e-02, -3.46218757e-02, -5.23209535e-02,
       -1.86709482e-02, 4.03527617e-02, 1.49888275e-02, -1.99252497e-02,
       -1.04605695e-02, 1.75212305e-02, -1.14638009e-03, -3.23032141e-02,
       -5.75449951e-02, -2.86341365e-03, 2.79480778e-02, 5.52540384e-02,
       7.97450077e-03, -4.10569422e-02, -4.59981570e-03, -6.69702142e-03,
       -2.94855423e-02, 3.47920833e-03, 5.14588691e-02, 2.87983082e-02,
       -4.94807921e-02, -3.49423885e-02, -2.07582619e-02,
       -5.27752750e-03, 2.95288470e-02, 2.09804345e-02, 2.40283664e-02,
       1.24473330e-02, 8.08212382e-04, -5.51866628e-02, -2.77901683e-02,
       1.18493326e-02, 1.34718101e-02, -2.66582845e-03, -3.51395905e-02,
       -5.87900169e-02, -2.82226801e-02, 1.23422202e-02, 2.53895018e-02,
       3.22037525e-02, -3.26183774e-02, -1.85040012e-02, 1.47612719e-02,
       -1.56244095e-02, -2.06961632e-02, 2.24235046e-04, 3.12817134e-02,
       1.62345283e-02, 5.49452119e-02, 5.89068001e-03, -1.35742947e-02,
       -2.55894079e-03, 1.06721707e-02, -6.76987320e-03, -4.14853059e-02,
       -3.70305888e-02, -4.22704481e-02, -1.29173845e-02,
       -6.30222168e-03, -5.40741719e-03, -5.66345872e-04, 2.38992013e-02,
       9.19888448e-03, -1.80273838e-02, -1.92672685e-02, 3.90713103e-02,
       3.75752635e-02, 4.81062829e-02, 5.45397727e-03, -1.41085573e-02,
       -1.02516683e-02, -2.90475842e-02, -2.46800445e-02, 3.16376844e-03,
       -6.09645480e-03, 1.65204462e-02, -7.74087524e-03, -2.74464451e-02,
       1.30172691e-03, 1.78180784e-02, 4.12815847e-02, 4.26968038e-02,
       -3.24453181e-03, 3.01912501e-02, 3.80119607e-02, 2.20307522e-02,
       1.03321830e-02, 9.97058349e-04, 1.78330429e-02, -6.49739522e-03,
       -1.05117913e-02, -3.64209595e-03, 4.48174439e-02, 2.92841494e-02,
       3.18469368e-02, 1.28279673e-02, -3.47779393e-02, -5.32031395e-02,
       -4.12335396e-02, -2.26401817e-02, 3.37204486e-02, 2.77108066e-02,
       -2.62132417e-02, -2.46059354e-02, -2.94129271e-02,
       -1.23172058e-02, 1.00355893e-02, 4.91907634e-02, 5.40445596e-02,
       -2.13150755e-02, 7.09512178e-03, 3.63713838e-02, 2.38863770e-02,
       1.00890594e-02, -7.43147433e-02, -6.90676570e-02, 6.18879916e-03,
       2.91952565e-02, -1.48009593e-02, -2.98848618e-02, -4.17869240e-02,
       -2.58197431e-02, -5.44132516e-02, -2.13572979e-02,
       -3.08539998e-02, -3.20738554e-02, 4.17337641e-02, 7.46464357e-02,
       7.70034194e-02, -8.04737676e-03, -2.62925792e-02, -2.63821967e-02,
       -1.06537677e-02, -2.14847811e-02, -5.39962277e-02,
       -2.36145165e-02, 6.66304026e-03, 1.18827708e-02, -3.22715007e-02,
       -4.90056686e-02, -1.91082302e-02, -3.34852785e-02,
       -4.04730476e-02, 1.92121956e-02, 9.13232714e-02, 3.64078954e-02,
       1.70007031e-02, -2.45074723e-02, -2.25426052e-02, -1.87640339e-02,
       -3.47966235e-03, -2.45215520e-02, -2.51396783e-02, 1.42303491e-02,
       -3.61881545e-03, -5.40526723e-03, -1.53107774e-02,
       -5.79028670e-03, 1.42186582e-02, 1.72961745e-02, 6.66778581e-03,
       -2.88026221e-02, 4.31648176e-03, 2.74724290e-02, 2.85983533e-02,
       6.59692846e-03, 5.94419939e-03, 2.72186473e-02, 1.65700354e-02,
       -2.54377606e-03, -2.35829558e-02, 4.35736123e-03, 5.17455414e-02,
       2.23083701e-02, 8.35156592e-04, 9.94402822e-03, 3.16780657e-02,
       2.78480239e-02, 4.04752558e-03, -4.28329827e-03, 3.08295731e-02,
       2.88185421e-02, 2.01819111e-02, 5.70036657e-03, 1.62837673e-02,
       3.78422849e-02, -2.58123619e-04, -1.70960668e-02, -1.65110491e-02,
       4.41888906e-02, 5.14262877e-02, 2.36992966e-02, 1.82292573e-02,
       -1.09883986e-04, 1.94820426e-02, 6.37608161e-03, 5.53685706e-04,
       -1.62699185e-02, -3.92451882e-02, 4.12146710e-02, 7.77884051e-02,
       2.08796212e-03, 7.07655353e-03, 3.12326546e-03, 1.08822184e-02,
       -1.36858979e-02, -1.74540617e-02, -2.40301806e-02, 2.46854797e-02,
       4.27242108e-02, -1.78768765e-03, 2.22088140e-03, -4.23290854e-04,
       -3.33915628e-03, 2.24455446e-02, -6.88152527e-03, -4.12479900e-02,
       -3.20045231e-03, 6.22091517e-02, 4.45481315e-02, -7.54631031e-03,
       -2.17286292e-02, 2.30751839e-02, 3.46501470e-02, 1.40914526e-02,
       -1.92958433e-02, -7.74708716e-03, 2.62330100e-02, 4.19981703e-02,
       1.79851544e-03, -1.30858840e-02, 3.38667519e-02, -1.25887897e-02,
       -3.17347124e-02, -2.61542499e-02, 2.02280059e-02, 1.82486251e-02,
       -8.49604513e-03, -1.84912737e-02, 1.39055056e-02, 1.94718670e-02,
       -1.07845897e-02, -4.36041765e-02, -2.79780757e-02, 2.84154918e-02,
       3.77000198e-02, 3.96654680e-02, -1.74282268e-02, 1.23719955e-02,
       4.46535423e-02, 1.13032470e-02, -6.70743594e-03, -3.55173983e-02,
       2.10122671e-03, 1.71577819e-02, 2.93973610e-02, -1.32055003e-02,
       5.12017915e-03, -2.11291248e-03, -2.70137470e-02, -4.47949134e-02,
       -2.02238951e-02, 2.21941387e-03, 3.38742957e-02, 1.65220089e-02,
       -1.47579703e-02, -1.90039966e-02, -2.19347863e-03,
       -2.70368140e-02, -4.45627235e-02, -5.44508211e-02,
       -1.95101239e-02, 2.13202760e-02, 4.07982618e-02, -2.10072584e-02,
       -1.84149630e-02, 1.98698835e-03, 6.84656377e-04, -5.79032488e-03,
       1.13402409e-02, 7.70552037e-03, 2.98834331e-02, 5.62965721e-02,
       4.74230647e-02, 1.03044612e-02, -3.82261053e-02, -5.68127744e-02,
       -5.27002551e-02, -5.89309186e-02, -6.38716072e-02,
       -5.42249866e-02, 1.08960727e-02, 1.97288450e-02, -2.17955802e-02,
       -2.50934251e-02, -3.31553072e-02, -2.08470952e-02, 1.15661562e-04,
       -2.26808432e-02, -1.88844483e-02, 6.60027564e-02, 1.01665542e-01,
       3.59302871e-02, 1.60157960e-02, 1.82591770e-02, -1.76415092e-03,
       9.37778968e-03, 9.50432848e-03, -1.94414537e-02, 1.66009869e-02,
       1.06173046e-02, 1.39715960e-02, 3.56232040e-02, 5.22628017e-02,
       5.45065813e-02, 5.96791655e-02, 1.15227094e-02, -5.33910282e-03,
       2.22680643e-02, 3.29057500e-02, 3.91903408e-02, -5.15950145e-03,
       -1.35187320e-02, -3.11488695e-02, -3.95130925e-02,
       -4.96980734e-02, -6.46079406e-02, -1.07890721e-02, 4.00039069e-02,
       3.35419849e-02, 1.27026699e-02, 3.83693464e-02, 3.57293077e-02,
       -8.24060664e-03, -4.92231362e-02, -4.14229184e-02,
       -4.04800549e-02, -6.10390736e-04, 3.12190875e-02, 4.27004956e-02,
       6.41603172e-02, 9.92283151e-02, 7.15892985e-02, -1.07939690e-02,
       -7.90360477e-03, 4.46689837e-02, 6.17230199e-02, 5.62777705e-02,
       -1.75876580e-02, 1.58724841e-02, 6.90819994e-02, 6.14634939e-02,
       -3.35855633e-02, -4.16077338e-02, -2.43289564e-02,
       -3.19959526e-03, -9.23393574e-03, 1.61993001e-02, 5.52148819e-02,
       6.48178533e-02, 9.65002808e-04, -6.51786551e-02, -3.90307046e-02,
       -1.25603415e-02, 2.10660137e-02, 4.21657711e-02, -2.67347004e-02,
       1.81494951e-02, 1.17796818e-02, -3.53100039e-02, -8.39293227e-02,
       -5.64373732e-02, -4.10204493e-02, -2.08489522e-02,
       -2.28488166e-02, -1.30631374e-02, 3.03863455e-03, 5.76394983e-02,
       8.10962021e-02, 3.15706469e-02, 6.66977419e-03, -1.13182086e-02,
       -1.34194018e-02, -1.31532159e-02, -6.17018482e-03,
       -1.80219822e-02, 7.60454033e-03, 4.00803424e-02, 2.12324727e-02,
       -6.99320901e-03, -9.92878247e-03, 1.23117515e-03, -8.96447990e-03,
       -2.40812008e-03, 4.11186926e-02, 3.76172327e-02, 3.55835631e-02,
       8.39750282e-04, -5.25442464e-03, -1.18200304e-02, -9.10209119e-03,
       -1.52395647e-02, -2.26339046e-02, -1.78592373e-02, 2.83749122e-02,
       3.75052541e-02, -4.07383777e-03, -7.96737801e-03, -3.42480093e-02,
       -9.22021735e-03, -1.74508188e-02, 8.27267487e-03, -7.38878443e-04,
       4.32643816e-02, 4.84749749e-02, 4.19964045e-02, -1.56063680e-03,
       -1.92732585e-03, 1.50929112e-02, 2.04035523e-03, -1.76732298e-02,
       -2.51960866e-02, 3.87374399e-04, 6.04583435e-02, 4.43902873e-02,
       3.75485467e-03, 2.72856117e-03, -7.07376795e-03, -8.75536539e-03,
       -1.11102508e-02, 1.01714283e-02, 5.78259565e-02, 6.13643862e-02,
       1.26076059e-03, -5.21230465e-03, -6.14667358e-03, 1.40192388e-02,
       -3.85130174e-03, -7.15125352e-04, -9.58815496e-03, 4.18728553e-02,
       6.54501915e-02, 1.64664257e-02, -2.58265585e-02, -1.80607755e-02,
       -9.70099680e-03, -9.90482629e-04, -1.18898577e-03, 1.50464429e-02,
       4.85172542e-03, -2.06548050e-02, -2.10869424e-02, 4.52760905e-02,
       3.92965861e-02, -1.77964382e-02, -3.17274369e-02, 1.04288459e-02,
       2.86735073e-02, 1.70086045e-02, -6.66457647e-03, -1.27729429e-02,
       3.37670930e-02, 7.17388093e-02, 2.24590898e-02, -1.47476988e-02,
       -1.13801733e-02, -3.13444529e-03, -6.46371918e-04, 7.55890226e-03,
       -2.38972344e-02, -8.84020608e-03, -2.09207330e-02,
       -2.94259768e-02, -3.61196510e-02, -1.43059697e-02,
       -1.30859455e-02, -9.15810373e-03, 1.18179517e-02, -2.52647940e-02,
       9.68446303e-03, 4.41723131e-02, 5.85161708e-02, -1.41223222e-02,
       1.86899789e-02, 6.70269877e-03, -1.64893027e-02, -9.65175871e-03,
       -2.40190253e-02, 3.10404482e-03, 6.40214011e-02, -4.51298757e-03,
       -1.73206925e-02, -1.30373649e-02, -1.33111542e-02,
       -1.96652766e-02, -2.80365674e-03, -8.66284315e-03,
       -1.77810881e-02, 1.54480338e-02, -2.04773899e-02, -4.50897478e-02,
       -1.10609308e-02, -3.33771179e-03, -3.34500447e-02,
       -1.29834213e-03, -1.05249258e-02, 1.26101198e-02, 6.41420707e-02,
       7.13099912e-02, -3.92001355e-03, -1.32849980e-02, -4.61701583e-03,
       -9.22413636e-03, 1.49826845e-02, -1.39574343e-02, -4.63197473e-03,
       9.84359160e-03, 2.18781270e-02, -1.73536520e-02, -1.86308846e-02,
       -2.62455866e-02, -2.01597102e-02, 1.30213459e-03, -2.29530502e-04,
       -2.81469878e-02, 3.06808725e-02, 4.63061705e-02, 2.30973610e-03,
       -9.90088005e-03, -3.34449001e-02, -1.41445128e-02, 2.95189191e-02,
       1.95395201e-02, -3.76431434e-03, 4.77405451e-02, 8.62164274e-02,
       6.37108907e-02, -8.95301346e-03, -9.30764433e-03, -1.84091683e-02,
       9.83627047e-03, 9.88335256e-03, -3.28463130e-02, -2.26005893e-02,
       3.42545309e-03, -8.08529556e-03, -1.84721574e-02, -4.11655679e-02,
       -5.77576719e-02, 1.80930793e-02, 3.17696184e-02, -2.04628147e-02,
       -2.53778100e-02, 9.32613760e-03, -9.91433300e-03, 9.26691759e-03,
       -1.87553950e-02, -1.23989945e-02, 9.21049435e-03, 1.88031085e-02,
       -1.02719320e-02, 3.94093283e-02, 6.94751889e-02, 6.10385910e-02,
       3.42942812e-02, 5.13031073e-02, 3.71961892e-02, 5.27481921e-03,
       2.15068031e-02, 3.01619340e-03, 1.06119243e-02, 2.41294112e-02,
       3.81758921e-02, -3.98306921e-02, -5.10779805e-02, -5.07730395e-02,
       9.47026256e-03, 1.75728332e-02, -2.66836472e-02, -4.04164381e-02,
       -2.92704459e-02, -2.88388487e-02, -2.12512761e-02,
       -9.04256105e-03, 1.57272571e-03, -2.11293567e-02, 7.71696493e-03,
       -1.85549818e-02, -1.57997999e-02, -3.51761989e-02,
       -4.61444035e-02, 5.18261530e-02, 7.14422390e-02, 7.03841820e-02,
       1.68725308e-02, 1.23755578e-02, 1.75834987e-02, 1.98894460e-02,
       2.06728559e-02, 2.41581537e-02, 7.18945358e-03, 2.93917246e-02,
       2.61168778e-02, -8.12334847e-03, 3.45332577e-04, 3.58095132e-02,
       4.68965247e-02, 2.09352355e-02, 1.09823570e-02, 8.76351696e-05,
       7.04405410e-03, -4.23176633e-03, -1.78645570e-02, 1.36002665e-02,
       4.48041456e-03, -6.63938140e-03, -3.26980501e-02, -3.64917144e-02,
       -1.17008286e-02, -1.93056371e-02, -3.16385888e-02,
       -7.63326231e-03, 1.20688630e-02, 2.61825249e-02, 1.18883951e-02,
       -2.83957552e-02, -1.36638237e-02, -1.21348891e-02, 1.15135079e-02,
       1.10898176e-02, -1.27155520e-03, -2.48691346e-02, 2.43104417e-02,
       2.57106312e-02, 1.17260385e-02, 1.13720936e-03, -1.19437352e-02,
       -9.44964064e-04, 4.74500991e-02, 2.78683603e-02, 2.81607755e-03,
       9.76362638e-03, 7.18670338e-03, 5.11370506e-03, -1.65904853e-02,
       -8.86535458e-03, 1.45178195e-02, -7.67978933e-03, -5.80796599e-03,
       3.50139657e-04, 2.14442462e-02, 2.21230946e-02, -1.02988526e-03,
       5.52283484e-04, 1.89334166e-03, 4.45301607e-02, 4.62031476e-02,
       7.70023186e-03, -2.04008222e-02, -2.92403944e-04, -8.95329867e-05,
       -6.90453826e-03, -5.17789321e-03, -1.11735845e-03, 3.79411653e-02,
       8.14479068e-02, 7.26454258e-02, 1.05976099e-02, -4.32519149e-03,
       -8.36139359e-03, 2.40817128e-04, -4.01634676e-03, -2.67622201e-03,
       -5.71775995e-03, 5.75226732e-02, 7.29002059e-02, 2.24814713e-02,
       -2.62616947e-03, -8.68377835e-03, -2.13181693e-02,
       -1.26641616e-02, 2.72663925e-02, 5.77066131e-02, 7.17993677e-02,
       3.30178887e-02, -2.10361257e-02, -2.16948707e-03, -7.79217063e-03,
       -3.54949664e-03, 1.25303604e-02, 1.45948278e-02, -1.00852782e-03,
       3.21985148e-02, 2.17233319e-02, 2.28266604e-03, -3.44431750e-03,
       -4.27638995e-04, -7.43673509e-03, 5.94513630e-03, 1.18917471e-03,
       9.13530029e-03, 1.00554060e-02, 2.15287935e-02, 2.16292497e-02,
       -1.62628833e-02, -8.66752863e-03, -2.42865961e-02,
       -2.32085641e-02, -1.96916386e-02, -8.23451672e-04, 1.64939056e-03,
       3.47826444e-02, 2.58395402e-03, 2.02548057e-02, 6.39689192e-02,
       8.51368234e-02, -8.54979549e-03, -2.31438763e-02, 1.95842283e-03,
       3.78819183e-03, 5.05457213e-03, 2.47427057e-02, 2.76199467e-02,
       -1.01136835e-02, -1.72794471e-03, 1.05417031e-03, -8.91910773e-03,
       -2.62646284e-02, -4.09237202e-03, 2.39604060e-02, -1.17778573e-02,
       1.97301731e-02, 2.12642439e-02, 3.28899771e-02, 1.83237146e-03,
       -3.15119401e-02, -2.09688931e-03, -3.74137220e-04, 7.53555074e-03,
       -1.56354457e-02, -1.44243035e-02, 6.63753524e-02, 9.32307318e-02,
       -1.96264461e-02, -3.93732004e-02, -3.88972345e-03, 1.51018724e-02,
       2.56734323e-02, -9.61717870e-03, 7.27233104e-03, 3.15200798e-02,
       7.12221935e-02, 1.52960373e-02, -4.38520685e-02, -3.01624574e-02,
       1.66182425e-02, 3.10090128e-02, -9.45486594e-03, -4.44990536e-03,
       1.13815954e-02, 4.02890742e-02, -2.11820621e-02, -5.38408086e-02,
       -4.11268100e-02, 9.51230351e-04, 1.86965019e-02, -2.30193883e-02,
       5.07842703e-03, 3.29348408e-02, 9.15389434e-02, 3.95106785e-02,
       -3.03013753e-02, -1.27245151e-02, -6.33150944e-03, 3.96281108e-02,
       3.89283225e-02, -1.61837339e-02, -1.65718216e-02, 4.25171666e-02,
       1.54958759e-02, -1.62470546e-02, -4.42499369e-02, -3.18901539e-02,
       3.39823887e-02, 5.10524176e-02, -1.24867251e-02, -2.44071037e-02,
       8.32302682e-03, 1.62656289e-02, -2.74254028e-02, -4.54130135e-02,
       -2.96546780e-02, 1.16103822e-02, 1.41510554e-02, -1.35846157e-02,
       -5.25264395e-03, 8.74945521e-02, 6.18797652e-02, 6.29291683e-03,
       -3.80570702e-02, -2.53488757e-02, 1.81748141e-02, 1.75894350e-02,
       -1.82146244e-02, -3.54689993e-02, 4.70993705e-02, 5.71608469e-02,
       7.20721087e-04, -4.13916335e-02, -2.15500444e-02, 3.40468138e-02,
       6.58396035e-02, 7.61124259e-03, -3.16581354e-02, -1.95901077e-02,
       1.32090636e-02, 2.50487518e-03, -1.38376476e-02, 2.81020044e-03,
       2.04739217e-02, 4.08008806e-02, 2.71798987e-02, -1.48039113e-03,
       -3.60958986e-02, -1.70224179e-02, 3.80010121e-02, -3.34715508e-02,
       -1.64916907e-02, 3.03838905e-02, 4.67040837e-02, -8.00664537e-03,
       -3.52509655e-02, -1.27269765e-02, 3.16258445e-02, 3.47923562e-02,
       2.21214704e-02, -3.63188819e-03, 5.36154350e-03, 2.24684533e-02,
       2.94664670e-02, -1.70090254e-02, -3.67263332e-02, 1.52571630e-02,
       2.50718929e-02, 2.99729872e-02, 7.03233061e-03, 7.67667918e-03,
       3.72389220e-02, 2.02479735e-02, -6.31168298e-03, -3.54094058e-02,
       -1.66611318e-02, 3.87331508e-02, 4.26535718e-02, -3.67582613e-03,
       2.22269706e-02, 1.32072270e-02, 9.97952279e-03, -1.32539477e-02,
       -2.92655192e-02, -5.94732352e-03, 4.43875492e-02, 6.31784722e-02,
       -1.95563631e-03, 6.51377393e-03, 8.91718734e-03, 1.09662889e-02,
       -2.87952572e-02, -4.36414555e-02, -1.79462619e-02, 3.68634686e-02,
       8.08156952e-02, -4.04269638e-04, 4.50283010e-03, -3.12873907e-02,
       -7.10676750e-03, -1.10321427e-02, -2.58500222e-02,
       -5.31897545e-02, 3.98836061e-02, 7.06962273e-02, 1.34660546e-02,
       7.78902229e-03, 4.18086816e-03, 1.96425039e-02, 8.33094213e-03,
       3.06289108e-03, 1.22239105e-02, 2.00720895e-02, 8.63188878e-02,
       3.99636924e-02, -6.94491435e-03, -1.48487715e-02, 1.69990566e-02,
       1.82576850e-02, -2.52120476e-03, -7.27083301e-03, 4.96252859e-03,
       7.39755780e-02, -2.06836779e-02, -2.91365385e-02, -1.89512521e-02,
       1.07293772e-02, 2.10769195e-02, 4.97469027e-03, -2.72100847e-02,
       -2.45941654e-02, 4.66128811e-03, -2.00211406e-02, -2.58376710e-02,
       -3.98729816e-02, 2.82275230e-02, 5.89030981e-02, 2.92488281e-02,
       -1.84310805e-02, 3.57419699e-02, 6.76880926e-02, 3.85935158e-02,
       3.82639864e-03, -2.93482887e-03, 3.52340750e-02, 2.30411552e-02,
       8.54482595e-03, 8.91204737e-03, 1.95494108e-02, -3.06048687e-03,
       5.27656171e-03, -6.97071385e-03, 1.06099928e-02, 2.21982375e-02,
       3.31511721e-02, 1.76244043e-02, 1.65084787e-02, -9.75097064e-03,
       -7.33289914e-03, -1.90071519e-02, -1.04327081e-02,
       -3.06628272e-03, 5.04452661e-02, 5.35724796e-02, 3.45734805e-02,
       -1.08576277e-02, -3.54528166e-02, -4.49321046e-02,
       -3.52387764e-02, -2.22311616e-02, -7.21817778e-04, 4.83977273e-02,
       7.58948922e-02, 3.84384096e-02, -1.65811796e-02 ]
