<?xml version="1.0"?>
<opencv_storage>
<cascade>
  <stageType>BOOST</stageType>
  <featureType>HAAR</featureType>
  <height>20</height>
  <width>20</width>
  <stageParams>
    <boostType>GAB</boostType>
    <minHitRate>9.9900001287460327e-01</minHitRate>
    <maxFalseAlarm>5.0000000000000000e-01</maxFalseAlarm>
    <weightTrimRate>9.4999999999999996e-01</weightTrimRate>
    <maxDepth>1</maxDepth>
    <maxWeakCount>100</maxWeakCount></stageParams>
  <featureParams>
    <maxCatCount>0</maxCatCount>
    <featSize>1</featSize>
    <mode>ALL</mode></featureParams>
  <stageNum>20</stageNum>
  <stages>
    <!-- stage 0 -->
    <_>
      <maxWeakCount>14</maxWeakCount>
      <stageThreshold>-1.4508486986160278e+00</stageThreshold>
      <weakClassifiers>
        <_>
          <internalNodes>
            0 -1 235 4.9591749906539917e-02</internalNodes>
          <leafValues>
            -4.0567952394485474e-01 6.5767878293991089e-01</leafValues></_>
        <_>
          <internalNodes>
            0 -1 93 6.4423037692904472e-03</internalNodes>
          <leafValues>
            -3.2452166080474854e-01 5.4408651590347290e-01</leafValues></_>
        <_>
          <internalNodes>
            0 -1 399 2.8202857822179794e-02</internalNodes>
          <leafValues>
            -6.1382305622100830e-01 2.8952699899673462e-01</leafValues></_>
        <_>
          <internalNodes>
            0 -1 437 2.3732695728540421e-02</internalNodes>
          <leafValues>
            -3.0202129483222961e-01 5.6059610843658447e-01</leafValues></_>
        <_>
          <internalNodes>
            0 -1 524 2.3142457008361816e-02</internalNodes>
          <leafValues>
            -1.8529434502124786e-01 7.3969584703445435e-01</leafValues></_>
        <_>
          <internalNodes>
            0 -1 470 5.5590111762285233e-02</internalNodes>
          <leafValues>
            -2.1612973511219025e-01 7.2901952266693115e-01</leafValues></_>
        <_>
          <internalNodes>
            0 -1 281 6.4112618565559387e-02</internalNodes>
          <leafValues>
            -2.7171286940574646e-01 5.4021465778350830e-01</leafValues></_>
        <_>
          <internalNodes>
            0 -1 39 7.0840381085872650e-02</internalNodes>
          <leafValues>
            -3.0733174085617065e-01 5.1101452112197876e-01</leafValues></_>
        <_>
          <internalNodes>
            0 -1 315 6.1624143272638321e-02</internalNodes>
          <leafValues>
            -1.9374038279056549e-01 7.2194761037826538e-01</leafValues></_>
        <_>
          <internalNodes>
            0 -1 380 1.9407719373703003e-02</internalNodes>
          <leafValues>
            -2.8147414326667786e-01 4.6698820590972900e-01</leafValues></_>
        <_>
          <internalNodes>
            0 -1 336 1.3029905036091805e-02</internalNodes>
          <leafValues>
            -2.5795575976371765e-01 6.2383693456649780e-01</leafValues></_>
        <_>
          <internalNodes>
            0 -1 309 7.7339865267276764e-02</internalNodes>
          <leafValues>
            -1.1545307934284210e-01 7.8803986310958862e-01</leafValues></_>
        <_>
          <internalNodes>
            0 -1 278 3.1449116766452789e-02</internalNodes>
          <leafValues>
            -2.2065529227256775e-01 5.2089160680770874e-01</leafValues></_>
        <_>
          <internalNodes>
            0 -1 354 2.6142980903387070e-02</internalNodes>
          <leafValues>
            -2.0298258960247040e-01 6.3386446237564087e-01</leafValues></_></weakClassifiers></_>
    <!-- stage 1 -->
    <_>
      <maxWeakCount>16</maxWeakCount>
      <stageThreshold>-1.1773960590362549e+00</stageThreshold>
      <weakClassifiers>
        <_>
          <internalNodes>
            0 -1 263 1.1393518000841141e-01</internalNodes>
          <leafValues>
            -2.6325756311416626e-01 5.6066411733627319e-01</leafValues></_>
        <_>
          <internalNodes>
            0 -1 505 2.6550460606813431e-02</internalNodes>
          <leafValues>
            -1.9814774394035339e-01 5.8429145812988281e-01</leafValues></_>
        <_>
          <internalNodes>
            0 -1 411 2.2553157061338425e-02</internalNodes>
          <leafValues>
            -2.0352509617805481e-01 6.2033849954605103e-01</leafValues></_>
        <_>
          <internalNodes>
            0 -1 79 6.3979566097259521e-02</internalNodes>
          <leafValues>
            -2.4221530556678772e-01 5.2902150154113770e-01</leafValues></_>
        <_>
          <internalNodes>
            0 -1 139 -3.0303589999675751e-02</internalNodes>
          <leafValues>
            7.0370668172836304e-01 -2.1460811793804169e-01</leafValues></_>
        <_>
          <internalNodes>
            0 -1 152 -1.2225374579429626e-02</internalNodes>
          <leafValues>
            4.8825901746749878e-01 -1.9302830100059509e-01</leafValues></_>
        <_>
          <internalNodes>
            0 -1 210 2.6745073497295380e-02</internalNodes>
          <leafValues>
            -2.7678400278091431e-01 4.5351776480674744e-01</leafValues></_>
        <_>
          <internalNodes>
            0 -1 325 4.5135572552680969e-02</internalNodes>
          <leafValues>
            -3.1098046898841858e-01 4.0639436244964600e-01</leafValues></_>
        <_>
          <internalNodes>
            0 -1 535 1.5399511903524399e-02</internalNodes>
          <leafValues>
            -2.5656074285507202e-01 5.3187489509582520e-01</leafValues></_>
        <_>
          <internalNodes>
            0 -1 218 2.7172271162271500e-02</internalNodes>
          <leafValues>
            -3.0857455730438232e-01 3.6181846261024475e-01</leafValues></_>
        <_>
          <internalNodes>
            0 -1 372 4.7327354550361633e-02</internalNodes>
          <leafValues>
            -2.9271581768989563e-01 4.1838905215263367e-01</leafValues></_>
        <_>
          <internalNodes>
            0 -1 115 3.5177063196897507e-02</internalNodes>
          <leafValues>
            -2.8247836232185364e-01 4.2121177911758423e-01</leafValues></_>
        <_>
          <internalNodes>
            0 -1 270 -3.1142493709921837e-02</internalNodes>
          <leafValues>
            7.1655082702636719e-01 -1.6113778948783875e-01</leafValues></_>
        <_>
          <internalNodes>
            0 -1 551 1.2234004214406013e-02</internalNodes>
          <leafValues>
            -3.0656373500823975e-01 3.6085903644561768e-01</leafValues></_>
        <_>
          <internalNodes>
            0 -1 520 4.3146431446075439e-02</internalNodes>
          <leafValues>
            -1.8277806043624878e-01 6.1512017250061035e-01</leafValues></_>
        <_>
          <internalNodes>
            0 -1 226 1.6758264973759651e-02</internalNodes>
          <leafValues>
            -2.7348515391349792e-01 3.7063965201377869e-01</leafValues></_></weakClassifiers></_>
    <!-- stage 2 -->
    <_>
      <maxWeakCount>17</maxWeakCount>
      <stageThreshold>-1.0406410694122314e+00</stageThreshold>
      <weakClassifiers>
        <_>
          <internalNodes>
            0 -1 548 2.2159434854984283e-02</internalNodes>
          <leafValues>
            -7.4224025011062622e-02 7.5910365581512451e-01</leafValues></_>
        <_>
          <internalNodes>
            0 -1 1 2.8675461187958717e-02</internalNodes>
          <leafValues>
            -3.5651880502700806e-01 2.7568170428276062e-01</leafValues></_>
        <_>
          <internalNodes>
            0 -1 58 5.6253846734762192e-02</internalNodes>
          <leafValues>
            -1.9938656687736511e-01 4.7425058484077454e-01</leafValues></_>
        <_>
          <internalNodes>
            0 -1 5 3.5672061145305634e-02</internalNodes>
          <leafValues>
            -2.3565538227558136e-01 4.9448791146278381e-01</leafValues></_>
        <_>
          <internalNodes>
            0 -1 202 2.5871526449918747e-02</internalNodes>
          <leafValues>
            -3.5017442703247070e-01 2.8108391165733337e-01</leafValues></_>
        <_>
          <internalNodes>
            0 -1 273 -2.1897628903388977e-01</internalNodes>
          <leafValues>
            8.6184936761856079e-01 -8.3908028900623322e-02</leafValues></_>
        <_>
          <internalNodes>
            0 -1 406 5.1152214407920837e-02</internalNodes>
          <leafValues>
            -2.6324743032455444e-01 3.8728711009025574e-01</leafValues></_>
        <_>
          <internalNodes>
            0 -1 7 -8.3949498832225800e-02</internalNodes>
          <leafValues>
            2.7479121088981628e-01 -3.4877896308898926e-01</leafValues></_>
        <_>
          <internalNodes>
            0 -1 392 -2.7724006772041321e-01</internalNodes>
          <leafValues>
            -8.7315082550048828e-01 9.4598934054374695e-02</leafValues></_>
        <_>
          <internalNodes>
            0 -1 250 -5.1310351118445396e-03</internalNodes>
          <leafValues>
            3.0281957983970642e-01 -2.7197840809822083e-01</leafValues></_>
        <_>
          <internalNodes>
            0 -1 502 2.3928809911012650e-02</internalNodes>
          <leafValues>
            -1.8430313467979431e-01 4.7654926776885986e-01</leafValues></_>
        <_>
          <internalNodes>
            0 -1 320 6.8825900554656982e-02</internalNodes>
          <leafValues>
            -1.8851916491985321e-01 4.4864058494567871e-01</leafValues></_>
        <_>
          <internalNodes>
            0 -1 332 -2.7831029146909714e-02</internalNodes>
          <leafValues>
            8.4025931358337402e-01 -1.0462764650583267e-01</leafValues></_>
        <_>
          <internalNodes>
            0 -1 282 2.5191552937030792e-02</internalNodes>
          <leafValues>
            -1.5381987392902374e-01 4.6624255180358887e-01</leafValues></_>
        <_>
          <internalNodes>
            0 -1 508 1.8775507807731628e-02</internalNodes>
          <leafValues>
            -1.9938886165618896e-01 4.9172550439834595e-01</leafValues></_>
        <_>
          <internalNodes>
            0 -1 80 7.9464269801974297e-03</internalNodes>
          <leafValues>
            -2.7527546882629395e-01 2.9546704888343811e-01</leafValues></_>
        <_>
          <internalNodes>
            0 -1 189 9.1169610619544983e-02</internalNodes>
          <leafValues>
            -2.7913045883178711e-01 3.2399755716323853e-01</leafValues></_></weakClassifiers></_>
    <!-- stage 3 -->
    <_>
      <maxWeakCount>19</maxWeakCount>
      <stageThreshold>-1.2555791139602661e+00</stageThreshold>
      <weakClassifiers>
        <_>
          <internalNodes>
            0 -1 526 1.7856787890195847e-02</internalNodes>
          <leafValues>
            -1.1742707341909409e-01 6.3346612453460693e-01</leafValues></_>
        <_>
          <internalNodes>
            0 -1 398 1.2013242812827229e-03</internalNodes>
          <leafValues>
            -5.8561897277832031e-01 1.7857584357261658e-01</leafValues></_>
        <_>
          <internalNodes>
            0 -1 490 3.3566830679774284e-03</internalNodes>
          <leafValues>
            -1.4985191822052002e-01 6.9995582103729248e-01</leafValues></_>
        <_>
          <internalNodes>
            0 -1 47 2.8655786067247391e-02</internalNodes>
          <leafValues>
            -1.4896392822265625e-01 5.5360257625579834e-01</leafValues></_>
        <_>
          <internalNodes>
            0 -1 114 4.2738743126392365e-02</internalNodes>
          <leafValues>
            -3.1300351023674011e-01 3.0582347512245178e-01</leafValues></_>
        <_>
          <internalNodes>
            0 -1 449 3.1277260277420282e-03</internalNodes>
          <leafValues>
            -1.1116386950016022e-01 6.3734567165374756e-01</leafValues></_>
        <_>
          <internalNodes>
            0 -1 513 2.6205569505691528e-02</internalNodes>
          <leafValues>
            -1.5778104960918427e-01 5.3045397996902466e-01</leafValues></_>
        <_>
          <internalNodes>
            0 -1 584 3.2177367247641087e-03</internalNodes>
          <leafValues>
            -1.1916507780551910e-01 6.9680583477020264e-01</leafValues></_>
        <_>
          <internalNodes>
            0 -1 349 1.3421914540231228e-02</internalNodes>
          <leafValues>
            -1.0946325957775116e-01 6.6712135076522827e-01</leafValues></_>
        <_>
          <internalNodes>
            0 -1 573 1.7912317998707294e-03</internalNodes>
          <leafValues>
            -1.1014498770236969e-01 6.4257782697677612e-01</leafValues></_>
        <_>
          <internalNodes>
            0 -1 11 8.1218779087066650e-03</internalNodes>
          <leafValues>
            -1.1335753649473190e-01 6.3332641124725342e-01</leafValues></_>
        <_>
          <internalNodes>
            0 -1 498 -4.5725982636213303e-03</internalNodes>
          <leafValues>
            7.5800144672393799e-01 -9.9618934094905853e-02</leafValues></_>
        <_>
          <internalNodes>
            0 -1 246 3.7047632038593292e-02</internalNodes>
          <leafValues>
            -2.3326751589775085e-01 3.3214479684829712e-01</leafValues></_>
        <_>
          <internalNodes>
            0 -1 215 2.9144307598471642e-02</internalNodes>
          <leafValues>
            -2.0103140175342560e-01 4.0341520309448242e-01</leafValues></_>
        <_>
          <internalNodes>
            0 -1 102 4.3220065534114838e-02</internalNodes>
          <leafValues>
            -2.3896397650241852e-01 3.7523168325424194e-01</leafValues></_>
        <_>
          <internalNodes>
            0 -1 53 7.9124923795461655e-03</internalNodes>
          <leafValues>
            -1.6756759583950043e-01 5.2689141035079956e-01</leafValues></_>
        <_>
          <internalNodes>
            0 -1 177 -2.8631002642214298e-03</internalNodes>
          <leafValues>
            8.1747776269912720e-01 -9.2678256332874298e-02</leafValues></_>
        <_>
          <internalNodes>
            0 -1 555 -1.4137362129986286e-02</internalNodes>
          <leafValues>
            8.6166733503341675e-01 -6.3852600753307343e-02</leafValues></_>
        <_>
          <internalNodes>
            0 -1 555 9.3736704438924789e-03</internalNodes>
          <leafValues>
            -1.3228611648082733e-01 5.5973464250564575e-01</leafValues></_></weakClassifiers></_>
    <!-- stage 4 -->
    <_>
      <maxWeakCount>18</maxWeakCount>
      <stageThreshold>-8.4623557329177856e-01</stageThreshold>
      <weakClassifiers>
        <_>
          <internalNodes>
            0 -1 400 7.9880841076374054e-03</internalNodes>
          <leafValues>
            -9.8010316491127014e-02 6.0995852947235107e-01</leafValues></_>
        <_>
          <internalNodes>
            0 -1 400 -1.0751154273748398e-02</internalNodes>
          <leafValues>
            7.3200881481170654e-01 -1.4212755858898163e-01</leafValues></_>
        <_>
          <internalNodes>
            0 -1 531 9.8569355905056000e-03</internalNodes>
          <leafValues>
            -1.5231683850288391e-01 5.6698912382125854e-01</leafValues></_>
        <_>
          <internalNodes>
            0 -1 515 8.0343363806605339e-03</internalNodes>
          <leafValues>
            -1.6961053013801575e-01 5.7369226217269897e-01</leafValues></_>
        <_>
          <internalNodes>
            0 -1 313 9.6138082444667816e-03</internalNodes>
          <leafValues>
            -1.7564125359058380e-01 5.6442832946777344e-01</leafValues></_>
        <_>
          <internalNodes>
            0 -1 515 -1.2521829456090927e-02</internalNodes>
          <leafValues>
            7.1834933757781982e-01 -1.2959873676300049e-01</leafValues></_>
        <_>
          <internalNodes>
            0 -1 381 1.1930741369724274e-02</internalNodes>
          <leafValues>
            1.7659127712249756e-01 -6.2748813629150391e-01</leafValues></_>
        <_>
          <internalNodes>
            0 -1 13 -1.2189283967018127e-02</internalNodes>
          <leafValues>
            6.5646934509277344e-01 -1.3163407146930695e-01</leafValues></_>
        <_>
          <internalNodes>
            0 -1 405 6.2383860349655151e-03</internalNodes>
          <leafValues>
            -2.3195615410804749e-01 4.6396750211715698e-01</leafValues></_>
        <_>
          <internalNodes>
            0 -1 317 1.1780269443988800e-02</internalNodes>
          <leafValues>
            -1.5288929641246796e-01 6.8557399511337280e-01</leafValues></_>
        <_>
          <internalNodes>
            0 -1 148 9.1562513262033463e-03</internalNodes>
          <leafValues>
            -1.4445848762989044e-01 6.2938344478607178e-01</leafValues></_>
        <_>
          <internalNodes>
            0 -1 516 8.1556709483265877e-03</internalNodes>
          <leafValues>
            -1.6691401600837708e-01 6.0280168056488037e-01</leafValues></_>
        <_>
          <internalNodes>
            0 -1 60 -9.3961078673601151e-03</internalNodes>
          <leafValues>
            6.1031937599182129e-01 -1.5125192701816559e-01</leafValues></_>
        <_>
          <internalNodes>
            0 -1 301 7.2343973442912102e-03</internalNodes>
          <leafValues>
            -1.5503582358360291e-01 5.8748316764831543e-01</leafValues></_>
        <_>
          <internalNodes>
            0 -1 49 -3.6876164376735687e-03</internalNodes>
          <leafValues>
            8.3838254213333130e-01 -1.2125347554683685e-01</leafValues></_>
        <_>
          <internalNodes>
            0 -1 581 -3.7123109214007854e-03</internalNodes>
          <leafValues>
            8.6558777093887329e-01 -7.4766762554645538e-02</leafValues></_>
        <_>
          <internalNodes>
            0 -1 326 -7.1357548236846924e-02</internalNodes>
          <leafValues>
            7.2275316715240479e-01 -1.1345395445823669e-01</leafValues></_>
        <_>
          <internalNodes>
            0 -1 303 1.1292245239019394e-02</internalNodes>
          <leafValues>
            -1.2881556153297424e-01 7.1248930692672729e-01</leafValues></_></weakClassifiers></_>
    <!-- stage 5 -->
    <_>
      <maxWeakCount>30</maxWeakCount>
      <stageThreshold>-1.1555643081665039e+00</stageThreshold>
      <weakClassifiers>
        <_>
          <internalNodes>
            0 -1 216 2.9840556904673576e-02</internalNodes>
          <leafValues>
            2.1916010975837708e-01 -5.4920637607574463e-01</leafValues></_>
        <_>
          <internalNodes>
            0 -1 371 -7.9578205943107605e-02</internalNodes>
          <leafValues>
            6.9818979501724243e-01 -1.3800236582756042e-01</leafValues></_>
        <_>
          <internalNodes>
            0 -1 6 -4.9115158617496490e-02</internalNodes>
          <leafValues>
            -6.5818256139755249e-01 1.1959259212017059e-01</leafValues></_>
        <_>
          <internalNodes>
            0 -1 213 1.5642240643501282e-02</internalNodes>
          <leafValues>
            -1.7390806972980499e-01 4.2029860615730286e-01</leafValues></_>
        <_>
          <internalNodes>
            0 -1 433 4.9737975001335144e-02</internalNodes>
          <leafValues>
            -2.0048308372497559e-01 2.9940223693847656e-01</leafValues></_>
        <_>
          <internalNodes>
            0 -1 285 2.5645414367318153e-02</internalNodes>
          <leafValues>
            -2.0371617376804352e-01 3.1721213459968567e-01</leafValues></_>
        <_>
          <internalNodes>
            0 -1 84 3.7656381726264954e-02</internalNodes>
          <leafValues>
            -2.4171580374240875e-01 3.6363005638122559e-01</leafValues></_>
        <_>
          <internalNodes>
            0 -1 412 5.9343412518501282e-02</internalNodes>
          <leafValues>
            -2.5200334191322327e-01 3.3104905486106873e-01</leafValues></_>
        <_>
          <internalNodes>
            0 -1 157 9.6109630540013313e-03</internalNodes>
          <leafValues>
            -1.7703342437744141e-01 3.8116714358329773e-01</leafValues></_>
        <_>
          <internalNodes>
            0 -1 113 -2.0744932815432549e-02</internalNodes>
          <leafValues>
            6.8772703409194946e-01 -7.4642509222030640e-02</leafValues></_>
        <_>
          <internalNodes>
            0 -1 571 1.5507016330957413e-02</internalNodes>
          <leafValues>
            -1.3870072364807129e-01 5.0337290763854980e-01</leafValues></_>
        <_>
          <internalNodes>
            0 -1 447 3.9852790534496307e-02</internalNodes>
          <leafValues>
            -7.9954706132411957e-02 7.2250640392303467e-01</leafValues></_>
        <_>
          <internalNodes>
            0 -1 459 -4.0767479687929153e-02</internalNodes>
          <leafValues>
            6.4388644695281982e-01 -9.1717436909675598e-02</leafValues></_>
        <_>
          <internalNodes>
            0 -1 186 1.4072512276470661e-02</internalNodes>
          <leafValues>
            -2.2534088790416718e-01 2.7869859337806702e-01</leafValues></_>
        <_>
          <internalNodes>
            0 -1 442 3.3111825585365295e-02</internalNodes>
          <leafValues>
            -2.0262715220451355e-01 3.5607412457466125e-01</leafValues></_>
        <_>
          <internalNodes>
            0 -1 351 5.9079816564917564e-03</internalNodes>
          <leafValues>
            -1.1724174022674561e-01 5.3298527002334595e-01</leafValues></_>
        <_>
          <internalNodes>
            0 -1 526 -2.3598225787281990e-02</internalNodes>
          <leafValues>
            5.6924122571945190e-01 -9.4191886484622955e-02</leafValues></_>
        <_>
          <internalNodes>
            0 -1 476 -8.3693660795688629e-02</internalNodes>
          <leafValues>
            8.1383275985717773e-01 -6.3953228294849396e-02</leafValues></_>
        <_>
          <internalNodes>
            0 -1 402 -6.3510090112686157e-02</internalNodes>
          <leafValues>
            5.1703453063964844e-01 -1.2671709060668945e-01</leafValues></_>
        <_>
          <internalNodes>
            0 -1 235 5.1700487732887268e-02</internalNodes>
          <leafValues>
            -2.6957035064697266e-01 2.3934827744960785e-01</leafValues></_>
        <_>
          <internalNodes>
            0 -1 189 -2.4261784553527832e-01</internalNodes>
          <leafValues>
            8.5136228799819946e-01 -8.8025175034999847e-02</leafValues></_>
        <_>
          <internalNodes>
            0 -1 218 5.1902331411838531e-02</internalNodes>
          <leafValues>
            -1.8239934742450714e-01 3.2217478752136230e-01</leafValues></_>
        <_>
          <internalNodes>
            0 -1 116 7.0211999118328094e-02</internalNodes>
          <leafValues>
            -2.5857511162757874e-01 2.8678667545318604e-01</leafValues></_>
        <_>
          <internalNodes>
            0 -1 292 -7.3219284415245056e-02</internalNodes>
          <leafValues>
            6.6345953941345215e-01 -9.5714218914508820e-02</leafValues></_>
        <_>
          <internalNodes>
            0 -1 395 5.8921324089169502e-03</internalNodes>
          <leafValues>
            -7.0602983236312866e-02 7.5100749731063843e-01</leafValues></_>
        <_>
          <internalNodes>
            0 -1 416 -1.6006492078304291e-03</internalNodes>
          <leafValues>
            -6.8389934301376343e-01 1.0395080596208572e-01</leafValues></_>
        <_>
          <internalNodes>
            0 -1 580 -4.7004520893096924e-03</internalNodes>
          <leafValues>
            6.9557011127471924e-01 -1.0935287177562714e-01</leafValues></_>
        <_>
          <internalNodes>
            0 -1 578 5.0170505419373512e-03</internalNodes>
          <leafValues>
            -1.7613258957862854e-01 3.7777811288833618e-01</leafValues></_>
        <_>
          <internalNodes>
            0 -1 66 2.5389200076460838e-02</internalNodes>
          <leafValues>
            1.0600594431161880e-01 -5.6570005416870117e-01</leafValues></_>
        <_>
          <internalNodes>
            0 -1 178 1.8641009926795959e-02</internalNodes>
          <leafValues>
            -1.6905519366264343e-01 3.4192773699760437e-01</leafValues></_></weakClassifiers></_>
    <!-- stage 6 -->
    <_>
      <maxWeakCount>33</maxWeakCount>
      <stageThreshold>-1.0641592741012573e+00</stageThreshold>
      <weakClassifiers>
        <_>
          <internalNodes>
            0 -1 374 -5.6045763194561005e-02</internalNodes>
          <leafValues>
            6.5605098009109497e-01 -2.9508195817470551e-02</leafValues></_>
        <_>
          <internalNodes>
            0 -1 323 5.7758942246437073e-02</internalNodes>
          <leafValues>
            -1.6854681074619293e-01 3.8142690062522888e-01</leafValues></_>
        <_>
          <internalNodes>
            0 -1 2 8.5731171071529388e-02</internalNodes>
          <leafValues>
            -2.3387978971004486e-01 2.4871435761451721e-01</leafValues></_>
        <_>
          <internalNodes>
            0 -1 77 -3.1116863247007132e-03</internalNodes>
          <leafValues>
            7.1854394674301147e-01 -1.3220052421092987e-01</leafValues></_>
        <_>
          <internalNodes>
            0 -1 89 2.2708632051944733e-02</internalNodes>
          <leafValues>
            -2.4604016542434692e-01 2.6981800794601440e-01</leafValues></_>
        <_>
          <internalNodes>
            0 -1 46 2.0758757367730141e-02</internalNodes>
          <leafValues>
            -2.6538187265396118e-01 2.9625639319419861e-01</leafValues></_>
        <_>
          <internalNodes>
            0 -1 449 5.1734820008277893e-03</internalNodes>
          <leafValues>
            -3.9670426398515701e-02 7.1801751852035522e-01</leafValues></_>
        <_>
          <internalNodes>
            0 -1 61 -1.2354634702205658e-02</internalNodes>
          <leafValues>
            7.0064753293991089e-01 -1.2366497516632080e-01</leafValues></_>
        <_>
          <internalNodes>
            0 -1 419 -3.2177861430682242e-04</internalNodes>
          <leafValues>
            -3.5833740234375000e-01 1.8829986453056335e-01</leafValues></_>
        <_>
          <internalNodes>
            0 -1 343 -3.5878494381904602e-02</internalNodes>
          <leafValues>
            6.0237276554107666e-01 -1.3761067390441895e-01</leafValues></_>
        <_>
          <internalNodes>
            0 -1 198 1.9868019968271255e-02</internalNodes>
          <leafValues>
            -1.9074301421642303e-01 2.9848709702491760e-01</leafValues></_>
        <_>
          <internalNodes>
            0 -1 387 1.9748331978917122e-02</internalNodes>
          <leafValues>
            1.2336792051792145e-01 -5.4348373413085938e-01</leafValues></_>
        <_>
          <internalNodes>
            0 -1 583 -5.2173743024468422e-03</internalNodes>
          <leafValues>
            7.4130517244338989e-01 -1.0054053366184235e-01</leafValues></_>
        <_>
          <internalNodes>
            0 -1 18 1.8045961856842041e-02</internalNodes>
          <leafValues>
            1.2866903841495514e-01 -5.3388065099716187e-01</leafValues></_>
        <_>
          <internalNodes>
            0 -1 166 3.7018707953393459e-03</internalNodes>
          <leafValues>
            -1.1247128993272781e-01 5.8626753091812134e-01</leafValues></_>
        <_>
          <internalNodes>
            0 -1 310 -1.8435910344123840e-02</internalNodes>
          <leafValues>
            6.6104447841644287e-01 -8.1007853150367737e-02</leafValues></_>
        <_>
          <internalNodes>
            0 -1 566 -3.3164031337946653e-03</internalNodes>
          <leafValues>
            7.4709922075271606e-01 -6.5599478781223297e-02</leafValues></_>
        <_>
          <internalNodes>
            0 -1 614 1.9040663028135896e-03</internalNodes>
          <leafValues>
            1.6101489961147308e-01 -3.7343370914459229e-01</leafValues></_>
        <_>
          <internalNodes>
            0 -1 604 1.6985392197966576e-02</internalNodes>
          <leafValues>
            7.9989917576313019e-02 -7.5472742319107056e-01</leafValues></_>
        <_>
          <internalNodes>
            0 -1 69 1.1572513729333878e-02</internalNodes>
          <leafValues>
            -1.2054782360792160e-01 5.2353203296661377e-01</leafValues></_>
        <_>
          <internalNodes>
            0 -1 307 -5.3428350947797298e-03</internalNodes>
          <leafValues>
            6.9940805435180664e-01 -7.4644818902015686e-02</leafValues></_>
        <_>
          <internalNodes>
            0 -1 24 5.9366021305322647e-03</internalNodes>
          <leafValues>
            -7.9835869371891022e-02 6.4900064468383789e-01</leafValues></_>
        <_>
          <internalNodes>
            0 -1 55 9.2547666281461716e-03</internalNodes>
          <leafValues>
            -2.2078227996826172e-01 2.6231470704078674e-01</leafValues></_>
        <_>
          <internalNodes>
            0 -1 3 -9.8905973136425018e-02</internalNodes>
          <leafValues>
            -7.0987987518310547e-01 8.7051309645175934e-02</leafValues></_>
        <_>
          <internalNodes>
            0 -1 219 9.9361628293991089e-02</internalNodes>
          <leafValues>
            -2.1694682538509369e-01 3.0712500214576721e-01</leafValues></_>
        <_>
          <internalNodes>
            0 -1 382 -6.0995214153081179e-04</internalNodes>
          <leafValues>
            -5.1182252168655396e-01 1.3453884422779083e-01</leafValues></_>
        <_>
          <internalNodes>
            0 -1 382 8.3497480954974890e-04</internalNodes>
          <leafValues>
            1.5692229568958282e-01 -4.8223447799682617e-01</leafValues></_>
        <_>
          <internalNodes>
            0 -1 356 -1.3125652447342873e-02</internalNodes>
          <leafValues>
            3.5975044965744019e-01 -2.1105545759201050e-01</leafValues></_>
        <_>
          <internalNodes>
            0 -1 364 1.5853784978389740e-02</internalNodes>
          <leafValues>
            -1.7853750288486481e-01 3.5708737373352051e-01</leafValues></_>
        <_>
          <internalNodes>
            0 -1 454 1.7991188913583755e-02</internalNodes>
          <leafValues>
            -1.7864668369293213e-01 3.8013193011283875e-01</leafValues></_>
        <_>
          <internalNodes>
            0 -1 200 6.4372271299362183e-02</internalNodes>
          <leafValues>
            -2.0752143859863281e-01 3.0965578556060791e-01</leafValues></_>
        <_>
          <internalNodes>
            0 -1 527 -4.6813725493848324e-03</internalNodes>
          <leafValues>
            7.0625346899032593e-01 -9.1612324118614197e-02</leafValues></_>
        <_>
          <internalNodes>
            0 -1 547 2.9387913644313812e-02</internalNodes>
          <leafValues>
            -9.0692169964313507e-02 6.7781132459640503e-01</leafValues></_></weakClassifiers></_>
    <!-- stage 7 -->
    <_>
      <maxWeakCount>33</maxWeakCount>
      <stageThreshold>-1.2750037908554077e+00</stageThreshold>
      <weakClassifiers>
        <_>
          <internalNodes>
            0 -1 280 4.5238004531711340e-05</internalNodes>
          <leafValues>
            -2.0673076808452606e-01 3.3068519830703735e-01</leafValues></_>
        <_>
          <internalNodes>
            0 -1 601 2.0811859940295108e-05</internalNodes>
          <leafValues>
            -2.8788250684738159e-01 2.0981888473033905e-01</leafValues></_>
        <_>
          <internalNodes>
            0 -1 67 -1.2415133416652679e-01</internalNodes>
          <leafValues>
            -5.8277487754821777e-01 1.0000219941139221e-01</leafValues></_>
        <_>
          <internalNodes>
            0 -1 603 -2.3380243874271400e-05</internalNodes>
          <leafValues>
            2.3227831721305847e-01 -2.4230250716209412e-01</leafValues></_>
        <_>
          <internalNodes>
            0 -1 543 -1.4831634238362312e-02</internalNodes>
          <leafValues>
            5.1886004209518433e-01 -1.2118836492300034e-01</leafValues></_>
        <_>
          <internalNodes>
            0 -1 576 2.8467059135437012e-02</internalNodes>
          <leafValues>
            6.8825878202915192e-02 -7.8229963779449463e-01</leafValues></_>
        <_>
          <internalNodes>
            0 -1 194 -1.6758114099502563e-02</internalNodes>
          <leafValues>
            6.0588169097900391e-01 -1.0587344318628311e-01</leafValues></_>
        <_>
          <internalNodes>
            0 -1 239 4.2290208511985838e-05</internalNodes>
          <leafValues>
            -2.6185718178749084e-01 2.5706502795219421e-01</leafValues></_>
        <_>
          <internalNodes>
            0 -1 333 2.6930011808872223e-02</internalNodes>
          <leafValues>
            -3.2108923792839050e-01 1.7480047047138214e-01</leafValues></_>
        <_>
          <internalNodes>
            0 -1 75 3.1658656895160675e-02</internalNodes>
          <leafValues>
            -2.1611212193965912e-01 2.5990915298461914e-01</leafValues></_>
        <_>
          <internalNodes>
            0 -1 361 -2.6075562462210655e-02</internalNodes>
          <leafValues>
            3.8360774517059326e-01 -1.6497139632701874e-01</leafValues></_>
        <_>
          <internalNodes>
            0 -1 56 1.4983195811510086e-02</internalNodes>
          <leafValues>
            -2.4618592858314514e-01 2.6983478665351868e-01</leafValues></_>
        <_>
          <internalNodes>
            0 -1 289 6.4295843243598938e-02</internalNodes>
          <leafValues>
            -2.4757449328899384e-01 2.7737864851951599e-01</leafValues></_>
        <_>
          <internalNodes>
            0 -1 572 1.7455155029892921e-03</internalNodes>
          <leafValues>
            -1.1230750381946564e-01 5.2413171529769897e-01</leafValues></_>
        <_>
          <internalNodes>
            0 -1 365 1.2169353663921356e-01</internalNodes>
          <leafValues>
            7.8292042016983032e-02 -9.4786810874938965e-01</leafValues></_>
        <_>
          <internalNodes>
            0 -1 573 3.4455708228051662e-03</internalNodes>
          <leafValues>
            -1.0520347207784653e-01 7.3542708158493042e-01</leafValues></_>
        <_>
          <internalNodes>
            0 -1 605 1.3967320322990417e-02</internalNodes>
          <leafValues>
            8.3532735705375671e-02 -7.7504330873489380e-01</leafValues></_>
        <_>
          <internalNodes>
            0 -1 168 4.7178305685520172e-03</internalNodes>
          <leafValues>
            -2.2904650866985321e-01 2.2656664252281189e-01</leafValues></_>
        <_>
          <internalNodes>
            0 -1 418 -1.2537848670035601e-03</internalNodes>
          <leafValues>
            -4.0799230337142944e-01 1.3040490448474884e-01</leafValues></_>
        <_>
          <internalNodes>
            0 -1 199 1.2798091396689415e-02</internalNodes>
          <leafValues>
            -1.4121365547180176e-01 4.7496381402015686e-01</leafValues></_>
        <_>
          <internalNodes>
            0 -1 311 5.4720520973205566e-02</internalNodes>
          <leafValues>
            -1.8016469478607178e-01 3.4697547554969788e-01</leafValues></_>
        <_>
          <internalNodes>
            0 -1 358 -1.7528939247131348e-01</internalNodes>
          <leafValues>
            6.9546270370483398e-01 -1.0001879185438156e-01</leafValues></_>
        <_>
          <internalNodes>
            0 -1 328 4.6519171446561813e-02</internalNodes>
          <leafValues>
            -2.2168347239494324e-01 3.5296508669853210e-01</leafValues></_>
        <_>
          <internalNodes>
            0 -1 117 1.4308592304587364e-02</internalNodes>
          <leafValues>
            -2.3927490413188934e-01 2.5198611617088318e-01</leafValues></_>
        <_>
          <internalNodes>
            0 -1 410 2.5849837809801102e-02</internalNodes>
          <leafValues>
            -3.1140491366386414e-01 2.5042542815208435e-01</leafValues></_>
        <_>
          <internalNodes>
            0 -1 511 9.3784080818295479e-03</internalNodes>
          <leafValues>
            -2.2692386806011200e-01 2.7263188362121582e-01</leafValues></_>
        <_>
          <internalNodes>
            0 -1 422 -4.1830450296401978e-02</internalNodes>
          <leafValues>
            6.2072873115539551e-01 -9.9413216114044189e-02</leafValues></_>
        <_>
          <internalNodes>
            0 -1 559 -9.1571249067783356e-03</internalNodes>
          <leafValues>
            6.1391794681549072e-01 -8.4105640649795532e-02</leafValues></_>
        <_>
          <internalNodes>
            0 -1 540 5.9060016646981239e-03</internalNodes>
          <leafValues>
            -2.1834686398506165e-01 3.0134946107864380e-01</leafValues></_>
        <_>
          <internalNodes>
            0 -1 225 3.5427562892436981e-02</internalNodes>
          <leafValues>
            -2.0312620699405670e-01 3.1045731902122498e-01</leafValues></_>
        <_>
          <internalNodes>
            0 -1 480 -2.1203695723670535e-05</internalNodes>
          <leafValues>
            2.3678259551525116e-01 -2.4529305100440979e-01</leafValues></_>
        <_>
          <internalNodes>
            0 -1 163 3.4679166972637177e-02</internalNodes>
          <leafValues>
            7.5250223278999329e-02 -8.4444189071655273e-01</leafValues></_>
        <_>
          <internalNodes>
            0 -1 68 -5.3286727052181959e-04</internalNodes>
          <leafValues>
            -4.0423604846000671e-01 1.3338407874107361e-01</leafValues></_></weakClassifiers></_>
    <!-- stage 8 -->
    <_>
      <maxWeakCount>38</maxWeakCount>
      <stageThreshold>-1.3234193325042725e+00</stageThreshold>
      <weakClassifiers>
        <_>
          <internalNodes>
            0 -1 551 9.5012150704860687e-03</internalNodes>
          <leafValues>
            -2.1134020388126373e-01 3.0573847889900208e-01</leafValues></_>
        <_>
          <internalNodes>
            0 -1 97 -2.4793389439582825e-01</internalNodes>
          <leafValues>
            -8.5226494073867798e-01 6.2907069921493530e-02</leafValues></_>
        <_>
          <internalNodes>
            0 -1 32 3.3337179571390152e-02</internalNodes>
          <leafValues>
            9.6917219460010529e-02 -6.8330377340316772e-01</leafValues></_>
        <_>
          <internalNodes>
            0 -1 558 -7.7512231655418873e-03</internalNodes>
          <leafValues>
            6.7726480960845947e-01 -8.5607275366783142e-02</leafValues></_>
        <_>
          <internalNodes>
            0 -1 455 8.0282166600227356e-02</internalNodes>
          <leafValues>
            -1.1213538795709610e-01 4.2076522111892700e-01</leafValues></_>
        <_>
          <internalNodes>
            0 -1 334 -3.0888210982084274e-02</internalNodes>
          <leafValues>
            3.9683538675308228e-01 -1.3591974973678589e-01</leafValues></_>
        <_>
          <internalNodes>
            0 -1 339 2.3293887352338061e-05</internalNodes>
          <leafValues>
            -2.8833344578742981e-01 2.0659811794757843e-01</leafValues></_>
        <_>
          <internalNodes>
            0 -1 248 1.0372567921876907e-03</internalNodes>
          <leafValues>
            1.4935678243637085e-01 -4.1997969150543213e-01</leafValues></_>
        <_>
          <internalNodes>
            0 -1 179 -6.5278828144073486e-02</internalNodes>
          <leafValues>
            5.8814549446105957e-01 -1.1962662637233734e-01</leafValues></_>
        <_>
          <internalNodes>
            0 -1 176 3.0936244875192642e-02</internalNodes>
          <leafValues>
            7.9229690134525299e-02 -6.7579209804534912e-01</leafValues></_>
        <_>
          <internalNodes>
            0 -1 111 8.7515920400619507e-02</internalNodes>
          <leafValues>
            -2.2361451387405396e-01 2.4137504398822784e-01</leafValues></_>
        <_>
          <internalNodes>
            0 -1 299 2.2012542933225632e-02</internalNodes>
          <leafValues>
            -2.0660501718521118e-01 3.5369256138801575e-01</leafValues></_>
        <_>
          <internalNodes>
            0 -1 409 -7.2624914348125458e-02</internalNodes>
          <leafValues>
            5.6076395511627197e-01 -7.5447745621204376e-02</leafValues></_>
        <_>
          <internalNodes>
            0 -1 529 3.1703186687082052e-03</internalNodes>
          <leafValues>
            -8.4590502083301544e-02 6.6020756959915161e-01</leafValues></_>
        <_>
          <internalNodes>
            0 -1 609 3.4589291317388415e-04</internalNodes>
          <leafValues>
            1.6716034710407257e-01 -3.3351838588714600e-01</leafValues></_>
        <_>
          <internalNodes>
            0 -1 609 -3.0735111795365810e-04</internalNodes>
          <leafValues>
            -3.9149093627929688e-01 2.0084209740161896e-01</leafValues></_>
        <_>
          <internalNodes>
            0 -1 486 7.2829360142350197e-03</internalNodes>
          <leafValues>
            -1.4006732404232025e-01 4.0012392401695251e-01</leafValues></_>
        <_>
          <internalNodes>
            0 -1 416 -1.4947324525564909e-03</internalNodes>
          <leafValues>
            -6.3991498947143555e-01 8.3097308874130249e-02</leafValues></_>
        <_>
          <internalNodes>
            0 -1 302 -5.0636120140552521e-03</internalNodes>
          <leafValues>
            6.3472986221313477e-01 -8.9047066867351532e-02</leafValues></_>
        <_>
          <internalNodes>
            0 -1 259 -3.4822595771402121e-03</internalNodes>
          <leafValues>
            5.1382261514663696e-01 -9.5543682575225830e-02</leafValues></_>
        <_>
          <internalNodes>
            0 -1 518 -1.9568979740142822e-02</internalNodes>
          <leafValues>
            -5.5080145597457886e-01 1.0149251669645309e-01</leafValues></_>
        <_>
          <internalNodes>
            0 -1 472 -1.0573364794254303e-01</internalNodes>
          <leafValues>
            -7.8324413299560547e-01 5.9722818434238434e-02</leafValues></_>
        <_>
          <internalNodes>
            0 -1 170 -3.2613045186735690e-04</internalNodes>
          <leafValues>
            -3.3449846506118774e-01 1.4017055928707123e-01</leafValues></_>
        <_>
          <internalNodes>
            0 -1 557 -3.5073172301054001e-02</internalNodes>
          <leafValues>
            6.1346179246902466e-01 -8.7007075548171997e-02</leafValues></_>
        <_>
          <internalNodes>
            0 -1 222 1.1131878942251205e-02</internalNodes>
          <leafValues>
            -1.1091487109661102e-01 4.4609311223030090e-01</leafValues></_>
        <_>
          <internalNodes>
            0 -1 475 -2.4431627243757248e-02</internalNodes>
          <leafValues>
            5.8133125305175781e-01 -8.4830097854137421e-02</leafValues></_>
        <_>
          <internalNodes>
            0 -1 436 4.2780876159667969e-02</internalNodes>
          <leafValues>
            -2.0573897659778595e-01 2.6680469512939453e-01</leafValues></_>
        <_>
          <internalNodes>
            0 -1 35 -5.2450140938162804e-03</internalNodes>
          <leafValues>
            7.0646315813064575e-01 -6.8478636443614960e-02</leafValues></_>
        <_>
          <internalNodes>
            0 -1 68 5.5008509662002325e-04</internalNodes>
          <leafValues>
            1.7340184748172760e-01 -3.2410737872123718e-01</leafValues></_>
        <_>
          <internalNodes>
            0 -1 494 -7.4808828532695770e-02</internalNodes>
          <leafValues>
            4.5900472998619080e-01 -1.1173244565725327e-01</leafValues></_>
        <_>
          <internalNodes>
            0 -1 230 2.8899827972054482e-02</internalNodes>
          <leafValues>
            -2.0763711631298065e-01 3.0163019895553589e-01</leafValues></_>
        <_>
          <internalNodes>
            0 -1 135 1.2212527915835381e-02</internalNodes>
          <leafValues>
            -2.3354193568229675e-01 2.4339893460273743e-01</leafValues></_>
        <_>
          <internalNodes>
            0 -1 269 -1.5773955732584000e-02</internalNodes>
          <leafValues>
            6.3509422540664673e-01 -1.2487846612930298e-01</leafValues></_>
        <_>
          <internalNodes>
            0 -1 71 5.4410465061664581e-02</internalNodes>
          <leafValues>
            -2.1216465532779694e-01 3.0213844776153564e-01</leafValues></_>
        <_>
          <internalNodes>
            0 -1 401 3.1279731541872025e-02</internalNodes>
          <leafValues>
            -8.4005482494831085e-02 6.3075011968612671e-01</leafValues></_>
        <_>
          <internalNodes>
            0 -1 196 4.4825784862041473e-02</internalNodes>
          <leafValues>
            -2.6017701625823975e-01 2.2067178785800934e-01</leafValues></_>
        <_>
          <internalNodes>
            0 -1 342 9.8469862714409828e-03</internalNodes>
          <leafValues>
            -2.8827792406082153e-01 2.1088768541812897e-01</leafValues></_>
        <_>
          <internalNodes>
            0 -1 277 2.3768293857574463e-01</internalNodes>
          <leafValues>
            7.2102345526218414e-02 -8.3271038532257080e-01</leafValues></_></weakClassifiers></_>
    <!-- stage 9 -->
    <_>
      <maxWeakCount>38</maxWeakCount>
      <stageThreshold>-1.1070908308029175e+00</stageThreshold>
      <weakClassifiers>
        <_>
          <internalNodes>
            0 -1 567 -4.9863860476762056e-04</internalNodes>
          <leafValues>
            -3.1546393036842346e-01 2.3190546035766602e-01</leafValues></_>
        <_>
          <internalNodes>
            0 -1 439 -2.6716478168964386e-04</internalNodes>
          <leafValues>
            -3.1923243403434753e-01 1.6819339990615845e-01</leafValues></_>
        <_>
          <internalNodes>
            0 -1 330 -7.8462865203619003e-03</internalNodes>
          <leafValues>
            3.2473644614219666e-01 -1.4909191429615021e-01</leafValues></_>
        <_>
          <internalNodes>
            0 -1 444 5.8248359709978104e-03</internalNodes>
          <leafValues>
            -1.3504602015018463e-01 4.7161468863487244e-01</leafValues></_>
        <_>
          <internalNodes>
            0 -1 350 2.1440204977989197e-01</internalNodes>
          <leafValues>
            -1.4878311753273010e-01 3.3331999182701111e-01</leafValues></_>
        <_>
          <internalNodes>
            0 -1 319 -7.6511532068252563e-02</internalNodes>
          <leafValues>
            5.9404373168945312e-01 -1.1225863546133041e-01</leafValues></_>
        <_>
          <internalNodes>
            0 -1 316 1.5786018222570419e-02</internalNodes>
          <leafValues>
            -2.0285806059837341e-01 2.6310962438583374e-01</leafValues></_>
        <_>
          <internalNodes>
            0 -1 431 -1.9868856295943260e-02</internalNodes>
          <leafValues>
            5.5487483739852905e-01 -7.2657480835914612e-02</leafValues></_>
        <_>
          <internalNodes>
            0 -1 85 3.8926817476749420e-02</internalNodes>
          <leafValues>
            -1.8351803719997406e-01 2.6493754982948303e-01</leafValues></_>
        <_>
          <internalNodes>
            0 -1 91 -2.3838698863983154e-02</internalNodes>
          <leafValues>
            7.0057767629623413e-01 -7.2471484541893005e-02</leafValues></_>
        <_>
          <internalNodes>
            0 -1 463 3.8618771359324455e-03</internalNodes>
          <leafValues>
            -8.6889550089836121e-02 4.9934661388397217e-01</leafValues></_>
        <_>
          <internalNodes>
            0 -1 141 5.1083106547594070e-02</internalNodes>
          <leafValues>
            -1.8614697456359863e-01 2.5960373878479004e-01</leafValues></_>
        <_>
          <internalNodes>
            0 -1 404 -5.6180343031883240e-02</internalNodes>
          <leafValues>
            5.2907645702362061e-01 -1.3871741294860840e-01</leafValues></_>
        <_>
          <internalNodes>
            0 -1 276 1.0915300250053406e-01</internalNodes>
          <leafValues>
            -1.4759111404418945e-01 3.3173000812530518e-01</leafValues></_>
        <_>
          <internalNodes>
            0 -1 40 1.4085333794355392e-02</internalNodes>
          <leafValues>
            -1.9355936348438263e-01 2.7679809927940369e-01</leafValues></_>
        <_>
          <internalNodes>
            0 -1 104 1.1963603086769581e-02</internalNodes>
          <leafValues>
            -2.4571506679058075e-01 2.2643548250198364e-01</leafValues></_>
        <_>
          <internalNodes>
            0 -1 182 2.7849856764078140e-02</internalNodes>
          <leafValues>
            -1.9946548342704773e-01 2.6370802521705627e-01</leafValues></_>
        <_>
          <internalNodes>
            0 -1 74 1.6319366171956062e-02</internalNodes>
          <leafValues>
            -2.1805694699287415e-01 2.5398942828178406e-01</leafValues></_>
        <_>
          <internalNodes>
            0 -1 126 6.8289423361420631e-03</internalNodes>
          <leafValues>
            6.1633009463548660e-02 -6.7846894264221191e-01</leafValues></_>
        <_>
          <internalNodes>
            0 -1 122 1.0948207229375839e-02</internalNodes>
          <leafValues>
            1.1070046573877335e-01 -4.5615074038505554e-01</leafValues></_>
        <_>
          <internalNodes>
            0 -1 321 3.1521204859018326e-02</internalNodes>
          <leafValues>
            -1.9978928565979004e-01 2.7162286639213562e-01</leafValues></_>
        <_>
          <internalNodes>
            0 -1 524 -3.8344565778970718e-02</internalNodes>
          <leafValues>
            7.6624351739883423e-01 -8.1745162606239319e-02</leafValues></_>
        <_>
          <internalNodes>
            0 -1 460 1.3452349230647087e-02</internalNodes>
          <leafValues>
            -8.3312392234802246e-02 5.2518790960311890e-01</leafValues></_>
        <_>
          <internalNodes>
            0 -1 73 2.1588006988167763e-02</internalNodes>
          <leafValues>
            -2.1712291240692139e-01 2.5757890939712524e-01</leafValues></_>
        <_>
          <internalNodes>
            0 -1 461 5.8484193868935108e-03</internalNodes>
          <leafValues>
            -1.0442740470170975e-01 5.0820171833038330e-01</leafValues></_>
        <_>
          <internalNodes>
            0 -1 388 -1.3047116808593273e-03</internalNodes>
          <leafValues>
            -3.5276851058006287e-01 1.6328762471675873e-01</leafValues></_>
        <_>
          <internalNodes>
            0 -1 359 1.3693688437342644e-02</internalNodes>
          <leafValues>
            -2.1304839849472046e-01 2.3777469992637634e-01</leafValues></_>
        <_>
          <internalNodes>
            0 -1 4 -4.5999034773558378e-04</internalNodes>
          <leafValues>
            -3.0243477225303650e-01 1.6627666354179382e-01</leafValues></_>
        <_>
          <internalNodes>
            0 -1 430 -5.1253805868327618e-03</internalNodes>
          <leafValues>
            5.9121662378311157e-01 -9.5508374273777008e-02</leafValues></_>
        <_>
          <internalNodes>
            0 -1 521 -4.4773772358894348e-02</internalNodes>
          <leafValues>
            -6.6113787889480591e-01 9.3307688832283020e-02</leafValues></_>
        <_>
          <internalNodes>
            0 -1 308 1.9703596830368042e-01</internalNodes>
          <leafValues>
            5.6654632091522217e-02 -7.5244474411010742e-01</leafValues></_>
        <_>
          <internalNodes>
            0 -1 507 3.2609343528747559e-02</internalNodes>
          <leafValues>
            -1.2101259082555771e-01 4.7776505351066589e-01</leafValues></_>
        <_>
          <internalNodes>
            0 -1 86 9.9303662776947021e-02</internalNodes>
          <leafValues>
            -1.8337526917457581e-01 3.1187367439270020e-01</leafValues></_>
        <_>
          <internalNodes>
            0 -1 377 -4.7412078129127622e-04</internalNodes>
          <leafValues>
            -3.6013048887252808e-01 1.5152405202388763e-01</leafValues></_>
        <_>
          <internalNodes>
            0 -1 512 -3.8619902625214309e-05</internalNodes>
          <leafValues>
            2.2277714312076569e-01 -2.7132120728492737e-01</leafValues></_>
        <_>
          <internalNodes>
            0 -1 602 1.7121024429798126e-02</internalNodes>
          <leafValues>
            6.8273417651653290e-02 -8.1254625320434570e-01</leafValues></_>
        <_>
          <internalNodes>
            0 -1 87 2.6382707059383392e-02</internalNodes>
          <leafValues>
            -1.9934368133544922e-01 2.6281899213790894e-01</leafValues></_>
        <_>
          <internalNodes>
            0 -1 63 2.7170567773282528e-03</internalNodes>
          <leafValues>
            -9.7226820886135101e-02 5.6919634342193604e-01</leafValues></_></weakClassifiers></_>
    <!-- stage 10 -->
    <_>
      <maxWeakCount>32</maxWeakCount>
      <stageThreshold>-9.6069914102554321e-01</stageThreshold>
      <weakClassifiers>
        <_>
          <internalNodes>
            0 -1 324 2.4322835728526115e-02</internalNodes>
          <leafValues>
            -1.3989637792110443e-01 3.3867275714874268e-01</leafValues></_>
        <_>
          <internalNodes>
            0 -1 477 3.4198880195617676e-02</internalNodes>
          <leafValues>
            -2.0205983519554138e-01 2.8253290057182312e-01</leafValues></_>
        <_>
          <internalNodes>
            0 -1 553 1.2269608676433563e-02</internalNodes>
          <leafValues>
            -1.0952124744653702e-01 4.5605483651161194e-01</leafValues></_>
        <_>
          <internalNodes>
            0 -1 478 2.8432926163077354e-02</internalNodes>
          <leafValues>
            -1.2748619914054871e-01 4.8173928260803223e-01</leafValues></_>
        <_>
          <internalNodes>
            0 -1 275 7.6231518760323524e-03</internalNodes>
          <leafValues>
            -4.2277109622955322e-01 1.2890984117984772e-01</leafValues></_>
        <_>
          <internalNodes>
            0 -1 283 -6.2300553545355797e-03</internalNodes>
          <leafValues>
            4.1058477759361267e-01 -1.4665099978446960e-01</leafValues></_>
        <_>
          <internalNodes>
            0 -1 183 1.0582922399044037e-01</internalNodes>
          <leafValues>
            -1.6148531436920166e-01 4.2728418111801147e-01</leafValues></_>
        <_>
          <internalNodes>
            0 -1 404 -6.1978772282600403e-02</internalNodes>
          <leafValues>
            5.0125139951705933e-01 -8.7706945836544037e-02</leafValues></_>
        <_>
          <internalNodes>
            0 -1 378 1.8647068645805120e-03</internalNodes>
          <leafValues>
            -2.4162925779819489e-01 2.0610046386718750e-01</leafValues></_>
        <_>
          <internalNodes>
            0 -1 34 1.9509547948837280e-01</internalNodes>
          <leafValues>
            8.9008532464504242e-02 -8.2553416490554810e-01</leafValues></_>
        <_>
          <internalNodes>
            0 -1 453 3.9579276926815510e-04</internalNodes>
          <leafValues>
            1.0892190784215927e-01 -3.6408081650733948e-01</leafValues></_>
        <_>
          <internalNodes>
            0 -1 167 -2.9154890216886997e-03</internalNodes>
          <leafValues>
            5.7857424020767212e-01 -7.5211949646472931e-02</leafValues></_>
        <_>
          <internalNodes>
            0 -1 187 1.6708184778690338e-01</internalNodes>
          <leafValues>
            4.3944682925939560e-02 -9.8036736249923706e-01</leafValues></_>
        <_>
          <internalNodes>
            0 -1 483 -2.3879554122686386e-02</internalNodes>
          <leafValues>
            6.7343318462371826e-01 -6.9073624908924103e-02</leafValues></_>
        <_>
          <internalNodes>
            0 -1 15 -5.4810125380754471e-02</internalNodes>
          <leafValues>
            -7.0376694202423096e-01 7.6131604611873627e-02</leafValues></_>
        <_>
          <internalNodes>
            0 -1 385 2.4347200989723206e-02</internalNodes>
          <leafValues>
            -1.7515344917774200e-01 2.7278533577919006e-01</leafValues></_>
        <_>
          <internalNodes>
            0 -1 65 2.7466930449008942e-02</internalNodes>
          <leafValues>
            -2.0130565762519836e-01 2.4357810616493225e-01</leafValues></_>
        <_>
          <internalNodes>
            0 -1 205 1.7887767404317856e-02</internalNodes>
          <leafValues>
            -2.3882558941841125e-01 2.3358358442783356e-01</leafValues></_>
        <_>
          <internalNodes>
            0 -1 287 -3.2168686389923096e-02</internalNodes>
          <leafValues>
            8.3417129516601562e-01 -6.3842475414276123e-02</leafValues></_>
        <_>
          <internalNodes>
            0 -1 485 -7.6354865450412035e-04</internalNodes>
          <leafValues>
            -3.2873758673667908e-01 1.6105438768863678e-01</leafValues></_>
        <_>
          <internalNodes>
            0 -1 70 4.9597881734371185e-02</internalNodes>
          <leafValues>
            -1.8146796524524689e-01 2.5461143255233765e-01</leafValues></_>
        <_>
          <internalNodes>
            0 -1 393 2.9358908534049988e-02</internalNodes>
          <leafValues>
            -9.1897226870059967e-02 5.0858694314956665e-01</leafValues></_>
        <_>
          <internalNodes>
            0 -1 590 -4.4331193203106523e-04</internalNodes>
          <leafValues>
            -3.0163273215293884e-01 1.4589208364486694e-01</leafValues></_>
        <_>
          <internalNodes>
            0 -1 607 1.4198098797351122e-03</internalNodes>
          <leafValues>
            1.2033545970916748e-01 -3.8758566975593567e-01</leafValues></_>
        <_>
          <internalNodes>
            0 -1 247 2.5181835517287254e-02</internalNodes>
          <leafValues>
            -1.1208924651145935e-01 4.5741090178489685e-01</leafValues></_>
        <_>
          <internalNodes>
            0 -1 195 -1.0700508952140808e-02</internalNodes>
          <leafValues>
            4.7389575839042664e-01 -9.2161655426025391e-02</leafValues></_>
        <_>
          <internalNodes>
            0 -1 593 -3.1088650575838983e-04</internalNodes>
          <leafValues>
            -3.3037576079368591e-01 1.5552616119384766e-01</leafValues></_>
        <_>
          <internalNodes>
            0 -1 23 -4.7686793550383300e-05</internalNodes>
          <leafValues>
            1.8843817710876465e-01 -2.5146868824958801e-01</leafValues></_>
        <_>
          <internalNodes>
            0 -1 530 3.2840985804796219e-03</internalNodes>
          <leafValues>
            -7.4529342353343964e-02 6.6219729185104370e-01</leafValues></_>
        <_>
          <internalNodes>
            0 -1 31 -7.5496127828955650e-04</internalNodes>
          <leafValues>
            2.1624584496021271e-01 -2.2513061761856079e-01</leafValues></_>
        <_>
          <internalNodes>
            0 -1 383 5.2770657930523157e-04</internalNodes>
          <leafValues>
            9.9353909492492676e-02 -4.6138617396354675e-01</leafValues></_>
        <_>
          <internalNodes>
            0 -1 258 -2.5737112388014793e-02</internalNodes>
          <leafValues>
            3.1776016950607300e-01 -1.6581384837627411e-01</leafValues></_></weakClassifiers></_>
    <!-- stage 11 -->
    <_>
      <maxWeakCount>37</maxWeakCount>
      <stageThreshold>-1.0600111484527588e+00</stageThreshold>
      <weakClassifiers>
        <_>
          <internalNodes>
            0 -1 112 9.0819403529167175e-02</internalNodes>
          <leafValues>
            -1.2200435996055603e-01 2.9641693830490112e-01</leafValues></_>
        <_>
          <internalNodes>
            0 -1 331 -3.7420429289340973e-03</internalNodes>
          <leafValues>
            2.4913644790649414e-01 -2.0898614823818207e-01</leafValues></_>
        <_>
          <internalNodes>
            0 -1 50 -3.2520508393645287e-03</internalNodes>
          <leafValues>
            2.3660407960414886e-01 -1.9095593690872192e-01</leafValues></_>
        <_>
          <internalNodes>
            0 -1 17 -6.4845066517591476e-03</internalNodes>
          <leafValues>
            2.6982316374778748e-01 -1.8075448274612427e-01</leafValues></_>
        <_>
          <internalNodes>
            0 -1 12 1.0302487760782242e-02</internalNodes>
          <leafValues>
            -5.2743997424840927e-02 5.1606088876724243e-01</leafValues></_>
        <_>
          <internalNodes>
            0 -1 281 6.3122093677520752e-02</internalNodes>
          <leafValues>
            -2.3040847480297089e-01 2.0123538374900818e-01</leafValues></_>
        <_>
          <internalNodes>
            0 -1 368 -5.2341438829898834e-02</internalNodes>
          <leafValues>
            5.1291716098785400e-01 -1.3008201122283936e-01</leafValues></_>
        <_>
          <internalNodes>
            0 -1 416 -3.8430625863838941e-05</internalNodes>
          <leafValues>
            2.2745749354362488e-01 -2.2284543514251709e-01</leafValues></_>
        <_>
          <internalNodes>
            0 -1 416 -8.9811580255627632e-04</internalNodes>
          <leafValues>
            -3.9494663476943970e-01 1.5106861293315887e-01</leafValues></_>
        <_>
          <internalNodes>
            0 -1 577 -6.2193199992179871e-03</internalNodes>
          <leafValues>
            6.3425290584564209e-01 -1.0929641127586365e-01</leafValues></_>
        <_>
          <internalNodes>
            0 -1 156 -1.4964599162340164e-02</internalNodes>
          <leafValues>
            3.4581243991851807e-01 -1.2662151455879211e-01</leafValues></_>
        <_>
          <internalNodes>
            0 -1 26 -1.4708789065480232e-02</internalNodes>
          <leafValues>
            -7.5866609811782837e-01 7.2892062366008759e-02</leafValues></_>
        <_>
          <internalNodes>
            0 -1 592 1.3767519267275929e-03</internalNodes>
          <leafValues>
            -2.3198227584362030e-01 1.9806855916976929e-01</leafValues></_>
        <_>
          <internalNodes>
            0 -1 504 1.2777531519532204e-02</internalNodes>
          <leafValues>
            -2.2869251668453217e-01 2.1197666227817535e-01</leafValues></_>
        <_>
          <internalNodes>
            0 -1 390 6.9131432101130486e-03</internalNodes>
          <leafValues>
            -1.2543939054012299e-01 4.6552944183349609e-01</leafValues></_>
        <_>
          <internalNodes>
            0 -1 147 -2.7301449328660965e-02</internalNodes>
          <leafValues>
            5.8172565698623657e-01 -7.1463733911514282e-02</leafValues></_>
        <_>
          <internalNodes>
            0 -1 121 -2.4443827569484711e-02</internalNodes>
          <leafValues>
            5.3169643878936768e-01 -8.3693064749240875e-02</leafValues></_>
        <_>
          <internalNodes>
            0 -1 390 -6.6748978570103645e-03</internalNodes>
          <leafValues>
            4.8729884624481201e-01 -8.3876974880695343e-02</leafValues></_>
        <_>
          <internalNodes>
            0 -1 130 -8.9875355362892151e-02</internalNodes>
          <leafValues>
            -6.9957262277603149e-01 8.1820987164974213e-02</leafValues></_>
        <_>
          <internalNodes>
            0 -1 469 -2.1143641322851181e-02</internalNodes>
          <leafValues>
            5.8317023515701294e-01 -9.8499491810798645e-02</leafValues></_>
        <_>
          <internalNodes>
            0 -1 275 9.9783781915903091e-03</internalNodes>
          <leafValues>
            -3.7785813212394714e-01 1.2631388008594513e-01</leafValues></_>
        <_>
          <internalNodes>
            0 -1 173 -7.8170979395508766e-03</internalNodes>
          <leafValues>
            3.0681836605072021e-01 -1.7535993456840515e-01</leafValues></_>
        <_>
          <internalNodes>
            0 -1 188 1.9896488636732101e-02</internalNodes>
          <leafValues>
            -2.1999076008796692e-01 2.2984126210212708e-01</leafValues></_>
        <_>
          <internalNodes>
            0 -1 264 2.0920190960168839e-02</internalNodes>
          <leafValues>
            -1.2470164149999619e-01 4.0241250395774841e-01</leafValues></_>
        <_>
          <internalNodes>
            0 -1 341 1.1529320478439331e-01</internalNodes>
          <leafValues>
            5.9321783483028412e-02 -8.6030286550521851e-01</leafValues></_>
        <_>
          <internalNodes>
            0 -1 329 8.5378363728523254e-02</internalNodes>
          <leafValues>
            -1.3418368995189667e-01 3.9614695310592651e-01</leafValues></_>
        <_>
          <internalNodes>
            0 -1 106 8.6992003023624420e-02</internalNodes>
          <leafValues>
            -1.8520605564117432e-01 2.7811586856842041e-01</leafValues></_>
        <_>
          <internalNodes>
            0 -1 240 7.4586942791938782e-02</internalNodes>
          <leafValues>
            -2.0261736214160919e-01 2.4698425829410553e-01</leafValues></_>
        <_>
          <internalNodes>
            0 -1 189 2.5016397237777710e-01</internalNodes>
          <leafValues>
            7.1477577090263367e-02 -8.1832456588745117e-01</leafValues></_>
        <_>
          <internalNodes>
            0 -1 421 -4.9994263797998428e-02</internalNodes>
          <leafValues>
            -5.7844454050064087e-01 5.7096224278211594e-02</leafValues></_>
        <_>
          <internalNodes>
            0 -1 256 2.8278294950723648e-02</internalNodes>
          <leafValues>
            -8.6919590830802917e-02 5.2539759874343872e-01</leafValues></_>
        <_>
          <internalNodes>
            0 -1 338 -2.5887351483106613e-02</internalNodes>
          <leafValues>
            4.3637788295745850e-01 -9.4724677503108978e-02</leafValues></_>
        <_>
          <internalNodes>
            0 -1 238 2.2682229056954384e-02</internalNodes>
          <leafValues>
            -1.4640799164772034e-01 3.5954064130783081e-01</leafValues></_>
        <_>
          <internalNodes>
            0 -1 128 4.4265887117944658e-04</internalNodes>
          <leafValues>
            1.3776023685932159e-01 -3.3596381545066833e-01</leafValues></_>
        <_>
          <internalNodes>
            0 -1 536 1.2927290052175522e-02</internalNodes>
          <leafValues>
            -1.5752281248569489e-01 2.6190957427024841e-01</leafValues></_>
        <_>
          <internalNodes>
            0 -1 606 -7.3170434916391969e-04</internalNodes>
          <leafValues>
            -3.6808216571807861e-01 1.1459080129861832e-01</leafValues></_>
        <_>
          <internalNodes>
            0 -1 473 -1.8282424658536911e-02</internalNodes>
          <leafValues>
            5.2074533700942993e-01 -9.2602565884590149e-02</leafValues></_></weakClassifiers></_>
    <!-- stage 12 -->
    <_>
      <maxWeakCount>48</maxWeakCount>
      <stageThreshold>-1.3164560794830322e+00</stageThreshold>
      <weakClassifiers>
        <_>
          <internalNodes>
            0 -1 509 1.6766320914030075e-03</internalNodes>
          <leafValues>
            -2.0588235557079315e-01 2.5970664620399475e-01</leafValues></_>
        <_>
          <internalNodes>
            0 -1 493 8.3993270993232727e-02</internalNodes>
          <leafValues>
            -2.6945218443870544e-01 1.9538678228855133e-01</leafValues></_>
        <_>
          <internalNodes>
            0 -1 120 7.8253680840134621e-03</internalNodes>
          <leafValues>
            -2.4254553020000458e-01 1.5955662727355957e-01</leafValues></_>
        <_>
          <internalNodes>
            0 -1 386 5.2153426222503185e-03</internalNodes>
          <leafValues>
            -1.8076452612876892e-01 2.5327160954475403e-01</leafValues></_>
        <_>
          <internalNodes>
            0 -1 557 -3.3909857273101807e-02</internalNodes>
          <leafValues>
            5.0282406806945801e-01 -1.3583314418792725e-01</leafValues></_>
        <_>
          <internalNodes>
            0 -1 497 -1.9049987196922302e-02</internalNodes>
          <leafValues>
            4.5000123977661133e-01 -7.6248526573181152e-02</leafValues></_>
        <_>
          <internalNodes>
            0 -1 533 -4.1447648982284591e-05</internalNodes>
          <leafValues>
            2.0270232856273651e-01 -2.3492892086505890e-01</leafValues></_>
        <_>
          <internalNodes>
            0 -1 468 2.7409590780735016e-02</internalNodes>
          <leafValues>
            -8.6482301354408264e-02 5.2763777971267700e-01</leafValues></_>
        <_>
          <internalNodes>
            0 -1 488 -1.3442852068692446e-03</internalNodes>
          <leafValues>
            -3.5193538665771484e-01 1.4552983641624451e-01</leafValues></_>
        <_>
          <internalNodes>
            0 -1 271 3.2396927475929260e-02</internalNodes>
          <leafValues>
            -1.8778726458549500e-01 2.7206939458847046e-01</leafValues></_>
        <_>
          <internalNodes>
            0 -1 215 2.8291992843151093e-02</internalNodes>
          <leafValues>
            -1.6273877024650574e-01 2.9617956280708313e-01</leafValues></_>
        <_>
          <internalNodes>
            0 -1 426 -6.4558461308479309e-03</internalNodes>
          <leafValues>
            2.8316518664360046e-01 -1.8179230391979218e-01</leafValues></_>
        <_>
          <internalNodes>
            0 -1 582 -4.1395549487788230e-05</internalNodes>
          <leafValues>
            1.7242817580699921e-01 -2.6351690292358398e-01</leafValues></_>
        <_>
          <internalNodes>
            0 -1 506 -2.1497755369637161e-05</internalNodes>
          <leafValues>
            2.3922134935855865e-01 -1.8297852575778961e-01</leafValues></_>
        <_>
          <internalNodes>
            0 -1 362 -8.3515828009694815e-04</internalNodes>
          <leafValues>
            -3.0203661322593689e-01 1.5021802484989166e-01</leafValues></_>
        <_>
          <internalNodes>
            0 -1 435 -9.7408577799797058e-02</internalNodes>
          <leafValues>
            5.1675438880920410e-01 -7.1860916912555695e-02</leafValues></_>
        <_>
          <internalNodes>
            0 -1 62 2.7703776955604553e-02</internalNodes>
          <leafValues>
            -1.0854949057102203e-01 4.6481871604919434e-01</leafValues></_>
        <_>
          <internalNodes>
            0 -1 412 3.5195477306842804e-02</internalNodes>
          <leafValues>
            -2.2233563661575317e-01 2.0240686833858490e-01</leafValues></_>
        <_>
          <internalNodes>
            0 -1 583 4.1376514127478004e-04</internalNodes>
          <leafValues>
            -1.7602907121181488e-01 2.3967282474040985e-01</leafValues></_>
        <_>
          <internalNodes>
            0 -1 132 3.4607420675456524e-03</internalNodes>
          <leafValues>
            -6.0323420912027359e-02 6.3183081150054932e-01</leafValues></_>
        <_>
          <internalNodes>
            0 -1 129 -4.0971243288367987e-04</internalNodes>
          <leafValues>
            -3.4189748764038086e-01 1.4763163030147552e-01</leafValues></_>
        <_>
          <internalNodes>
            0 -1 171 -2.6760786771774292e-02</internalNodes>
          <leafValues>
            6.2493473291397095e-01 -8.4145002067089081e-02</leafValues></_>
        <_>
          <internalNodes>
            0 -1 397 5.4516792297363281e-03</internalNodes>
          <leafValues>
            -1.6853064298629761e-01 2.8660458326339722e-01</leafValues></_>
        <_>
          <internalNodes>
            0 -1 260 -1.9545078277587891e-02</internalNodes>
          <leafValues>
            5.8376216888427734e-01 -6.8619616329669952e-02</leafValues></_>
        <_>
          <internalNodes>
            0 -1 57 2.4218177422881126e-02</internalNodes>
          <leafValues>
            -1.8524435162544250e-01 2.8668919205665588e-01</leafValues></_>
        <_>
          <internalNodes>
            0 -1 562 -3.0918954871594906e-03</internalNodes>
          <leafValues>
            5.0596904754638672e-01 -1.0467423498630524e-01</leafValues></_>
        <_>
          <internalNodes>
            0 -1 414 -1.1915550567209721e-03</internalNodes>
          <leafValues>
            -3.7050715088844299e-01 1.4169465005397797e-01</leafValues></_>
        <_>
          <internalNodes>
            0 -1 352 -1.5837389975786209e-02</internalNodes>
          <leafValues>
            7.4489432573318481e-01 -6.5437324345111847e-02</leafValues></_>
        <_>
          <internalNodes>
            0 -1 532 -2.2615595298702829e-05</internalNodes>
          <leafValues>
            1.8451705574989319e-01 -2.3434679210186005e-01</leafValues></_>
        <_>
          <internalNodes>
            0 -1 569 1.7428144812583923e-02</internalNodes>
          <leafValues>
            -8.3067074418067932e-02 5.3618085384368896e-01</leafValues></_>
        <_>
          <internalNodes>
            0 -1 589 9.6781156025826931e-04</internalNodes>
          <leafValues>
            1.1389873176813126e-01 -4.4033926725387573e-01</leafValues></_>
        <_>
          <internalNodes>
            0 -1 207 5.6744442554190755e-04</internalNodes>
          <leafValues>
            -1.6629461944103241e-01 2.6053377985954285e-01</leafValues></_>
        <_>
          <internalNodes>
            0 -1 408 3.7481167964870110e-05</internalNodes>
          <leafValues>
            -2.3392620682716370e-01 1.9084794819355011e-01</leafValues></_>
        <_>
          <internalNodes>
            0 -1 591 1.0403534397482872e-02</internalNodes>
          <leafValues>
            -1.0211876034736633e-01 4.1411072015762329e-01</leafValues></_>
        <_>
          <internalNodes>
            0 -1 500 9.0978778898715973e-03</internalNodes>
          <leafValues>
            -1.2379813194274902e-01 3.3647802472114563e-01</leafValues></_>
        <_>
          <internalNodes>
            0 -1 517 2.0549055188894272e-03</internalNodes>
          <leafValues>
            -1.0324892401695251e-01 4.2708796262741089e-01</leafValues></_>
        <_>
          <internalNodes>
            0 -1 479 -1.1591664701700211e-01</internalNodes>
          <leafValues>
            8.2543081045150757e-01 -5.3750675171613693e-02</leafValues></_>
        <_>
          <internalNodes>
            0 -1 181 3.1670790165662766e-02</internalNodes>
          <leafValues>
            -1.5780800580978394e-01 2.9515254497528076e-01</leafValues></_>
        <_>
          <internalNodes>
            0 -1 232 1.5187804820016026e-03</internalNodes>
          <leafValues>
            9.9633060395717621e-02 -5.0768238306045532e-01</leafValues></_>
        <_>
          <internalNodes>
            0 -1 9 -5.2857205271720886e-02</internalNodes>
          <leafValues>
            -6.9815939664840698e-01 6.0592103749513626e-02</leafValues></_>
        <_>
          <internalNodes>
            0 -1 561 -7.7569182030856609e-04</internalNodes>
          <leafValues>
            1.7152701318264008e-01 -2.7777403593063354e-01</leafValues></_>
        <_>
          <internalNodes>
            0 -1 373 1.2552064657211304e-01</internalNodes>
          <leafValues>
            7.7803291380405426e-02 -5.9530037641525269e-01</leafValues></_>
        <_>
          <internalNodes>
            0 -1 233 4.3612465262413025e-02</internalNodes>
          <leafValues>
            -2.4038992822170258e-01 1.9896975159645081e-01</leafValues></_>
        <_>
          <internalNodes>
            0 -1 98 4.9299106467515230e-04</internalNodes>
          <leafValues>
            1.4261016249656677e-01 -3.5421955585479736e-01</leafValues></_>
        <_>
          <internalNodes>
            0 -1 98 -2.5312893558293581e-04</internalNodes>
          <leafValues>
            -3.0567362904548645e-01 1.4969426393508911e-01</leafValues></_>
        <_>
          <internalNodes>
            0 -1 600 1.7140341922640800e-02</internalNodes>
          <leafValues>
            6.4449496567249298e-02 -6.8660253286361694e-01</leafValues></_>
        <_>
          <internalNodes>
            0 -1 389 6.1240959912538528e-03</internalNodes>
          <leafValues>
            -9.3777872622013092e-02 5.9292298555374146e-01</leafValues></_>
        <_>
          <internalNodes>
            0 -1 134 3.8572004996240139e-05</internalNodes>
          <leafValues>
            -2.5928717851638794e-01 2.0129033923149109e-01</leafValues></_></weakClassifiers></_>
    <!-- stage 13 -->
    <_>
      <maxWeakCount>35</maxWeakCount>
      <stageThreshold>-9.5670610666275024e-01</stageThreshold>
      <weakClassifiers>
        <_>
          <internalNodes>
            0 -1 284 6.4410924911499023e-02</internalNodes>
          <leafValues>
            -1.2147505581378937e-01 2.9770991206169128e-01</leafValues></_>
        <_>
          <internalNodes>
            0 -1 366 -2.9217696189880371e-01</internalNodes>
          <leafValues>
            7.4805432558059692e-01 -6.9744326174259186e-02</leafValues></_>
        <_>
          <internalNodes>
            0 -1 109 -3.1541383266448975e-01</internalNodes>
          <leafValues>
            7.4559897184371948e-01 -9.4809770584106445e-02</leafValues></_>
        <_>
          <internalNodes>
            0 -1 384 -8.7887558038346469e-05</internalNodes>
          <leafValues>
            1.4109544456005096e-01 -4.4257348775863647e-01</leafValues></_>
        <_>
          <internalNodes>
            0 -1 158 1.7507087439298630e-02</internalNodes>
          <leafValues>
            -1.6597914695739746e-01 2.6664015650749207e-01</leafValues></_>
        <_>
          <internalNodes>
            0 -1 201 -3.1512599438428879e-02</internalNodes>
          <leafValues>
            4.4621831178665161e-01 -1.3077506422996521e-01</leafValues></_>
        <_>
          <internalNodes>
            0 -1 149 3.0305827036499977e-02</internalNodes>
          <leafValues>
            -2.9648363590240479e-01 2.0343461632728577e-01</leafValues></_>
        <_>
          <internalNodes>
            0 -1 353 -9.4715431332588196e-03</internalNodes>
          <leafValues>
            6.0166430473327637e-01 -6.1032030731439590e-02</leafValues></_>
        <_>
          <internalNodes>
            0 -1 327 -4.4445011764764786e-02</internalNodes>
          <leafValues>
            4.8450264334678650e-01 -1.0353918373584747e-01</leafValues></_>
        <_>
          <internalNodes>
            0 -1 271 1.6542406752705574e-02</internalNodes>
          <leafValues>
            -1.8881678581237793e-01 2.6073789596557617e-01</leafValues></_>
        <_>
          <internalNodes>
            0 -1 224 -1.5779122710227966e-01</internalNodes>
          <leafValues>
            -6.8310129642486572e-01 7.1312040090560913e-02</leafValues></_>
        <_>
          <internalNodes>
            0 -1 16 3.5973486956208944e-04</internalNodes>
          <leafValues>
            1.2782303988933563e-01 -3.3391445875167847e-01</leafValues></_>
        <_>
          <internalNodes>
            0 -1 231 -7.5003586709499359e-02</internalNodes>
          <leafValues>
            -6.5318638086318970e-01 7.0537909865379333e-02</leafValues></_>
        <_>
          <internalNodes>
            0 -1 429 8.4000483155250549e-02</internalNodes>
          <leafValues>
            7.5617611408233643e-02 -5.8220434188842773e-01</leafValues></_>
        <_>
          <internalNodes>
            0 -1 434 4.6857081353664398e-02</internalNodes>
          <leafValues>
            -8.6370147764682770e-02 5.9346950054168701e-01</leafValues></_>
        <_>
          <internalNodes>
            0 -1 588 8.1686954945325851e-03</internalNodes>
          <leafValues>
            9.7254246473312378e-02 -4.4882184267044067e-01</leafValues></_>
        <_>
          <internalNodes>
            0 -1 100 1.5515917912125587e-03</internalNodes>
          <leafValues>
            -2.3183993995189667e-01 1.7771404981613159e-01</leafValues></_>
        <_>
          <internalNodes>
            0 -1 217 -2.0823214203119278e-02</internalNodes>
          <leafValues>
            6.4815866947174072e-01 -7.4733339250087738e-02</leafValues></_>
        <_>
          <internalNodes>
            0 -1 427 -1.6800865530967712e-02</internalNodes>
          <leafValues>
            3.2969436049461365e-01 -1.3421157002449036e-01</leafValues></_>
        <_>
          <internalNodes>
            0 -1 363 3.1349681317806244e-02</internalNodes>
          <leafValues>
            -9.2036537826061249e-02 5.3184133768081665e-01</leafValues></_>
        <_>
          <internalNodes>
            0 -1 94 6.9309673272073269e-03</internalNodes>
          <leafValues>
            -2.3692014813423157e-01 1.8090531229972839e-01</leafValues></_>
        <_>
          <internalNodes>
            0 -1 564 -1.5903301537036896e-02</internalNodes>
          <leafValues>
            5.8154559135437012e-01 -8.2127943634986877e-02</leafValues></_>
        <_>
          <internalNodes>
            0 -1 212 1.4584526419639587e-02</internalNodes>
          <leafValues>
            -2.0239526033401489e-01 2.1912300586700439e-01</leafValues></_>
        <_>
          <internalNodes>
            0 -1 83 3.1767182052135468e-02</internalNodes>
          <leafValues>
            -1.7619605362415314e-01 2.6993674039840698e-01</leafValues></_>
        <_>
          <internalNodes>
            0 -1 28 7.7442154288291931e-02</internalNodes>
          <leafValues>
            8.7751224637031555e-02 -6.9977092742919922e-01</leafValues></_>
        <_>
          <internalNodes>
            0 -1 462 -4.5511713251471519e-03</internalNodes>
          <leafValues>
            5.2053004503250122e-01 -9.9366299808025360e-02</leafValues></_>
        <_>
          <internalNodes>
            0 -1 155 1.2327525764703751e-02</internalNodes>
          <leafValues>
            -8.5560820996761322e-02 4.7343239188194275e-01</leafValues></_>
        <_>
          <internalNodes>
            0 -1 203 8.1471771001815796e-02</internalNodes>
          <leafValues>
            6.7806236445903778e-02 -6.6369992494583130e-01</leafValues></_>
        <_>
          <internalNodes>
            0 -1 92 2.0958092136424966e-05</internalNodes>
          <leafValues>
            -2.4377205967903137e-01 1.8271847069263458e-01</leafValues></_>
        <_>
          <internalNodes>
            0 -1 107 -9.7303241491317749e-02</internalNodes>
          <leafValues>
            6.3802015781402588e-01 -7.1500286459922791e-02</leafValues></_>
        <_>
          <internalNodes>
            0 -1 294 -3.0512470752000809e-02</internalNodes>
          <leafValues>
            5.8535462617874146e-01 -7.1866691112518311e-02</leafValues></_>
        <_>
          <internalNodes>
            0 -1 340 3.5267733037471771e-02</internalNodes>
          <leafValues>
            -1.8974307179450989e-01 2.3488943278789520e-01</leafValues></_>
        <_>
          <internalNodes>
            0 -1 274 -2.5539683178067207e-02</internalNodes>
          <leafValues>
            2.5500556826591492e-01 -1.9539426267147064e-01</leafValues></_>
        <_>
          <internalNodes>
            0 -1 471 6.5351501107215881e-02</internalNodes>
          <leafValues>
            -1.2020421028137207e-01 4.1321992874145508e-01</leafValues></_>
        <_>
          <internalNodes>
            0 -1 403 1.7908852547407150e-02</internalNodes>
          <leafValues>
            -1.9449698925018311e-01 2.3916353285312653e-01</leafValues></_></weakClassifiers></_>
    <!-- stage 14 -->
    <_>
      <maxWeakCount>43</maxWeakCount>
      <stageThreshold>-1.1928479671478271e+00</stageThreshold>
      <weakClassifiers>
        <_>
          <internalNodes>
            0 -1 232 4.6485980419674888e-05</internalNodes>
          <leafValues>
            -1.3662457466125488e-01 2.8925618529319763e-01</leafValues></_>
        <_>
          <internalNodes>
            0 -1 550 3.9646718651056290e-03</internalNodes>
          <leafValues>
            -5.6778013706207275e-02 6.4313888549804688e-01</leafValues></_>
        <_>
          <internalNodes>
            0 -1 0 1.0263365507125854e-01</internalNodes>
          <leafValues>
            -2.2447565197944641e-01 1.7333827912807465e-01</leafValues></_>
        <_>
          <internalNodes>
            0 -1 249 2.0226773340255022e-03</internalNodes>
          <leafValues>
            1.7316228151321411e-01 -2.3681214451789856e-01</leafValues></_>
        <_>
          <internalNodes>
            0 -1 244 1.1806122958660126e-02</internalNodes>
          <leafValues>
            -2.8867825865745544e-01 1.5139321982860565e-01</leafValues></_>
        <_>
          <internalNodes>
            0 -1 290 1.5278374776244164e-02</internalNodes>
          <leafValues>
            -1.0277599841356277e-01 4.0123632550239563e-01</leafValues></_>
        <_>
          <internalNodes>
            0 -1 237 -3.2787367701530457e-02</internalNodes>
          <leafValues>
            3.2272756099700928e-01 -1.5976318717002869e-01</leafValues></_>
        <_>
          <internalNodes>
            0 -1 597 5.3936396725475788e-03</internalNodes>
          <leafValues>
            -8.3158865571022034e-02 5.3864049911499023e-01</leafValues></_>
        <_>
          <internalNodes>
            0 -1 295 5.1943100988864899e-02</internalNodes>
          <leafValues>
            -1.2725721299648285e-01 3.1207761168479919e-01</leafValues></_>
        <_>
          <internalNodes>
            0 -1 268 5.5636167526245117e-03</internalNodes>
          <leafValues>
            -6.1468530446290970e-02 6.1630028486251831e-01</leafValues></_>
        <_>
          <internalNodes>
            0 -1 419 5.0089824071619660e-05</internalNodes>
          <leafValues>
            -3.1365540623664856e-01 1.4204879105091095e-01</leafValues></_>
        <_>
          <internalNodes>
            0 -1 372 5.2533902227878571e-02</internalNodes>
          <leafValues>
            -1.9470468163490295e-01 2.0983706414699554e-01</leafValues></_>
        <_>
          <internalNodes>
            0 -1 257 -3.6591984331607819e-02</internalNodes>
          <leafValues>
            -4.2687639594078064e-01 1.5020546317100525e-01</leafValues></_>
        <_>
          <internalNodes>
            0 -1 457 4.2932152748107910e-02</internalNodes>
          <leafValues>
            -1.9897660613059998e-01 2.5765570998191833e-01</leafValues></_>
        <_>
          <internalNodes>
            0 -1 110 -2.4401211738586426e-01</internalNodes>
          <leafValues>
            -8.9534038305282593e-01 5.9808202087879181e-02</leafValues></_>
        <_>
          <internalNodes>
            0 -1 484 -4.0047358197625726e-05</internalNodes>
          <leafValues>
            1.3081093132495880e-01 -2.8358599543571472e-01</leafValues></_>
        <_>
          <internalNodes>
            0 -1 484 -1.0299296118319035e-03</internalNodes>
          <leafValues>
            -2.5435438752174377e-01 1.5840207040309906e-01</leafValues></_>
        <_>
          <internalNodes>
            0 -1 45 -3.3071450889110565e-03</internalNodes>
          <leafValues>
            6.3264393806457520e-01 -5.4015163332223892e-02</leafValues></_>
        <_>
          <internalNodes>
            0 -1 416 -2.0811859940295108e-05</internalNodes>
          <leafValues>
            1.9530470669269562e-01 -2.0041637122631073e-01</leafValues></_>
        <_>
          <internalNodes>
            0 -1 489 -4.1120098903775215e-03</internalNodes>
          <leafValues>
            4.6890327334403992e-01 -1.0000703483819962e-01</leafValues></_>
        <_>
          <internalNodes>
            0 -1 487 1.4553542714565992e-03</internalNodes>
          <leafValues>
            -1.1026861518621445e-01 3.4575420618057251e-01</leafValues></_>
        <_>
          <internalNodes>
            0 -1 103 4.8715777695178986e-02</internalNodes>
          <leafValues>
            -1.7570747435092926e-01 2.3878239095211029e-01</leafValues></_>
        <_>
          <internalNodes>
            0 -1 180 -4.1234143078327179e-02</internalNodes>
          <leafValues>
            5.7168900966644287e-01 -1.0083895921707153e-01</leafValues></_>
        <_>
          <internalNodes>
            0 -1 172 5.1534049212932587e-02</internalNodes>
          <leafValues>
            -1.9853745400905609e-01 2.5551992654800415e-01</leafValues></_>
        <_>
          <internalNodes>
            0 -1 267 -3.5586357116699219e-03</internalNodes>
          <leafValues>
            2.6797854900360107e-01 -1.6937519609928131e-01</leafValues></_>
        <_>
          <internalNodes>
            0 -1 25 7.9925544559955597e-03</internalNodes>
          <leafValues>
            6.6032059490680695e-02 -7.8938370943069458e-01</leafValues></_>
        <_>
          <internalNodes>
            0 -1 33 2.0063782576471567e-03</internalNodes>
          <leafValues>
            9.3101307749748230e-02 -3.9641156792640686e-01</leafValues></_>
        <_>
          <internalNodes>
            0 -1 305 -2.6349529623985291e-02</internalNodes>
          <leafValues>
            -5.5281543731689453e-01 7.1369096636772156e-02</leafValues></_>
        <_>
          <internalNodes>
            0 -1 64 2.6756774168461561e-03</internalNodes>
          <leafValues>
            -7.0089794695377350e-02 6.2048947811126709e-01</leafValues></_>
        <_>
          <internalNodes>
            0 -1 609 3.0197435989975929e-04</internalNodes>
          <leafValues>
            1.4151535928249359e-01 -3.2770740985870361e-01</leafValues></_>
        <_>
          <internalNodes>
            0 -1 609 -3.0301377410069108e-04</internalNodes>
          <leafValues>
            -3.2685726881027222e-01 1.5619818866252899e-01</leafValues></_>
        <_>
          <internalNodes>
            0 -1 59 4.3987696699332446e-05</internalNodes>
          <leafValues>
            -2.4324665963649750e-01 1.9938452541828156e-01</leafValues></_>
        <_>
          <internalNodes>
            0 -1 19 4.1442677378654480e-02</internalNodes>
          <leafValues>
            8.0967716872692108e-02 -5.6142044067382812e-01</leafValues></_>
        <_>
          <internalNodes>
            0 -1 54 -3.8390820845961571e-03</internalNodes>
          <leafValues>
            2.2957472503185272e-01 -1.9472055137157440e-01</leafValues></_>
        <_>
          <internalNodes>
            0 -1 211 -3.8550496101379395e-01</internalNodes>
          <leafValues>
            -8.4520053863525391e-01 4.9435533583164215e-02</leafValues></_>
        <_>
          <internalNodes>
            0 -1 72 -2.1625268345815130e-05</internalNodes>
          <leafValues>
            2.0403520762920380e-01 -2.1326820552349091e-01</leafValues></_>
        <_>
          <internalNodes>
            0 -1 296 -3.2151240156963468e-04</internalNodes>
          <leafValues>
            -3.3300891518592834e-01 1.3153599202632904e-01</leafValues></_>
        <_>
          <internalNodes>
            0 -1 254 5.2045239135622978e-03</internalNodes>
          <leafValues>
            -2.1091462671756744e-01 2.0305715501308441e-01</leafValues></_>
        <_>
          <internalNodes>
            0 -1 169 -7.9414144158363342e-02</internalNodes>
          <leafValues>
            6.8508040904998779e-01 -6.0681737959384918e-02</leafValues></_>
        <_>
          <internalNodes>
            0 -1 164 7.0187039673328400e-03</internalNodes>
          <leafValues>
            8.0553390085697174e-02 -5.6944292783737183e-01</leafValues></_>
        <_>
          <internalNodes>
            0 -1 611 -9.2546651139855385e-03</internalNodes>
          <leafValues>
            5.7629132270812988e-01 -7.5660847127437592e-02</leafValues></_>
        <_>
          <internalNodes>
            0 -1 428 7.3887449689209461e-03</internalNodes>
          <leafValues>
            -1.0986778885126114e-01 3.8007032871246338e-01</leafValues></_>
        <_>
          <internalNodes>
            0 -1 143 7.3496983386576176e-03</internalNodes>
          <leafValues>
            -2.2369134426116943e-01 1.9751700758934021e-01</leafValues></_></weakClassifiers></_>
    <!-- stage 15 -->
    <_>
      <maxWeakCount>43</maxWeakCount>
      <stageThreshold>-9.7447973489761353e-01</stageThreshold>
      <weakClassifiers>
        <_>
          <internalNodes>
            0 -1 465 3.9460249245166779e-02</internalNodes>
          <leafValues>
            -1.2722646351903677e-03 6.1048686504364014e-01</leafValues></_>
        <_>
          <internalNodes>
            0 -1 223 2.3263189941644669e-02</internalNodes>
          <leafValues>
            -1.6114065051078796e-01 2.4631687998771667e-01</leafValues></_>
        <_>
          <internalNodes>
            0 -1 314 1.3793134689331055e-01</internalNodes>
          <leafValues>
            -1.6420777142047882e-01 2.9750773310661316e-01</leafValues></_>
        <_>
          <internalNodes>
            0 -1 229 -2.8633367270231247e-02</internalNodes>
          <leafValues>
            5.3807932138442993e-01 -9.9635303020477295e-02</leafValues></_>
        <_>
          <internalNodes>
            0 -1 38 -2.8944732621312141e-03</internalNodes>
          <leafValues>
            5.9788054227828979e-01 -4.6532675623893738e-02</leafValues></_>
        <_>
          <internalNodes>
            0 -1 14 -2.9955958947539330e-02</internalNodes>
          <leafValues>
            -6.3981735706329346e-01 6.7699626088142395e-02</leafValues></_>
        <_>
          <internalNodes>
            0 -1 496 -5.2230373024940491e-02</internalNodes>
          <leafValues>
            3.4362220764160156e-01 -1.1284475028514862e-01</leafValues></_>
        <_>
          <internalNodes>
            0 -1 322 1.2323426082730293e-02</internalNodes>
          <leafValues>
            -2.2493234276771545e-01 2.1304425597190857e-01</leafValues></_>
        <_>
          <internalNodes>
            0 -1 68 -3.0648478423245251e-04</internalNodes>
          <leafValues>
            -2.8673127293586731e-01 1.5602454543113708e-01</leafValues></_>
        <_>
          <internalNodes>
            0 -1 523 2.0151061937212944e-02</internalNodes>
          <leafValues>
            -1.0834611207246780e-01 4.0093699097633362e-01</leafValues></_>
        <_>
          <internalNodes>
            0 -1 546 -2.3955896496772766e-02</internalNodes>
          <leafValues>
            7.4638330936431885e-01 -5.3983930498361588e-02</leafValues></_>
        <_>
          <internalNodes>
            0 -1 514 2.8202828252688050e-04</internalNodes>
          <leafValues>
            1.4595487713813782e-01 -2.9234606027603149e-01</leafValues></_>
        <_>
          <internalNodes>
            0 -1 474 -5.4373680613934994e-03</internalNodes>
          <leafValues>
            2.2457419335842133e-01 -1.8419894576072693e-01</leafValues></_>
        <_>
          <internalNodes>
            0 -1 598 -7.9823769629001617e-03</internalNodes>
          <leafValues>
            4.2302444577217102e-01 -9.6307702362537384e-02</leafValues></_>
        <_>
          <internalNodes>
            0 -1 579 8.8931918144226074e-03</internalNodes>
          <leafValues>
            -6.8250149488449097e-02 5.4210793972015381e-01</leafValues></_>
        <_>
          <internalNodes>
            0 -1 127 -2.4681882932782173e-03</internalNodes>
          <leafValues>
            -3.6505472660064697e-01 1.1232457309961319e-01</leafValues></_>
        <_>
          <internalNodes>
            0 -1 151 -2.3534256964921951e-02</internalNodes>
          <leafValues>
            4.3078076839447021e-01 -9.2526204884052277e-02</leafValues></_>
        <_>
          <internalNodes>
            0 -1 441 -2.2526797838509083e-03</internalNodes>
          <leafValues>
            -2.9813873767852783e-01 1.5329994261264801e-01</leafValues></_>
        <_>
          <internalNodes>
            0 -1 537 -9.1457657981663942e-04</internalNodes>
          <leafValues>
            -3.4442248940467834e-01 1.3047482073307037e-01</leafValues></_>
        <_>
          <internalNodes>
            0 -1 312 -6.2425956130027771e-02</internalNodes>
          <leafValues>
            -6.9121485948562622e-01 5.2105862647294998e-02</leafValues></_>
        <_>
          <internalNodes>
            0 -1 525 2.1641213446855545e-02</internalNodes>
          <leafValues>
            -4.5478940010070801e-02 8.4250700473785400e-01</leafValues></_>
        <_>
          <internalNodes>
            0 -1 78 8.2319939974695444e-04</internalNodes>
          <leafValues>
            -1.9841417670249939e-01 1.9072553515434265e-01</leafValues></_>
        <_>
          <internalNodes>
            0 -1 36 8.4670986980199814e-03</internalNodes>
          <leafValues>
            -1.0195802897214890e-01 4.1900825500488281e-01</leafValues></_>
        <_>
          <internalNodes>
            0 -1 590 5.9497891925275326e-04</internalNodes>
          <leafValues>
            1.2274398654699326e-01 -3.7435662746429443e-01</leafValues></_>
        <_>
          <internalNodes>
            0 -1 563 -3.3499076962471008e-03</internalNodes>
          <leafValues>
            6.5001362562179565e-01 -7.0297807455062866e-02</leafValues></_>
        <_>
          <internalNodes>
            0 -1 379 -7.5953430496156216e-04</internalNodes>
          <leafValues>
            -3.2329764962196350e-01 1.2671910226345062e-01</leafValues></_>
        <_>
          <internalNodes>
            0 -1 236 -1.8517754971981049e-02</internalNodes>
          <leafValues>
            3.3524051308631897e-01 -1.5743599832057953e-01</leafValues></_>
        <_>
          <internalNodes>
            0 -1 140 -1.9553465768694878e-02</internalNodes>
          <leafValues>
            2.9168656468391418e-01 -1.6742330789566040e-01</leafValues></_>
        <_>
          <internalNodes>
            0 -1 191 2.1055646240711212e-02</internalNodes>
          <leafValues>
            -1.5866611897945404e-01 2.4934113025665283e-01</leafValues></_>
        <_>
          <internalNodes>
            0 -1 101 1.9222954288125038e-02</internalNodes>
          <leafValues>
            -2.1885141730308533e-01 2.1945358812808990e-01</leafValues></_>
        <_>
          <internalNodes>
            0 -1 443 -5.0605786964297295e-03</internalNodes>
          <leafValues>
            6.7671781778335571e-01 -5.9186138212680817e-02</leafValues></_>
        <_>
          <internalNodes>
            0 -1 347 1.0010175406932831e-02</internalNodes>
          <leafValues>
            -1.0355854034423828e-01 4.0462422370910645e-01</leafValues></_>
        <_>
          <internalNodes>
            0 -1 104 -1.0538622736930847e-01</internalNodes>
          <leafValues>
            5.7990223169326782e-01 -6.9081090390682220e-02</leafValues></_>
        <_>
          <internalNodes>
            0 -1 82 3.5629807971417904e-03</internalNodes>
          <leafValues>
            -2.3479871451854706e-01 1.9852778315544128e-01</leafValues></_>
        <_>
          <internalNodes>
            0 -1 228 5.2336407825350761e-03</internalNodes>
          <leafValues>
            -7.5652219355106354e-02 5.1009404659271240e-01</leafValues></_>
        <_>
          <internalNodes>
            0 -1 137 -1.2165500782430172e-02</internalNodes>
          <leafValues>
            6.4868545532226562e-01 -5.9330616146326065e-02</leafValues></_>
        <_>
          <internalNodes>
            0 -1 542 3.3942863228730857e-04</internalNodes>
          <leafValues>
            1.5683504939079285e-01 -2.8528299927711487e-01</leafValues></_>
        <_>
          <internalNodes>
            0 -1 542 -3.1897606095299125e-04</internalNodes>
          <leafValues>
            -2.6809015870094299e-01 1.5303389728069305e-01</leafValues></_>
        <_>
          <internalNodes>
            0 -1 162 2.7854207437485456e-03</internalNodes>
          <leafValues>
