<?xml version="1.0"?>
<opencv_storage>
<cascade>
  <stageType>BOOST</stageType>
  <featureType>HAAR</featureType>
  <height>20</height>
  <width>20</width>
  <stageParams>
    <boostType>GAB</boostType>
    <minHitRate>9.9900001287460327e-01</minHitRate>
    <maxFalseAlarm>5.0000000000000000e-01</maxFalseAlarm>
    <weightTrimRate>9.4999999999999996e-01</weightTrimRate>
    <maxDepth>1</maxDepth>
    <maxWeakCount>100</maxWeakCount></stageParams>
  <featureParams>
    <maxCatCount>0</maxCatCount>
    <featSize>1</featSize>
    <mode>ALL</mode></featureParams>
  <stageNum>20</stageNum>
  <stages>
    <!-- stage 0 -->
    <_>
      <maxWeakCount>9</maxWeakCount>
      <stageThreshold>-1.7198697328567505e+00</stageThreshold>
      <weakClassifiers>
        <_>
          <internalNodes>
            0 -1 226 4.9184530973434448e-02</internalNodes>
          <leafValues>
            -2.6817041635513306e-01 7.6558601856231689e-01</leafValues></_>
        <_>
          <internalNodes>
            0 -1 104 5.7891746982932091e-03</internalNodes>
          <leafValues>
            -2.8771081566810608e-01 6.0360008478164673e-01</leafValues></_>
        <_>
          <internalNodes>
            0 -1 70 -1.3960122130811214e-02</internalNodes>
          <leafValues>
            6.3465178012847900e-01 -2.5248652696609497e-01</leafValues></_>
        <_>
          <internalNodes>
            0 -1 89 4.6509690582752228e-02</internalNodes>
          <leafValues>
            -3.9265233278274536e-01 4.9654066562652588e-01</leafValues></_>
        <_>
          <internalNodes>
            0 -1 491 1.5143524855375290e-02</internalNodes>
          <leafValues>
            -2.7660989761352539e-01 6.9162589311599731e-01</leafValues></_>
        <_>
          <internalNodes>
            0 -1 445 1.8972698599100113e-02</internalNodes>
          <leafValues>
            -2.9818621277809143e-01 5.6653797626495361e-01</leafValues></_>
        <_>
          <internalNodes>
            0 -1 238 1.9191890954971313e-02</internalNodes>
          <leafValues>
            -3.3451408147811890e-01 4.8040932416915894e-01</leafValues></_>
        <_>
          <internalNodes>
            0 -1 190 5.2971668541431427e-02</internalNodes>
          <leafValues>
            -4.3887785077095032e-01 4.0307435393333435e-01</leafValues></_>
        <_>
          <internalNodes>
            0 -1 357 -1.5937814489006996e-02</internalNodes>
          <leafValues>
            7.2732329368591309e-01 -2.0441806316375732e-01</leafValues></_></weakClassifiers></_>
    <!-- stage 1 -->
    <_>
      <maxWeakCount>12</maxWeakCount>
      <stageThreshold>-9.2870980501174927e-01</stageThreshold>
      <weakClassifiers>
        <_>
          <internalNodes>
            0 -1 235 1.5066730976104736e-01</internalNodes>
          <leafValues>
            -9.3210585415363312e-02 6.5800273418426514e-01</leafValues></_>
        <_>
          <internalNodes>
            0 -1 72 -1.4224655926227570e-02</internalNodes>
          <leafValues>
            4.5797476172447205e-01 -2.6011124253273010e-01</leafValues></_>
        <_>
          <internalNodes>
            0 -1 446 6.6985115408897400e-02</internalNodes>
          <leafValues>
            -1.7562304437160492e-01 6.7629003524780273e-01</leafValues></_>
        <_>
          <internalNodes>
            0 -1 259 7.2201475501060486e-02</internalNodes>
          <leafValues>
            -3.0197560787200928e-01 4.7175663709640503e-01</leafValues></_>
        <_>
          <internalNodes>
            0 -1 449 1.5341380611062050e-02</internalNodes>
          <leafValues>
            -2.4130854010581970e-01 4.9895015358924866e-01</leafValues></_>
        <_>
          <internalNodes>
            0 -1 417 5.5446647107601166e-02</internalNodes>
          <leafValues>
            -1.8825133144855499e-01 7.7758496999740601e-01</leafValues></_>
        <_>
          <internalNodes>
            0 -1 297 4.1831698268651962e-02</internalNodes>
          <leafValues>
            -2.7701169252395630e-01 4.8640891909599304e-01</leafValues></_>
        <_>
          <internalNodes>
            0 -1 122 -1.3358694314956665e-01</internalNodes>
          <leafValues>
            8.8246572017669678e-01 -1.4563289284706116e-01</leafValues></_>
        <_>
          <internalNodes>
            0 -1 413 2.4832785129547119e-02</internalNodes>
          <leafValues>
            -1.5467578172683716e-01 6.9996595382690430e-01</leafValues></_>
        <_>
          <internalNodes>
            0 -1 170 -1.4373925514519215e-02</internalNodes>
          <leafValues>
            5.2524858713150024e-01 -1.8765285611152649e-01</leafValues></_>
        <_>
          <internalNodes>
            0 -1 237 6.3002090901136398e-03</internalNodes>
          <leafValues>
            -2.1000054478645325e-01 4.8458090424537659e-01</leafValues></_>
        <_>
          <internalNodes>
            0 -1 347 8.1563338637351990e-02</internalNodes>
          <leafValues>
            -1.6156932711601257e-01 7.1619307994842529e-01</leafValues></_></weakClassifiers></_>
    <!-- stage 2 -->
    <_>
      <maxWeakCount>19</maxWeakCount>
      <stageThreshold>-1.2085359096527100e+00</stageThreshold>
      <weakClassifiers>
        <_>
          <internalNodes>
            0 -1 235 2.0125985145568848e-01</internalNodes>
          <leafValues>
            8.0321282148361206e-03 6.4900660514831543e-01</leafValues></_>
        <_>
          <internalNodes>
            0 -1 518 2.8160929679870605e-02</internalNodes>
          <leafValues>
            -1.7149722576141357e-01 5.2764272689819336e-01</leafValues></_>
        <_>
          <internalNodes>
            0 -1 355 2.5649908930063248e-02</internalNodes>
          <leafValues>
            -2.4248073995113373e-01 5.8305060863494873e-01</leafValues></_>
        <_>
          <internalNodes>
            0 -1 26 6.6648356616497040e-02</internalNodes>
          <leafValues>
            -1.8758779764175415e-01 6.1047917604446411e-01</leafValues></_>
        <_>
          <internalNodes>
            0 -1 59 2.1010130643844604e-02</internalNodes>
          <leafValues>
            -2.1678540110588074e-01 6.8211793899536133e-01</leafValues></_>
        <_>
          <internalNodes>
            0 -1 3 3.8749370723962784e-02</internalNodes>
          <leafValues>
            -1.5593270957469940e-01 5.5505883693695068e-01</leafValues></_>
        <_>
          <internalNodes>
            0 -1 295 3.2609447836875916e-02</internalNodes>
          <leafValues>
            -1.7845556139945984e-01 5.9441733360290527e-01</leafValues></_>
        <_>
          <internalNodes>
            0 -1 154 2.4413928389549255e-02</internalNodes>
          <leafValues>
            -2.3148685693740845e-01 4.6621522307395935e-01</leafValues></_>
        <_>
          <internalNodes>
            0 -1 424 1.6493815928697586e-02</internalNodes>
          <leafValues>
            -2.6896417140960693e-01 3.7864306569099426e-01</leafValues></_>
        <_>
          <internalNodes>
            0 -1 406 4.5657314360141754e-02</internalNodes>
          <leafValues>
            -1.8300688266754150e-01 4.9834504723548889e-01</leafValues></_>
        <_>
          <internalNodes>
            0 -1 241 -4.3142899870872498e-02</internalNodes>
          <leafValues>
            5.4712969064712524e-01 -2.0384490489959717e-01</leafValues></_>
        <_>
          <internalNodes>
            0 -1 421 1.6674300655722618e-02</internalNodes>
          <leafValues>
            -2.2647251188755035e-01 3.9456796646118164e-01</leafValues></_>
        <_>
          <internalNodes>
            0 -1 441 -2.9301244765520096e-02</internalNodes>
          <leafValues>
            8.4012162685394287e-01 -1.1421636492013931e-01</leafValues></_>
        <_>
          <internalNodes>
            0 -1 539 5.8813011273741722e-03</internalNodes>
          <leafValues>
            -1.3013668358325958e-01 5.6519186496734619e-01</leafValues></_>
        <_>
          <internalNodes>
            0 -1 168 3.0197082087397575e-03</internalNodes>
          <leafValues>
            -2.5691962242126465e-01 3.2011052966117859e-01</leafValues></_>
        <_>
          <internalNodes>
            0 -1 163 -1.1502501554787159e-02</internalNodes>
          <leafValues>
            5.8687537908554077e-01 -1.5539574623107910e-01</leafValues></_>
        <_>
          <internalNodes>
            0 -1 225 2.6811804622411728e-02</internalNodes>
          <leafValues>
            -1.4951030910015106e-01 4.9904173612594604e-01</leafValues></_>
        <_>
          <internalNodes>
            0 -1 134 -6.7484140396118164e-02</internalNodes>
          <leafValues>
            6.8727320432662964e-01 -1.5490756928920746e-01</leafValues></_>
        <_>
          <internalNodes>
            0 -1 250 -1.2617683410644531e-01</internalNodes>
          <leafValues>
            6.9399076700210571e-01 -1.0577652603387833e-01</leafValues></_></weakClassifiers></_>
    <!-- stage 3 -->
    <_>
      <maxWeakCount>24</maxWeakCount>
      <stageThreshold>-1.0981364250183105e+00</stageThreshold>
      <weakClassifiers>
        <_>
          <internalNodes>
            0 -1 215 7.4248850345611572e-02</internalNodes>
          <leafValues>
            3.3693450689315796e-01 -8.3193278312683105e-01</leafValues></_>
        <_>
          <internalNodes>
            0 -1 321 -1.5938207507133484e-01</internalNodes>
          <leafValues>
            8.0321669578552246e-01 -1.0750697553157806e-01</leafValues></_>
        <_>
          <internalNodes>
            0 -1 258 4.8322714865207672e-02</internalNodes>
          <leafValues>
            -2.7508199214935303e-01 3.1875264644622803e-01</leafValues></_>
        <_>
          <internalNodes>
            0 -1 199 -3.9842829108238220e-02</internalNodes>
          <leafValues>
            5.5357825756072998e-01 -2.1196553111076355e-01</leafValues></_>
        <_>
          <internalNodes>
            0 -1 19 4.8153504729270935e-02</internalNodes>
          <leafValues>
            -2.5723564624786377e-01 3.3569625020027161e-01</leafValues></_>
        <_>
          <internalNodes>
            0 -1 296 2.6264894753694534e-02</internalNodes>
          <leafValues>
            -2.5002086162567139e-01 3.9746132493019104e-01</leafValues></_>
        <_>
          <internalNodes>
            0 -1 378 2.4200122803449631e-02</internalNodes>
          <leafValues>
            -2.3682673275470734e-01 3.9596417546272278e-01</leafValues></_>
        <_>
          <internalNodes>
            0 -1 522 1.0357119143009186e-02</internalNodes>
          <leafValues>
            -1.4962524175643921e-01 6.3206475973129272e-01</leafValues></_>
        <_>
          <internalNodes>
            0 -1 344 6.1220698989927769e-03</internalNodes>
          <leafValues>
            -1.1133249104022980e-01 6.6404712200164795e-01</leafValues></_>
        <_>
          <internalNodes>
            0 -1 86 2.3112654685974121e-02</internalNodes>
          <leafValues>
            -1.6191360354423523e-01 4.8197710514068604e-01</leafValues></_>
        <_>
          <internalNodes>
            0 -1 397 1.0405166074633598e-02</internalNodes>
          <leafValues>
            -1.2423199415206909e-01 6.8708556890487671e-01</leafValues></_>
        <_>
          <internalNodes>
            0 -1 190 6.7800059914588928e-02</internalNodes>
          <leafValues>
            -3.1800195574760437e-01 2.8602439165115356e-01</leafValues></_>
        <_>
          <internalNodes>
            0 -1 500 -4.1563650593161583e-03</internalNodes>
          <leafValues>
            8.2993179559707642e-01 -9.6355348825454712e-02</leafValues></_>
        <_>
          <internalNodes>
            0 -1 183 4.5259051024913788e-02</internalNodes>
          <leafValues>
            -2.2863991558551788e-01 4.0073713660240173e-01</leafValues></_>
        <_>
          <internalNodes>
            0 -1 218 -1.7442023381590843e-02</internalNodes>
          <leafValues>
            7.2053223848342896e-01 -1.3587266206741333e-01</leafValues></_>
        <_>
          <internalNodes>
            0 -1 498 1.5489598736166954e-02</internalNodes>
          <leafValues>
            -1.1014601588249207e-01 6.7781805992126465e-01</leafValues></_>
        <_>
          <internalNodes>
            0 -1 509 -7.3223328217864037e-03</internalNodes>
          <leafValues>
            7.3618406057357788e-01 -1.1352758109569550e-01</leafValues></_>
        <_>
          <internalNodes>
            0 -1 285 -1.9483465701341629e-02</internalNodes>
          <leafValues>
            7.7646625041961670e-01 -8.3275400102138519e-02</leafValues></_>
        <_>
          <internalNodes>
            0 -1 543 3.4121661446988583e-03</internalNodes>
          <leafValues>
            -9.3780927360057831e-02 6.8966972827911377e-01</leafValues></_>
        <_>
          <internalNodes>
            0 -1 131 1.7997317016124725e-02</internalNodes>
          <leafValues>
            -1.5937501192092896e-01 4.6346437931060791e-01</leafValues></_>
        <_>
          <internalNodes>
            0 -1 248 -4.0230952203273773e-02</internalNodes>
          <leafValues>
            5.8803701400756836e-01 -1.5682353079319000e-01</leafValues></_>
        <_>
          <internalNodes>
            0 -1 212 1.0357782244682312e-02</internalNodes>
          <leafValues>
            -3.1264746189117432e-01 2.8778201341629028e-01</leafValues></_>
        <_>
          <internalNodes>
            0 -1 268 2.6562701910734177e-02</internalNodes>
          <leafValues>
            -2.4437037110328674e-01 3.5482093691825867e-01</leafValues></_>
        <_>
          <internalNodes>
            0 -1 264 -7.3145553469657898e-02</internalNodes>
          <leafValues>
            5.0589483976364136e-01 -1.6811613738536835e-01</leafValues></_></weakClassifiers></_>
    <!-- stage 4 -->
    <_>
      <maxWeakCount>23</maxWeakCount>
      <stageThreshold>-1.1871776580810547e+00</stageThreshold>
      <weakClassifiers>
        <_>
          <internalNodes>
            0 -1 299 2.6718188077211380e-02</internalNodes>
          <leafValues>
            -8.8607594370841980e-02 4.7107437252998352e-01</leafValues></_>
        <_>
          <internalNodes>
            0 -1 390 -1.6990706324577332e-02</internalNodes>
          <leafValues>
            7.6974046230316162e-01 -9.9018603563308716e-02</leafValues></_>
        <_>
          <internalNodes>
            0 -1 531 -3.9683608338236809e-03</internalNodes>
          <leafValues>
            7.8417235612869263e-01 -1.4116288721561432e-01</leafValues></_>
        <_>
          <internalNodes>
            0 -1 531 1.2956412974745035e-03</internalNodes>
          <leafValues>
            -2.0182436704635620e-01 5.0308591127395630e-01</leafValues></_>
        <_>
          <internalNodes>
            0 -1 292 -8.9675247669219971e-02</internalNodes>
          <leafValues>
            7.7459973096847534e-01 -8.8066652417182922e-02</leafValues></_>
        <_>
          <internalNodes>
            0 -1 512 3.1085209921002388e-03</internalNodes>
          <leafValues>
            -1.2555214762687683e-01 7.4856561422348022e-01</leafValues></_>
        <_>
          <internalNodes>
            0 -1 214 7.6414465904235840e-02</internalNodes>
          <leafValues>
            -2.0023323595523834e-01 4.5275887846946716e-01</leafValues></_>
        <_>
          <internalNodes>
            0 -1 114 2.4733529426157475e-03</internalNodes>
          <leafValues>
            -1.0040698200464249e-01 8.0568993091583252e-01</leafValues></_>
        <_>
          <internalNodes>
            0 -1 317 -1.7158543691039085e-02</internalNodes>
          <leafValues>
            6.8596345186233521e-01 -1.0399735718965530e-01</leafValues></_>
        <_>
          <internalNodes>
            0 -1 350 -1.7444804310798645e-02</internalNodes>
          <leafValues>
            7.7255684137344360e-01 -9.2548459768295288e-02</leafValues></_>
        <_>
          <internalNodes>
            0 -1 100 -1.0694222524762154e-02</internalNodes>
          <leafValues>
            7.4428051710128784e-01 -9.4831369817256927e-02</leafValues></_>
        <_>
          <internalNodes>
            0 -1 60 1.6707330942153931e-02</internalNodes>
          <leafValues>
            -3.2600402832031250e-01 3.3100074529647827e-01</leafValues></_>
        <_>
          <internalNodes>
            0 -1 69 -7.5563928112387657e-03</internalNodes>
          <leafValues>
            6.6121858358383179e-01 -1.1161108314990997e-01</leafValues></_>
        <_>
          <internalNodes>
            0 -1 540 3.4330077469348907e-03</internalNodes>
          <leafValues>
            -1.0947063565254211e-01 7.0018112659454346e-01</leafValues></_>
        <_>
          <internalNodes>
            0 -1 465 3.4425945486873388e-03</internalNodes>
          <leafValues>
            -6.4970977604389191e-02 8.6123555898666382e-01</leafValues></_>
        <_>
          <internalNodes>
            0 -1 2 -5.0794918090105057e-02</internalNodes>
          <leafValues>
            -5.2561390399932861e-01 1.7653709650039673e-01</leafValues></_>
        <_>
          <internalNodes>
            0 -1 537 -3.5076113417744637e-03</internalNodes>
          <leafValues>
            6.5997064113616943e-01 -1.5388296544551849e-01</leafValues></_>
        <_>
          <internalNodes>
            0 -1 123 6.7273430526256561e-02</internalNodes>
          <leafValues>
            -2.3860752582550049e-01 3.6328628659248352e-01</leafValues></_>
        <_>
          <internalNodes>
            0 -1 363 2.9435724020004272e-02</internalNodes>
          <leafValues>
            -2.3141965270042419e-01 3.9907497167587280e-01</leafValues></_>
        <_>
          <internalNodes>
            0 -1 545 2.8891619294881821e-03</internalNodes>
          <leafValues>
            -1.1232539266347885e-01 9.1150939464569092e-01</leafValues></_>
        <_>
          <internalNodes>
            0 -1 495 -3.1393244862556458e-03</internalNodes>
          <leafValues>
            8.6783158779144287e-01 -6.6451221704483032e-02</leafValues></_>
        <_>
          <internalNodes>
            0 -1 226 5.3359523415565491e-02</internalNodes>
          <leafValues>
            -3.2120653986930847e-01 2.9464122653007507e-01</leafValues></_>
        <_>
          <internalNodes>
            0 -1 494 -4.3788212351500988e-03</internalNodes>
          <leafValues>
            7.8227841854095459e-01 -1.1893235146999359e-01</leafValues></_></weakClassifiers></_>
    <!-- stage 5 -->
    <_>
      <maxWeakCount>20</maxWeakCount>
      <stageThreshold>-1.1539814472198486e+00</stageThreshold>
      <weakClassifiers>
        <_>
          <internalNodes>
            0 -1 236 6.1080423183739185e-03</internalNodes>
          <leafValues>
            8.6319215595722198e-02 7.9032260179519653e-01</leafValues></_>
        <_>
          <internalNodes>
            0 -1 414 -2.7671596035361290e-03</internalNodes>
          <leafValues>
            6.9223839044570923e-01 -1.1142124235630035e-01</leafValues></_>
        <_>
          <internalNodes>
            0 -1 234 -4.3786214664578438e-03</internalNodes>
          <leafValues>
            8.2739907503128052e-01 -1.2947650253772736e-01</leafValues></_>
        <_>
          <internalNodes>
            0 -1 387 2.8836866840720177e-03</internalNodes>
          <leafValues>
            -1.1381022632122040e-01 7.3968774080276489e-01</leafValues></_>
        <_>
          <internalNodes>
            0 -1 52 9.6598472446203232e-03</internalNodes>
          <leafValues>
            1.8744678795337677e-01 -5.5143058300018311e-01</leafValues></_>
        <_>
          <internalNodes>
            0 -1 150 6.2077227048575878e-03</internalNodes>
          <leafValues>
            -1.7163489758968353e-01 6.5583610534667969e-01</leafValues></_>
        <_>
          <internalNodes>
            0 -1 30 1.1132774874567986e-02</internalNodes>
          <leafValues>
            -1.0045428574085236e-01 8.3798438310623169e-01</leafValues></_>
        <_>
          <internalNodes>
            0 -1 23 -9.0637020766735077e-03</internalNodes>
          <leafValues>
            5.7318568229675293e-01 -1.4944887161254883e-01</leafValues></_>
        <_>
          <internalNodes>
            0 -1 555 2.7977395802736282e-03</internalNodes>
          <leafValues>
            -9.1947920620441437e-02 8.9287704229354858e-01</leafValues></_>
        <_>
          <internalNodes>
            0 -1 427 1.2192716822028160e-02</internalNodes>
          <leafValues>
            -2.1148090064525604e-01 3.8022676110267639e-01</leafValues></_>
        <_>
          <internalNodes>
            0 -1 320 2.4372445419430733e-02</internalNodes>
          <leafValues>
            -2.2287487983703613e-01 4.0982520580291748e-01</leafValues></_>
        <_>
          <internalNodes>
            0 -1 316 9.2613380402326584e-03</internalNodes>
          <leafValues>
            -1.3345158100128174e-01 5.5143386125564575e-01</leafValues></_>
        <_>
          <internalNodes>
            0 -1 1 -6.7287549376487732e-02</internalNodes>
          <leafValues>
            -6.7848968505859375e-01 1.3918985426425934e-01</leafValues></_>
        <_>
          <internalNodes>
            0 -1 544 -1.7145979218184948e-03</internalNodes>
          <leafValues>
            7.1872264146804810e-01 -1.4807637035846710e-01</leafValues></_>
        <_>
          <internalNodes>
            0 -1 542 -5.5790971964597702e-03</internalNodes>
          <leafValues>
            7.5638025999069214e-01 -9.3739993870258331e-02</leafValues></_>
        <_>
          <internalNodes>
            0 -1 103 -3.5519991070032120e-03</internalNodes>
          <leafValues>
            7.9419308900833130e-01 -8.2329168915748596e-02</leafValues></_>
        <_>
          <internalNodes>
            0 -1 94 2.0863179117441177e-02</internalNodes>
          <leafValues>
            -2.0745840668678284e-01 4.4604033231735229e-01</leafValues></_>
        <_>
          <internalNodes>
            0 -1 488 5.1948763430118561e-03</internalNodes>
          <leafValues>
            -1.1632872372865677e-01 7.9231882095336914e-01</leafValues></_>
        <_>
          <internalNodes>
            0 -1 182 -1.2666931375861168e-02</internalNodes>
          <leafValues>
            6.9903016090393066e-01 -1.1362265050411224e-01</leafValues></_>
        <_>
          <internalNodes>
            0 -1 336 1.1392581276595592e-02</internalNodes>
          <leafValues>
            -2.8766098618507385e-01 3.5141420364379883e-01</leafValues></_></weakClassifiers></_>
    <!-- stage 6 -->
    <_>
      <maxWeakCount>25</maxWeakCount>
      <stageThreshold>-9.2882645130157471e-01</stageThreshold>
      <weakClassifiers>
        <_>
          <internalNodes>
            0 -1 28 -2.9331159591674805e-01</internalNodes>
          <leafValues>
            -7.1171170473098755e-01 3.2169240713119507e-01</leafValues></_>
        <_>
          <internalNodes>
            0 -1 128 5.4400045424699783e-02</internalNodes>
          <leafValues>
            -2.1568910777568817e-01 3.5225638747215271e-01</leafValues></_>
        <_>
          <internalNodes>
            0 -1 186 2.5981400161981583e-02</internalNodes>
          <leafValues>
            -2.2256192564964294e-01 3.9464616775512695e-01</leafValues></_>
        <_>
          <internalNodes>
            0 -1 240 3.6784941330552101e-03</internalNodes>
          <leafValues>
            -2.8645923733711243e-01 2.7427476644515991e-01</leafValues></_>
        <_>
          <internalNodes>
            0 -1 141 1.0724835097789764e-02</internalNodes>
          <leafValues>
            1.5184660255908966e-01 -7.3341459035873413e-01</leafValues></_>
        <_>
          <internalNodes>
            0 -1 326 -7.4419140815734863e-02</internalNodes>
          <leafValues>
            6.2806344032287598e-01 -1.4096410572528839e-01</leafValues></_>
        <_>
          <internalNodes>
            0 -1 284 -6.2746509909629822e-02</internalNodes>
          <leafValues>
            5.6971818208694458e-01 -1.5639707446098328e-01</leafValues></_>
        <_>
          <internalNodes>
            0 -1 293 1.9336055964231491e-02</internalNodes>
          <leafValues>
            1.3150499761104584e-01 -6.2208002805709839e-01</leafValues></_>
        <_>
          <internalNodes>
            0 -1 571 8.3900906611233950e-04</internalNodes>
          <leafValues>
            1.4079436659812927e-01 -4.5595082640647888e-01</leafValues></_>
        <_>
          <internalNodes>
            0 -1 323 -5.1638867706060410e-02</internalNodes>
          <leafValues>
            6.6211742162704468e-01 -1.3183026015758514e-01</leafValues></_>
        <_>
          <internalNodes>
            0 -1 157 1.0862506926059723e-01</internalNodes>
          <leafValues>
            -2.3864616453647614e-01 3.6451816558837891e-01</leafValues></_>
        <_>
          <internalNodes>
            0 -1 338 -3.1249909079633653e-04</internalNodes>
          <leafValues>
            -4.0524649620056152e-01 2.0245829224586487e-01</leafValues></_>
        <_>
          <internalNodes>
            0 -1 536 1.5858467668294907e-02</internalNodes>
          <leafValues>
            -1.6545581817626953e-01 5.4481089115142822e-01</leafValues></_>
        <_>
          <internalNodes>
            0 -1 161 -1.0196832567453384e-01</internalNodes>
          <leafValues>
            7.6413506269454956e-01 -6.7058414220809937e-02</leafValues></_>
        <_>
          <internalNodes>
            0 -1 92 8.1997022032737732e-02</internalNodes>
          <leafValues>
            -2.1905738115310669e-01 3.2617583870887756e-01</leafValues></_>
        <_>
          <internalNodes>
            0 -1 304 3.5099321976304054e-03</internalNodes>
          <leafValues>
            -2.5602746009826660e-01 2.8581428527832031e-01</leafValues></_>
        <_>
          <internalNodes>
            0 -1 502 1.6042623668909073e-02</internalNodes>
          <leafValues>
            -1.2385147809982300e-01 6.3542068004608154e-01</leafValues></_>
        <_>
          <internalNodes>
            0 -1 506 -6.3459593802690506e-03</internalNodes>
          <leafValues>
            5.1717370748519897e-01 -1.3883279263973236e-01</leafValues></_>
        <_>
          <internalNodes>
            0 -1 312 -1.3878374360501766e-02</internalNodes>
          <leafValues>
            6.2572097778320312e-01 -9.4460614025592804e-02</leafValues></_>
        <_>
          <internalNodes>
            0 -1 310 -8.5052603390067816e-04</internalNodes>
          <leafValues>
            -5.5547118186950684e-01 1.2872464954853058e-01</leafValues></_>
        <_>
          <internalNodes>
            0 -1 211 5.6060746312141418e-02</internalNodes>
          <leafValues>
            -2.3565076291561127e-01 3.0449494719505310e-01</leafValues></_>
        <_>
          <internalNodes>
            0 -1 194 -2.8279051184654236e-02</internalNodes>
          <leafValues>
            4.1947424411773682e-01 -1.5824158489704132e-01</leafValues></_>
        <_>
          <internalNodes>
            0 -1 203 9.0964334085583687e-03</internalNodes>
          <leafValues>
            -2.9874721169471741e-01 3.0736958980560303e-01</leafValues></_>
        <_>
          <internalNodes>
            0 -1 267 -6.4669609069824219e-02</internalNodes>
          <leafValues>
            5.4089540243148804e-01 -1.3725832104682922e-01</leafValues></_>
        <_>
          <internalNodes>
            0 -1 365 -1.3163011753931642e-03</internalNodes>
          <leafValues>
            -5.7408666610717773e-01 1.4196091890335083e-01</leafValues></_></weakClassifiers></_>
    <!-- stage 7 -->
    <_>
      <maxWeakCount>32</maxWeakCount>
      <stageThreshold>-1.3224688768386841e+00</stageThreshold>
      <weakClassifiers>
        <_>
          <internalNodes>
            0 -1 25 4.6293243765830994e-02</internalNodes>
          <leafValues>
            3.3197000622749329e-01 -6.5413534641265869e-01</leafValues></_>
        <_>
          <internalNodes>
            0 -1 447 3.9547355845570564e-03</internalNodes>
          <leafValues>
            -8.1057362258434296e-02 6.3180357217788696e-01</leafValues></_>
        <_>
          <internalNodes>
            0 -1 498 1.3218661770224571e-02</internalNodes>
          <leafValues>
            -1.7126144468784332e-01 5.1951509714126587e-01</leafValues></_>
        <_>
          <internalNodes>
            0 -1 93 6.9041214883327484e-03</internalNodes>
          <leafValues>
            -1.4855512976646423e-01 4.5940098166465759e-01</leafValues></_>
        <_>
          <internalNodes>
            0 -1 512 -4.0244353003799915e-03</internalNodes>
          <leafValues>
            6.9290810823440552e-01 -1.5780463814735413e-01</leafValues></_>
        <_>
          <internalNodes>
            0 -1 338 5.9097143821418285e-04</internalNodes>
          <leafValues>
            2.3202188313007355e-01 -3.5096156597137451e-01</leafValues></_>
        <_>
          <internalNodes>
            0 -1 369 4.4427113607525826e-03</internalNodes>
          <leafValues>
            -1.7087829113006592e-01 5.0158041715621948e-01</leafValues></_>
        <_>
          <internalNodes>
            0 -1 396 1.2671658769249916e-02</internalNodes>
          <leafValues>
            -1.3661962747573853e-01 5.9192651510238647e-01</leafValues></_>
        <_>
          <internalNodes>
            0 -1 138 -1.3327209278941154e-02</internalNodes>
          <leafValues>
            -5.7716089487075806e-01 1.5600012242794037e-01</leafValues></_>
        <_>
          <internalNodes>
            0 -1 338 -3.2205239403992891e-04</internalNodes>
          <leafValues>
            -4.3777599930763245e-01 1.5802796185016632e-01</leafValues></_>
        <_>
          <internalNodes>
            0 -1 301 -4.0202669799327850e-02</internalNodes>
          <leafValues>
            5.6898486614227295e-01 -1.4779192209243774e-01</leafValues></_>
        <_>
          <internalNodes>
            0 -1 254 1.7277207225561142e-02</internalNodes>
          <leafValues>
            -2.4707739055156708e-01 3.8939267396926880e-01</leafValues></_>
        <_>
          <internalNodes>
            0 -1 79 -2.3888181895017624e-03</internalNodes>
          <leafValues>
            7.7645903825759888e-01 -1.1050839722156525e-01</leafValues></_>
        <_>
          <internalNodes>
            0 -1 374 2.0701125264167786e-02</internalNodes>
          <leafValues>
            -1.8405997753143311e-01 4.0551549196243286e-01</leafValues></_>
        <_>
          <internalNodes>
            0 -1 302 7.1991577744483948e-02</internalNodes>
          <leafValues>
            -1.9737966358661652e-01 3.7396991252899170e-01</leafValues></_>
        <_>
          <internalNodes>
            0 -1 464 -4.2737284675240517e-03</internalNodes>
          <leafValues>
            7.5477296113967896e-01 -9.8248742520809174e-02</leafValues></_>
        <_>
          <internalNodes>
            0 -1 37 -1.2729132547974586e-02</internalNodes>
          <leafValues>
            -6.8961465358734131e-01 1.2035055458545685e-01</leafValues></_>
        <_>
          <internalNodes>
            0 -1 527 4.4232322834432125e-03</internalNodes>
          <leafValues>
            -1.1831361800432205e-01 7.1813952922821045e-01</leafValues></_>
        <_>
          <internalNodes>
            0 -1 83 -1.2014625594019890e-02</internalNodes>
          <leafValues>
            5.5222725868225098e-01 -1.0569681227207184e-01</leafValues></_>
        <_>
          <internalNodes>
            0 -1 200 1.6713121905922890e-02</internalNodes>
          <leafValues>
            -1.1932857334613800e-01 5.8673673868179321e-01</leafValues></_>
        <_>
          <internalNodes>
            0 -1 21 -1.2548460625112057e-02</internalNodes>
          <leafValues>
            5.8815896511077881e-01 -1.0892065614461899e-01</leafValues></_>
        <_>
          <internalNodes>
            0 -1 537 4.8372419551014900e-03</internalNodes>
          <leafValues>
            -7.7747568488121033e-02 7.6442426443099976e-01</leafValues></_>
        <_>
          <internalNodes>
            0 -1 208 -1.8991250544786453e-02</internalNodes>
          <leafValues>
            -4.9627929925918579e-01 1.5602552890777588e-01</leafValues></_>
        <_>
          <internalNodes>
            0 -1 217 5.0323620438575745e-02</internalNodes>
          <leafValues>
            -2.5139516592025757e-01 2.8034505248069763e-01</leafValues></_>
        <_>
          <internalNodes>
            0 -1 50 2.6566559076309204e-01</internalNodes>
          <leafValues>
            9.1356784105300903e-02 -9.5655691623687744e-01</leafValues></_>
        <_>
          <internalNodes>
            0 -1 315 4.4753924012184143e-03</internalNodes>
          <leafValues>
            -1.3189725577831268e-01 6.7966079711914062e-01</leafValues></_>
        <_>
          <internalNodes>
            0 -1 33 2.3223927710205317e-03</internalNodes>
          <leafValues>
            -1.2072105705738068e-01 5.5400639772415161e-01</leafValues></_>
        <_>
          <internalNodes>
            0 -1 348 4.5803682878613472e-03</internalNodes>
          <leafValues>
            -9.4522342085838318e-02 6.9194120168685913e-01</leafValues></_>
        <_>
          <internalNodes>
            0 -1 454 2.3463470861315727e-03</internalNodes>
          <leafValues>
            -2.4275431036949158e-01 3.0127611756324768e-01</leafValues></_>
        <_>
          <internalNodes>
            0 -1 285 1.0247220285236835e-02</internalNodes>
          <leafValues>
            -1.6769583523273468e-01 4.9597969651222229e-01</leafValues></_>
        <_>
          <internalNodes>
            0 -1 564 -1.2058682041242719e-03</internalNodes>
          <leafValues>
            -4.3133980035781860e-01 1.9737243652343750e-01</leafValues></_>
        <_>
          <internalNodes>
            0 -1 392 3.1112741678953171e-02</internalNodes>
          <leafValues>
            -4.9276962876319885e-01 1.6027109324932098e-01</leafValues></_></weakClassifiers></_>
    <!-- stage 8 -->
    <_>
      <maxWeakCount>34</maxWeakCount>
      <stageThreshold>-1.0461548566818237e+00</stageThreshold>
      <weakClassifiers>
        <_>
          <internalNodes>
            0 -1 361 -1.6670555341988802e-03</internalNodes>
          <leafValues>
            -4.6428570151329041e-01 3.3379888534545898e-01</leafValues></_>
        <_>
          <internalNodes>
            0 -1 87 1.8596257269382477e-01</internalNodes>
          <leafValues>
            -1.6897669434547424e-01 3.9740568399429321e-01</leafValues></_>
        <_>
          <internalNodes>
            0 -1 137 1.8998688086867332e-02</internalNodes>
          <leafValues>
            -2.4006684124469757e-01 2.8740578889846802e-01</leafValues></_>
        <_>
          <internalNodes>
            0 -1 319 5.1134526729583740e-02</internalNodes>
          <leafValues>
            -2.0618419349193573e-01 3.3314862847328186e-01</leafValues></_>
        <_>
          <internalNodes>
            0 -1 291 -1.3773477077484131e-01</internalNodes>
          <leafValues>
            5.0711166858673096e-01 -1.7947213351726532e-01</leafValues></_>
        <_>
          <internalNodes>
            0 -1 121 -6.1267696321010590e-02</internalNodes>
          <leafValues>
            5.8816117048263550e-01 -1.1775324493646622e-01</leafValues></_>
        <_>
          <internalNodes>
            0 -1 222 -1.7098852992057800e-01</internalNodes>
          <leafValues>
            -6.9175523519515991e-01 1.1840737611055374e-01</leafValues></_>
        <_>
          <internalNodes>
            0 -1 261 -7.0673221489414573e-04</internalNodes>
          <leafValues>
            -3.7340289354324341e-01 1.6483505070209503e-01</leafValues></_>
        <_>
          <internalNodes>
            0 -1 335 3.9823047816753387e-02</internalNodes>
          <leafValues>
            -1.7934189736843109e-01 3.2212802767753601e-01</leafValues></_>
        <_>
          <internalNodes>
            0 -1 276 -4.7542124986648560e-02</internalNodes>
          <leafValues>
            -6.8346804380416870e-01 9.4583176076412201e-02</leafValues></_>
        <_>
          <internalNodes>
            0 -1 281 -3.8513153791427612e-02</internalNodes>
          <leafValues>
            4.0075042843818665e-01 -1.9199758768081665e-01</leafValues></_>
        <_>
          <internalNodes>
            0 -1 124 8.4594950079917908e-02</internalNodes>
          <leafValues>
            -2.2113639116287231e-01 2.9372167587280273e-01</leafValues></_>
        <_>
          <internalNodes>
            0 -1 49 3.7898175418376923e-02</internalNodes>
          <leafValues>
            -2.7461245656013489e-01 2.9347813129425049e-01</leafValues></_>
        <_>
          <internalNodes>
            0 -1 179 4.6154102310538292e-03</internalNodes>
          <leafValues>
            -8.4678813815116882e-02 7.0084732770919800e-01</leafValues></_>
        <_>
          <internalNodes>
            0 -1 401 -1.8073238432407379e-02</internalNodes>
          <leafValues>
            6.9616395235061646e-01 -8.4729671478271484e-02</leafValues></_>
        <_>
          <internalNodes>
            0 -1 320 1.4234958216547966e-02</internalNodes>
          <leafValues>
            -2.4680723249912262e-01 2.9276663064956665e-01</leafValues></_>
        <_>
          <internalNodes>
            0 -1 529 2.9396465979516506e-03</internalNodes>
          <leafValues>
            -8.4944330155849457e-02 6.7485380172729492e-01</leafValues></_>
        <_>
          <internalNodes>
            0 -1 466 -2.1123338490724564e-02</internalNodes>
          <leafValues>
            6.6075152158737183e-01 -7.9997248947620392e-02</leafValues></_>
        <_>
          <internalNodes>
            0 -1 471 -2.3940876126289368e-02</internalNodes>
          <leafValues>
            5.5149114131927490e-01 -9.0180538594722748e-02</leafValues></_>
        <_>
          <internalNodes>
            0 -1 428 1.9843306392431259e-02</internalNodes>
          <leafValues>
            -2.7195075154304504e-01 2.7189895510673523e-01</leafValues></_>
        <_>
          <internalNodes>
            0 -1 8 -4.3387585319578648e-03</internalNodes>
          <leafValues>
            3.4200266003608704e-01 -1.7638407647609711e-01</leafValues></_>
        <_>
          <internalNodes>
            0 -1 22 -1.4297042042016983e-02</internalNodes>
          <leafValues>
            4.8671975731849670e-01 -1.2470699101686478e-01</leafValues></_>
        <_>
          <internalNodes>
            0 -1 265 -4.2328247800469398e-03</internalNodes>
          <leafValues>
            5.9511321783065796e-01 -9.2565141618251801e-02</leafValues></_>
        <_>
          <internalNodes>
            0 -1 473 -1.8141990527510643e-02</internalNodes>
          <leafValues>
            7.6389241218566895e-01 -6.6258288919925690e-02</leafValues></_>
        <_>
          <internalNodes>
            0 -1 383 -1.0960227251052856e-01</internalNodes>
          <leafValues>
            8.6433684825897217e-01 -6.0363315045833588e-02</leafValues></_>
        <_>
          <internalNodes>
            0 -1 410 2.2236030548810959e-02</internalNodes>
          <leafValues>
            -1.8023744225502014e-01 3.1965681910514832e-01</leafValues></_>
        <_>
          <internalNodes>
            0 -1 435 5.2297720685601234e-04</internalNodes>
          <leafValues>
            1.5610893070697784e-01 -3.9600193500518799e-01</leafValues></_>
        <_>
          <internalNodes>
            0 -1 231 3.5646385513246059e-03</internalNodes>
          <leafValues>
            1.4021238684654236e-01 -4.4821828603744507e-01</leafValues></_>
        <_>
          <internalNodes>
            0 -1 373 -2.3044120520353317e-02</internalNodes>
          <leafValues>
            7.9647153615951538e-01 -7.8523486852645874e-02</leafValues></_>
        <_>
          <internalNodes>
            0 -1 486 -1.6032025218009949e-02</internalNodes>
          <leafValues>
            6.7950147390365601e-01 -7.4806489050388336e-02</leafValues></_>
        <_>
          <internalNodes>
            0 -1 165 -2.7974225580692291e-02</internalNodes>
          <leafValues>
            5.0579249858856201e-01 -9.9357053637504578e-02</leafValues></_>
        <_>
          <internalNodes>
            0 -1 345 9.9233975633978844e-03</internalNodes>
          <leafValues>
            -1.1540382355451584e-01 4.7292512655258179e-01</leafValues></_>
        <_>
          <internalNodes>
            0 -1 5 6.1648061091545969e-05</internalNodes>
          <leafValues>
            -2.7021929621696472e-01 2.2076486051082611e-01</leafValues></_>
        <_>
          <internalNodes>
            0 -1 75 1.6417514532804489e-02</internalNodes>
          <leafValues>
            9.9385522305965424e-02 -5.9350287914276123e-01</leafValues></_></weakClassifiers></_>
    <!-- stage 9 -->
    <_>
      <maxWeakCount>36</maxWeakCount>
      <stageThreshold>-1.1036578416824341e+00</stageThreshold>
      <weakClassifiers>
        <_>
          <internalNodes>
            0 -1 12 -8.0554023385047913e-02</internalNodes>
          <leafValues>
            -6.7346936464309692e-01 3.1025299429893494e-01</leafValues></_>
        <_>
          <internalNodes>
            0 -1 554 1.6722023487091064e-02</internalNodes>
          <leafValues>
            -6.9557532668113708e-02 7.1192038059234619e-01</leafValues></_>
        <_>
          <internalNodes>
            0 -1 554 -1.5969779342412949e-02</internalNodes>
          <leafValues>
            6.7038512229919434e-01 -9.4230830669403076e-02</leafValues></_>
        <_>
          <internalNodes>
            0 -1 450 3.5837233066558838e-02</internalNodes>
          <leafValues>
            -1.3557262718677521e-01 4.1914063692092896e-01</leafValues></_>
        <_>
          <internalNodes>
            0 -1 512 -5.2180220372974873e-03</internalNodes>
          <leafValues>
            7.2403997182846069e-01 -8.6028344929218292e-02</leafValues></_>
        <_>
          <internalNodes>
            0 -1 114 -2.7960259467363358e-03</internalNodes>
          <leafValues>
            7.8038263320922852e-01 -7.5890548527240753e-02</leafValues></_>
        <_>
          <internalNodes>
            0 -1 123 9.2771857976913452e-02</internalNodes>
          <leafValues>
            -1.9201841950416565e-01 3.0691373348236084e-01</leafValues></_>
        <_>
          <internalNodes>
            0 -1 127 -1.3501605950295925e-02</internalNodes>
          <leafValues>
            5.6662130355834961e-01 -1.2478852272033691e-01</leafValues></_>
        <_>
          <internalNodes>
            0 -1 155 2.5932103395462036e-02</internalNodes>
          <leafValues>
            -2.0604082942008972e-01 3.2908350229263306e-01</leafValues></_>
        <_>
          <internalNodes>
            0 -1 120 8.6381398141384125e-03</internalNodes>
          <leafValues>
            -2.6743122935295105e-01 2.5362399220466614e-01</leafValues></_>
        <_>
          <internalNodes>
            0 -1 147 1.2504574842751026e-02</internalNodes>
          <leafValues>
            -1.6749544441699982e-01 4.3799492716789246e-01</leafValues></_>
        <_>
          <internalNodes>
            0 -1 376 2.4078980088233948e-02</internalNodes>
          <leafValues>
            -2.2410625219345093e-01 3.1067952513694763e-01</leafValues></_>
        <_>
          <internalNodes>
            0 -1 415 3.3624675124883652e-03</internalNodes>
          <leafValues>
            -6.8773247301578522e-02 7.5485092401504517e-01</leafValues></_>
        <_>
          <internalNodes>
            0 -1 458 1.8736440688371658e-03</internalNodes>
          <leafValues>
            -9.6882656216621399e-02 5.8680975437164307e-01</leafValues></_>
        <_>
          <internalNodes>
            0 -1 101 -4.7723203897476196e-03</internalNodes>
          <leafValues>
            5.3570014238357544e-01 -1.0166736692190170e-01</leafValues></_>
        <_>
          <internalNodes>
            0 -1 105 4.0762582793831825e-03</internalNodes>
          <leafValues>
            1.7611721158027649e-01 -3.7208378314971924e-01</leafValues></_>
        <_>
          <internalNodes>
            0 -1 461 3.3384867012500763e-02</internalNodes>
          <leafValues>
            -9.9107377231121063e-02 7.0726847648620605e-01</leafValues></_>
        <_>
          <internalNodes>
            0 -1 467 2.6656787842512131e-02</internalNodes>
          <leafValues>
            -1.0938280075788498e-01 5.3172522783279419e-01</leafValues></_>
        <_>
          <internalNodes>
            0 -1 511 -1.6193503513932228e-02</internalNodes>
          <leafValues>
            6.7933011054992676e-01 -7.5238421559333801e-02</leafValues></_>
        <_>
          <internalNodes>
            0 -1 143 1.4069139957427979e-01</internalNodes>
          <leafValues>
            9.8185330629348755e-02 -8.3002102375030518e-01</leafValues></_>
        <_>
          <internalNodes>
            0 -1 563 -3.3512309892103076e-04</internalNodes>
          <leafValues>
            -3.6597192287445068e-01 1.5840713679790497e-01</leafValues></_>
        <_>
          <internalNodes>
            0 -1 534 2.7269201818853617e-03</internalNodes>
          <leafValues>
            -1.0514204949140549e-01 5.3494417667388916e-01</leafValues></_>
        <_>
          <internalNodes>
            0 -1 541 1.7391249537467957e-02</internalNodes>
          <leafValues>
            -1.1022639274597168e-01 5.0208044052124023e-01</leafValues></_>
        <_>
          <internalNodes>
            0 -1 4 3.2077701762318611e-03</internalNodes>
          <leafValues>
            -8.7521247565746307e-02 6.8084740638732910e-01</leafValues></_>
        <_>
          <internalNodes>
            0 -1 358 -9.9530653096735477e-04</internalNodes>
          <leafValues>
            -3.4520167112350464e-01 1.8373888731002808e-01</leafValues></_>
        <_>
          <internalNodes>
            0 -1 514 -3.2852275762706995e-03</internalNodes>
          <leafValues>
            7.7667695283889771e-01 -8.7457351386547089e-02</leafValues></_>
        <_>
          <internalNodes>
            0 -1 359 -6.4387201564386487e-04</internalNodes>
          <leafValues>
            -4.1578936576843262e-01 1.6790883243083954e-01</leafValues></_>
        <_>
          <internalNodes>
            0 -1 275 3.0676115304231644e-02</internalNodes>
          <leafValues>
            6.3126921653747559e-02 -8.1791979074478149e-01</leafValues></_>
        <_>
          <internalNodes>
            0 -1 81 -3.2291924580931664e-03</internalNodes>
          <leafValues>
            7.0802998542785645e-01 -1.0403875261545181e-01</leafValues></_>
        <_>
          <internalNodes>
            0 -1 181 -3.3778273500502110e-03</internalNodes>
          <leafValues>
            8.1234544515609741e-01 -5.4425474256277084e-02</leafValues></_>
        <_>
          <internalNodes>
            0 -1 484 2.2925669327378273e-03</internalNodes>
          <leafValues>
            -2.0864066481590271e-01 2.8687274456024170e-01</leafValues></_>
        <_>
          <internalNodes>
            0 -1 356 -1.1140739545226097e-02</internalNodes>
          <leafValues>
            5.6261175870895386e-01 -1.1922784149646759e-01</leafValues></_>
        <_>
          <internalNodes>
            0 -1 219 5.6342326104640961e-02</internalNodes>
          <leafValues>
            -2.2984276711940765e-01 3.0070212483406067e-01</leafValues></_>
        <_>
          <internalNodes>
            0 -1 180 -1.9348826259374619e-02</internalNodes>
          <leafValues>
            7.0982474088668823e-01 -9.3819156289100647e-02</leafValues></_>
        <_>
          <internalNodes>
            0 -1 34 -7.5794924050569534e-03</internalNodes>
          <leafValues>
            4.6513444185256958e-01 -1.2386523932218552e-01</leafValues></_>
        <_>
          <internalNodes>
            0 -1 439 -2.8502076747827232e-04</internalNodes>
          <leafValues>
            -3.4156081080436707e-01 1.8303075432777405e-01</leafValues></_></weakClassifiers></_>
    <!-- stage 10 -->
    <_>
      <maxWeakCount>35</maxWeakCount>
      <stageThreshold>-7.0558279752731323e-01</stageThreshold>
      <weakClassifiers>
        <_>
          <internalNodes>
            0 -1 220 5.6614190340042114e-02</internalNodes>
          <leafValues>
            8.4842704236507416e-02 5.6442832946777344e-01</leafValues></_>
        <_>
          <internalNodes>
            0 -1 335 3.3444128930568695e-02</internalNodes>
          <leafValues>
            -1.5099176764488220e-01 3.1535160541534424e-01</leafValues></_>
        <_>
          <internalNodes>
            0 -1 405 2.0411603152751923e-02</internalNodes>
          <leafValues>
            -1.9352962076663971e-01 2.8311964869499207e-01</leafValues></_>
        <_>
          <internalNodes>
            0 -1 245 1.2537540495395660e-01</internalNodes>
          <leafValues>
            -1.3766999542713165e-01 4.2437142133712769e-01</leafValues></_>
        <_>
          <internalNodes>
            0 -1 64 4.9655206501483917e-02</internalNodes>
          <leafValues>
            -2.3007982969284058e-01 3.4391850233078003e-01</leafValues></_>
        <_>
          <internalNodes>
            0 -1 51 2.0559420809149742e-02</internalNodes>
          <leafValues>
            -2.1029192209243774e-01 2.4958376586437225e-01</leafValues></_>
        <_>
          <internalNodes>
            0 -1 260 -2.4483527522534132e-04</internalNodes>
          <leafValues>
            -3.5997575521469116e-01 1.6232506930828094e-01</leafValues></_>
        <_>
          <internalNodes>
            0 -1 460 -6.1193876899778843e-04</internalNodes>
          <leafValues>
            -3.4609174728393555e-01 1.5533328056335449e-01</leafValues></_>
        <_>
          <internalNodes>
            0 -1 460 3.3299953793175519e-04</internalNodes>
          <leafValues>
            1.6762766242027283e-01 -3.5937961935997009e-01</leafValues></_>
        <_>
          <internalNodes>
            0 -1 223 -9.0822270140051842e-03</internalNodes>
          <leafValues>
            2.5851741433143616e-01 -2.2713834047317505e-01</leafValues></_>
        <_>
          <internalNodes>
            0 -1 305 1.3567093759775162e-02</internalNodes>
          <leafValues>
            -2.3663634061813354e-01 2.8884479403495789e-01</leafValues></_>
        <_>
          <internalNodes>
            0 -1 324 -2.2589374333620071e-02</internalNodes>
          <leafValues>
            3.9640596508979797e-01 -1.5241928398609161e-01</leafValues></_>
        <_>
          <internalNodes>
            0 -1 332 -6.4532010583207011e-04</internalNodes>
          <leafValues>
            -4.4529986381530762e-01 1.4552043378353119e-01</leafValues></_>
        <_>
          <internalNodes>
            0 -1 438 -4.1048382408916950e-03</internalNodes>
          <leafValues>
            4.8229187726974487e-01 -1.1585240811109543e-01</leafValues></_>
        <_>
          <internalNodes>
            0 -1 432 -1.8435215577483177e-02</internalNodes>
          <leafValues>
            6.5708637237548828e-01 -7.9639159142971039e-02</leafValues></_>
        <_>
          <internalNodes>
            0 -1 242 2.7510765939950943e-02</internalNodes>
          <leafValues>
            -1.7038480937480927e-01 3.2324731349945068e-01</leafValues></_>
        <_>
          <internalNodes>
            0 -1 395 -3.5158381797373295e-03</internalNodes>
          <leafValues>
            5.4070031642913818e-01 -1.2070452421903610e-01</leafValues></_>
        <_>
          <internalNodes>
            0 -1 294 1.4271484687924385e-02</internalNodes>
          <leafValues>
            -2.5022187829017639e-01 2.1270522475242615e-01</leafValues></_>
        <_>
          <internalNodes>
            0 -1 475 -9.0249087661504745e-03</internalNodes>
          <leafValues>
            4.1705185174942017e-01 -1.6761071979999542e-01</leafValues></_>
        <_>
          <internalNodes>
            0 -1 303 -2.8936546295881271e-02</internalNodes>
          <leafValues>
            -7.3980420827865601e-01 7.7988348901271820e-02</leafValues></_>
        <_>
          <internalNodes>
            0 -1 437 -4.5083379372954369e-03</internalNodes>
          <leafValues>
            6.4595907926559448e-01 -9.4420671463012695e-02</leafValues></_>
        <_>
          <internalNodes>
            0 -1 346 -1.0331522673368454e-02</internalNodes>
          <leafValues>
            5.1143509149551392e-01 -9.4278655946254730e-02</leafValues></_>
        <_>
          <internalNodes>
            0 -1 532 3.4716092050075531e-03</internalNodes>
          <leafValues>
            -6.6355884075164795e-02 7.5269389152526855e-01</leafValues></_>
        <_>
          <internalNodes>
            0 -1 169 2.6743466034531593e-02</internalNodes>
          <leafValues>
            -2.0970220863819122e-01 2.5786599516868591e-01</leafValues></_>
        <_>
          <internalNodes>
            0 -1 337 -3.6366861313581467e-02</internalNodes>
          <leafValues>
            6.4458161592483521e-01 -1.0793234407901764e-01</leafValues></_>
        <_>
          <internalNodes>
            0 -1 262 5.8072809129953384e-02</internalNodes>
          <leafValues>
            -2.1876044571399689e-01 2.7541768550872803e-01</leafValues></_>
        <_>
          <internalNodes>
            0 -1 351 -6.7212149500846863e-02</internalNodes>
          <leafValues>
            6.1945760250091553e-01 -1.0344929993152618e-01</leafValues></_>
        <_>
          <internalNodes>
            0 -1 152 2.2474929690361023e-02</internalNodes>
          <leafValues>
            -2.5852373242378235e-01 2.6339641213417053e-01</leafValues></_>
        <_>
          <internalNodes>
            0 -1 525 -1.4638286083936691e-02</internalNodes>
          <leafValues>
            6.7123192548751831e-01 -9.4070635735988617e-02</leafValues></_>
        <_>
          <internalNodes>
            0 -1 524 2.7344359550625086e-03</internalNodes>
          <leafValues>
            -8.1530384719371796e-02 5.5594319105148315e-01</leafValues></_>
        <_>
          <internalNodes>
            0 -1 521 5.2187155233696103e-04</internalNodes>
          <leafValues>
            -2.2542999684810638e-01 2.5526368618011475e-01</leafValues></_>
        <_>
          <internalNodes>
            0 -1 77 1.3496029190719128e-02</internalNodes>
          <leafValues>
            -1.3089282810688019e-01 4.2051932215690613e-01</leafValues></_>
        <_>
          <internalNodes>
            0 -1 42 -6.5432628616690636e-04</internalNodes>
          <leafValues>
            -4.1788116097450256e-01 1.3886025547981262e-01</leafValues></_>
        <_>
          <internalNodes>
            0 -1 41 9.6654787659645081e-02</internalNodes>
          <leafValues>
            6.2163345515727997e-02 -9.1539663076400757e-01</leafValues></_>
        <_>
          <internalNodes>
            0 -1 468 -2.7564889751374722e-03</internalNodes>
          <leafValues>
            5.5690807104110718e-01 -1.1509300023317337e-01</leafValues></_></weakClassifiers></_>
    <!-- stage 11 -->
    <_>
      <maxWeakCount>39</maxWeakCount>
      <stageThreshold>-9.1293364763259888e-01</stageThreshold>
      <weakClassifiers>
        <_>
          <internalNodes>
            0 -1 558 -3.1730093061923981e-02</internalNodes>
          <leafValues>
            -5.6521737575531006e-01 3.1313130259513855e-01</leafValues></_>
        <_>
          <internalNodes>
            0 -1 493 2.4966303259134293e-02</internalNodes>
          <leafValues>
            -1.6293261945247650e-01 3.0655252933502197e-01</leafValues></_>
        <_>
          <internalNodes>
            0 -1 54 7.0022389292716980e-02</internalNodes>
          <leafValues>
            -2.5861760973930359e-01 2.1408540010452271e-01</leafValues></_>
        <_>
          <internalNodes>
            0 -1 78 3.5706750350072980e-04</internalNodes>
          <leafValues>
            1.6363479197025299e-01 -3.1711643934249878e-01</leafValues></_>
        <_>
          <internalNodes>
            0 -1 95 -1.9809193909168243e-02</internalNodes>
          <leafValues>
            6.0545557737350464e-01 -9.4463810324668884e-02</leafValues></_>
        <_>
          <internalNodes>
            0 -1 17 1.8993496894836426e-02</internalNodes>
          <leafValues>
            -2.6050662994384766e-01 2.7700152993202209e-01</leafValues></_>
        <_>
          <internalNodes>
            0 -1 38 6.9786049425601959e-03</internalNodes>
          <leafValues>
            7.3977656662464142e-02 -7.5711852312088013e-01</leafValues></_>
        <_>
          <internalNodes>
            0 -1 78 -3.0201929621398449e-04</internalNodes>
          <leafValues>
            -3.4658065438270569e-01 1.5555772185325623e-01</leafValues></_>
        <_>
          <internalNodes>
            0 -1 185 3.1644735485315323e-02</internalNodes>
          <leafValues>
            -1.6719672083854675e-01 3.1484332680702209e-01</leafValues></_>
        <_>
          <internalNodes>
            0 -1 243 -1.8190208822488785e-02</internalNodes>
          <leafValues>
            6.6802597045898438e-01 -9.7642362117767334e-02</leafValues></_>
        <_>
          <internalNodes>
            0 -1 352 6.3337668776512146e-02</internalNodes>
          <leafValues>
            1.0043988376855850e-01 -7.0043003559112549e-01</leafValues></_>
        <_>
          <internalNodes>
            0 -1 111 1.7460983246564865e-02</internalNodes>
          <leafValues>
            -2.5589162111282349e-01 2.1258512139320374e-01</leafValues></_>
        <_>
          <internalNodes>
            0 -1 490 3.3699972555041313e-03</internalNodes>
          <leafValues>
            -6.7174062132835388e-02 7.0988613367080688e-01</leafValues></_>
        <_>
          <internalNodes>
            0 -1 173 1.6741238068789244e-03</internalNodes>
          <leafValues>
            -1.6720870137214661e-01 2.9682105779647827e-01</leafValues></_>
        <_>
          <internalNodes>
            0 -1 126 1.3118421658873558e-02</internalNodes>
          <leafValues>
            -2.4795553088188171e-01 2.3093557357788086e-01</leafValues></_>
        <_>
          <internalNodes>
            0 -1 127 -2.2400479763746262e-02</internalNodes>
          <leafValues>
            6.8690490722656250e-01 -7.8149668872356415e-02</leafValues></_>
        <_>
          <internalNodes>
            0 -1 96 5.7834098115563393e-03</internalNodes>
          <leafValues>
            -2.4710087478160858e-01 2.5528571009635925e-01</leafValues></_>
        <_>
          <internalNodes>
            0 -1 18 2.3128861188888550e-01</internalNodes>
          <leafValues>
            7.4384585022926331e-02 -7.8028762340545654e-01</leafValues></_>
        <_>
          <internalNodes>
            0 -1 97 5.8052606880664825e-02</internalNodes>
          <leafValues>
            -1.8489463627338409e-01 3.1082904338836670e-01</leafValues></_>
        <_>
          <internalNodes>
            0 -1 249 2.1838527172803879e-02</internalNodes>
          <leafValues>
            -2.0172159373760223e-01 2.9085835814476013e-01</leafValues></_>
        <_>
          <internalNodes>
            0 -1 249 -8.1690743565559387e-02</internalNodes>
          <leafValues>
            7.1342682838439941e-01 -7.7656194567680359e-02</leafValues></_>
        <_>
          <internalNodes>
            0 -1 192 -3.0776685476303101e-01</internalNodes>
          <leafValues>
            -6.9150078296661377e-01 1.0009090602397919e-01</leafValues></_>
        <_>
          <internalNodes>
            0 -1 483 -1.2416569516062737e-03</internalNodes>
          <leafValues>
            -3.9065885543823242e-01 1.3771979510784149e-01</leafValues></_>
        <_>
          <internalNodes>
            0 -1 459 2.2438983432948589e-03</internalNodes>
          <leafValues>
            -2.2744037210941315e-01 2.3618245124816895e-01</leafValues></_>
        <_>
          <internalNodes>
            0 -1 109 -2.2103264927864075e-03</internalNodes>
          <leafValues>
            -4.0608558058738708e-01 1.3184764981269836e-01</leafValues></_>
        <_>
          <internalNodes>
            0 -1 145 4.0764264762401581e-02</internalNodes>
          <leafValues>
            -1.5469290316104889e-01 3.5210713744163513e-01</leafValues></_>
        <_>
          <internalNodes>
            0 -1 489 1.7820782959461212e-03</internalNodes>
          <leafValues>
            1.7412060499191284e-01 -2.9837974905967712e-01</leafValues></_>
        <_>
          <internalNodes>
            0 -1 277 -6.7767009139060974e-02</internalNodes>
          <leafValues>
            -4.4673982262611389e-01 1.2064289301633835e-01</leafValues></_>
        <_>
          <internalNodes>
            0 -1 253 1.0956361889839172e-01</internalNodes>
          <leafValues>
            -1.7266136407852173e-01 3.3901816606521606e-01</leafValues></_>
        <_>
          <internalNodes>
            0 -1 325 -5.1546566188335419e-02</internalNodes>
          <leafValues>
            5.4042744636535645e-01 -1.0481345653533936e-01</leafValues></_>
        <_>
          <internalNodes>
            0 -1 364 3.9046630263328552e-04</internalNodes>
          <leafValues>
            1.5445087850093842e-01 -4.6059131622314453e-01</leafValues></_>
        <_>
          <internalNodes>
            0 -1 76 1.7759859561920166e-02</internalNodes>
          <leafValues>
            -9.7669579088687897e-02 7.0643013715744019e-01</leafValues></_>
        <_>
          <internalNodes>
            0 -1 504 -4.2655592551454902e-05</internalNodes>
          <leafValues>
            2.1940881013870239e-01 -2.3992908000946045e-01</leafValues></_>
        <_>
          <internalNodes>
            0 -1 452 7.5777014717459679e-04</internalNodes>
          <leafValues>
            1.6921882331371307e-01 -3.2469514012336731e-01</leafValues></_>
        <_>
          <internalNodes>
            0 -1 282 -2.4932216852903366e-02</internalNodes>
          <leafValues>
            7.3228538036346436e-01 -7.3472917079925537e-02</leafValues></_>
        <_>
          <internalNodes>
            0 -1 271 -1.7655476927757263e-02</internalNodes>
          <leafValues>
            5.4106658697128296e-01 -9.2343531548976898e-02</leafValues></_>
        <_>
          <internalNodes>
            0 -1 229 4.8398017883300781e-02</internalNodes>
          <leafValues>
            -1.6341489553451538e-01 3.1642222404479980e-01</leafValues></_>
        <_>
          <internalNodes>
            0 -1 189 2.2462521883426234e-05</internalNodes>
          <leafValues>
            -2.6185724139213562e-01 2.2469480335712433e-01</leafValues></_>
        <_>
          <internalNodes>
            0 -1 308 -6.0349642299115658e-03</internalNodes>
          <leafValues>
            2.6823806762695312e-01 -1.9652578234672546e-01</leafValues></_></weakClassifiers></_>
    <!-- stage 12 -->
    <_>
      <maxWeakCount>41</maxWeakCount>
      <stageThreshold>-9.6435159444808960e-01</stageThreshold>
      <weakClassifiers>
        <_>
          <internalNodes>
            0 -1 259 1.5432555973529816e-01</internalNodes>
          <leafValues>
            2.9986789822578430e-01 -6.2790697813034058e-01</leafValues></_>
        <_>
          <internalNodes>
            0 -1 283 1.2428911030292511e-01</internalNodes>
          <leafValues>
            -1.6155363619327545e-01 3.7893694639205933e-01</leafValues></_>
        <_>
          <internalNodes>
            0 -1 503 3.5237889736890793e-02</internalNodes>
          <leafValues>
            -1.0325288772583008e-01 6.3820868730545044e-01</leafValues></_>
        <_>
          <internalNodes>
            0 -1 492 -2.4571152403950691e-02</internalNodes>
          <leafValues>
            4.1597390174865723e-01 -1.0772544890642166e-01</leafValues></_>
        <_>
          <internalNodes>
            0 -1 162 -4.2091213166713715e-02</internalNodes>
          <leafValues>
            5.0276607275009155e-01 -1.5144592523574829e-01</leafValues></_>
        <_>
          <internalNodes>
            0 -1 151 8.5238955914974213e-02</internalNodes>
          <leafValues>
            -1.3700145483016968e-01 3.3129712939262390e-01</leafValues></_>
        <_>
          <internalNodes>
            0 -1 206 4.5722862705588341e-03</internalNodes>
          <leafValues>
            -9.3042321503162384e-02 5.8368593454360962e-01</leafValues></_>
        <_>
          <internalNodes>
            0 -1 80 3.4747861325740814e-02</internalNodes>
          <leafValues>
            -1.9895491003990173e-01 2.5715133547782898e-01</leafValues></_>
        <_>
          <internalNodes>
            0 -1 455 -9.3747221399098635e-04</internalNodes>
          <leafValues>
            -3.8119283318519592e-01 1.3602466881275177e-01</leafValues></_>
        <_>
          <internalNodes>
            0 -1 340 1.9495841115713120e-02</internalNodes>
          <leafValues>
            -1.8226297199726105e-01 2.9721215367317200e-01</leafValues></_>
        <_>
          <internalNodes>
            0 -1 156 2.0233979448676109e-02</internalNodes>
          <leafValues>
            -2.7651888132095337e-01 2.4947263300418854e-01</leafValues></_>
        <_>
          <internalNodes>
            0 -1 451 -6.2913015484809875e-02</internalNodes>
          <leafValues>
            6.9492810964584351e-01 -9.0727306902408600e-02</leafValues></_>
        <_>
          <internalNodes>
            0 -1 66 2.9875473119318485e-03</internalNodes>
          <leafValues>
            -2.4973984062671661e-01 2.6702550053596497e-01</leafValues></_>
        <_>
          <internalNodes>
            0 -1 60 -9.5899671316146851e-02</internalNodes>
          <leafValues>
            7.0841771364212036e-01 -7.6494738459587097e-02</leafValues></_>
        <_>
          <internalNodes>
            0 -1 213 3.5155963897705078e-01</internalNodes>
          <leafValues>
            7.9323358833789825e-02 -9.2365318536758423e-01</leafValues></_>
        <_>
          <internalNodes>
            0 -1 197 6.3334130682051182e-03</internalNodes>
          <leafValues>
            -1.6545630991458893e-01 3.1228137016296387e-01</leafValues></_>
        <_>
          <internalNodes>
            0 -1 45 3.7743663415312767e-03</internalNodes>
          <leafValues>
            1.4928773045539856e-01 -3.5128667950630188e-01</leafValues></_>
        <_>
          <internalNodes>
            0 -1 216 2.2009581327438354e-02</internalNodes>
          <leafValues>
            -2.2104820609092712e-01 2.3765972256660461e-01</leafValues></_>
        <_>
          <internalNodes>
            0 -1 487 -5.0952481105923653e-03</internalNodes>
          <leafValues>
            6.3361245393753052e-01 -5.8603610843420029e-02</leafValues></_>
        <_>
          <internalNodes>
            0 -1 402 -1.6060113906860352e-02</internalNodes>
          <leafValues>
            4.6466702222824097e-01 -1.0858337581157684e-01</leafValues></_>
        <_>
          <internalNodes>
            0 -1 570 1.2269490398466587e-03</internalNodes>
          <leafValues>
            1.4869204163551331e-01 -3.5432299971580505e-01</leafValues></_>
        <_>
          <internalNodes>
            0 -1 315 -5.8622471988201141e-03</internalNodes>
          <leafValues>
            6.8315047025680542e-01 -7.8464850783348083e-02</leafValues></_>
        <_>
          <internalNodes>
            0 -1 338 9.1485702432692051e-04</internalNodes>
          <leafValues>
            1.3269002735614777e-01 -4.0215837955474854e-01</leafValues></_>
        <_>
          <internalNodes>
            0 -1 331 -7.8960340470075607e-03</internalNodes>
          <leafValues>
            2.7703604102134705e-01 -1.7838975787162781e-01</leafValues></_>
        <_>
          <internalNodes>
            0 -1 408 8.0296277999877930e-02</internalNodes>
          <leafValues>
            -1.0510409623384476e-01 6.1786043643951416e-01</leafValues></_>
        <_>
          <internalNodes>
            0 -1 551 6.3654575496912003e-03</internalNodes>
          <leafValues>
            -7.2302415966987610e-02 5.8528375625610352e-01</leafValues></_>
        <_>
          <internalNodes>
            0 -1 280 1.1826406419277191e-01</internalNodes>
          <leafValues>
            7.6730512082576752e-02 -7.1949225664138794e-01</leafValues></_>
        <_>
          <internalNodes>
            0 -1 7 -7.2333589196205139e-02</internalNodes>
          <leafValues>
            1.5476672351360321e-01 -3.2546752691268921e-01</leafValues></_>
        <_>
          <internalNodes>
            0 -1 559 1.2242937460541725e-02</internalNodes>
          <leafValues>
            9.0576581656932831e-02 -5.1456600427627563e-01</leafValues></_>
        <_>
          <internalNodes>
            0 -1 480 -3.9436821825802326e-03</internalNodes>
          <leafValues>
            6.4369142055511475e-01 -8.6383499205112457e-02</leafValues></_>
        <_>
          <internalNodes>
            0 -1 440 2.8838228434324265e-02</internalNodes>
          <leafValues>
            -8.3297640085220337e-02 5.2073127031326294e-01</leafValues></_>
        <_>
          <internalNodes>
            0 -1 469 -4.4473585148807615e-05</internalNodes>
          <leafValues>
            2.2400796413421631e-01 -2.4088859558105469e-01</leafValues></_>
        <_>
          <internalNodes>
            0 -1 24 -3.7271231412887573e-02</internalNodes>
          <leafValues>
            -9.3835663795471191e-01 6.2125034630298615e-02</leafValues></_>
        <_>
          <internalNodes>
            0 -1 426 -8.4089279174804688e-02</internalNodes>
          <leafValues>
            7.2757524251937866e-01 -9.0319387614727020e-02</leafValues></_>
        <_>
          <internalNodes>
            0 -1 377 2.1320393308997154e-02</internalNodes>
          <leafValues>
            -2.5053194165229797e-01 2.1753428876399994e-01</leafValues></_>
        <_>
          <internalNodes>
            0 -1 46 5.8942683972418308e-04</internalNodes>
          <leafValues>
            1.4439553022384644e-01 -3.8045054674148560e-01</leafValues></_>
        <_>
          <internalNodes>
            0 -1 464 3.9563067257404327e-03</internalNodes>
          <leafValues>
            -9.8739445209503174e-02 5.6576734781265259e-01</leafValues></_>
        <_>
          <internalNodes>
            0 -1 15 -1.2700542807579041e-02</internalNodes>
          <leafValues>
            5.8188855648040771e-01 -8.2520112395286560e-02</leafValues></_>
        <_>
          <internalNodes>
            0 -1 0 1.0039493441581726e-02</internalNodes>
          <leafValues>
            -2.4305970966815948e-01 2.3714847862720490e-01</leafValues></_>
        <_>
          <internalNodes>
            0 -1 227 1.1516756564378738e-01</internalNodes>
          <leafValues>
            -1.9183245301246643e-01 2.5234270095825195e-01</leafValues></_>
        <_>
          <internalNodes>
            0 -1 136 -3.4694368951022625e-03</internalNodes>
          <leafValues>
            3.4716948866844177e-01 -1.9371671974658966e-01</leafValues></_></weakClassifiers></_>
    <!-- stage 13 -->
    <_>
      <maxWeakCount>33</maxWeakCount>
      <stageThreshold>-7.6793879270553589e-01</stageThreshold>
      <weakClassifiers>
        <_>
          <internalNodes>
            0 -1 228 -4.4613127829506993e-04</internalNodes>
          <leafValues>
            -1.1274509876966476e-01 3.7416106462478638e-01</leafValues></_>
        <_>
          <internalNodes>
            0 -1 32 -4.2782456148415804e-05</internalNodes>
          <leafValues>
            2.0651887357234955e-01 -2.2531017661094666e-01</leafValues></_>
        <_>
          <internalNodes>
            0 -1 10 1.1626264080405235e-02</internalNodes>
          <leafValues>
            -2.3001118004322052e-01 2.0452089607715607e-01</leafValues></_>
        <_>
          <internalNodes>
            0 -1 330 -5.1452592015266418e-02</internalNodes>
          <leafValues>
            4.9359148740768433e-01 -1.1048105359077454e-01</leafValues></_>
        <_>
          <internalNodes>
            0 -1 477 3.9733648009132594e-05</internalNodes>
          <leafValues>
            -3.2872712612152100e-01 1.7198061943054199e-01</leafValues></_>
        <_>
          <internalNodes>
            0 -1 561 1.1592904105782509e-02</internalNodes>
          <leafValues>
            8.5470899939537048e-02 -6.2729406356811523e-01</leafValues></_>
        <_>
          <internalNodes>
            0 -1 430 2.4748586118221283e-02</internalNodes>
          <leafValues>
            -1.9619961082935333e-01 2.5377473235130310e-01</leafValues></_>
        <_>
          <internalNodes>
            0 -1 409 -9.5288179814815521e-02</internalNodes>
          <leafValues>
            6.0444962978363037e-01 -1.0814675688743591e-01</leafValues></_>
        <_>
          <internalNodes>
            0 -1 236 9.7198039293289185e-03</internalNodes>
          <leafValues>
            -8.5920214653015137e-02 5.0810277462005615e-01</leafValues></_>
        <_>
          <internalNodes>
            0 -1 510 -2.6780074462294579e-02</internalNodes>
          <leafValues>
            4.5770817995071411e-01 -8.6623750627040863e-02</leafValues></_>
        <_>
          <internalNodes>
            0 -1 404 -3.3103913068771362e-02</internalNodes>
          <leafValues>
            7.9873794317245483e-01 -5.3581126034259796e-02</leafValues></_>
        <_>
          <internalNodes>
            0 -1 336 1.0618443600833416e-02</internalNodes>
          <leafValues>
            -2.5094959139823914e-01 2.0934063196182251e-01</leafValues></_>
        <_>
          <internalNodes>
            0 -1 456 -1.6106080729514360e-03</internalNodes>
          <leafValues>
            -3.5452818870544434e-01 1.3463549315929413e-01</leafValues></_>
        <_>
          <internalNodes>
            0 -1 457 6.8954071030020714e-03</internalNodes>
          <leafValues>
            -1.5903976559638977e-01 3.2339566946029663e-01</leafValues></_>
        <_>
          <internalNodes>
            0 -1 567 -4.4175202492624521e-04</internalNodes>
          <leafValues>
            -3.0783656239509583e-01 1.5911148488521576e-01</leafValues></_>
        <_>
          <internalNodes>
            0 -1 567 6.0335965827107430e-04</internalNodes>
          <leafValues>
            1.3828517496585846e-01 -3.4694036841392517e-01</leafValues></_>
        <_>
          <internalNodes>
            0 -1 344 -6.6665783524513245e-03</internalNodes>
          <leafValues>
            5.1523751020431519e-01 -9.5756590366363525e-02</leafValues></_>
        <_>
          <internalNodes>
            0 -1 311 8.7647588225081563e-04</internalNodes>
          <leafValues>
            1.3457502424716949e-01 -3.8598096370697021e-01</leafValues></_>
        <_>
          <internalNodes>
            0 -1 528 2.6460953056812286e-02</internalNodes>
          <leafValues>
            8.6916998028755188e-02 -5.3373140096664429e-01</leafValues></_>
        <_>
          <internalNodes>
            0 -1 535 4.6946974471211433e-03</internalNodes>
          <leafValues>
            -2.3142467439174652e-01 2.3921515047550201e-01</leafValues></_>
        <_>
          <internalNodes>
            0 -1 14 2.6477405428886414e-01</internalNodes>
          <leafValues>
            6.3470952212810516e-02 -8.5677677392959595e-01</leafValues></_>
        <_>
          <internalNodes>
            0 -1 252 1.6836920380592346e-01</internalNodes>
          <leafValues>
            4.4502310454845428e-02 -8.1386476755142212e-01</leafValues></_>
        <_>
          <internalNodes>
            0 -1 226 7.2829835116863251e-02</internalNodes>
          <leafValues>
            -2.1963217854499817e-01 2.2940206527709961e-01</leafValues></_>
        <_>
          <internalNodes>
            0 -1 53 5.0796614959836006e-04</internalNodes>
          <leafValues>
            1.4297205209732056e-01 -3.0607497692108154e-01</leafValues></_>
        <_>
          <internalNodes>
            0 -1 370 1.1159013211727142e-01</internalNodes>
          <leafValues>
            -9.3759596347808838e-02 5.6523305177688599e-01</leafValues></_>
        <_>
          <internalNodes>
            0 -1 416 -1.1802924796938896e-02</internalNodes>
          <leafValues>
            3.1789433956146240e-01 -1.7737834155559540e-01</leafValues></_>
        <_>
          <internalNodes>
            0 -1 339 1.1583053274080157e-03</internalNodes>
          <leafValues>
            1.8485698103904724e-01 -2.8748893737792969e-01</leafValues></_>
        <_>
          <internalNodes>
            0 -1 178 7.4372021481394768e-04</internalNodes>
          <leafValues>
            1.5266239643096924e-01 -3.2544386386871338e-01</leafValues></_>
        <_>
          <internalNodes>
            0 -1 386 1.2353751808404922e-03</internalNodes>
          <leafValues>
            -1.4183104038238525e-01 3.5739493370056152e-01</leafValues></_>
        <_>
          <internalNodes>
            0 -1 195 -2.5502272183075547e-04</internalNodes>
          <leafValues>
            -2.9813766479492188e-01 1.6249912977218628e-01</leafValues></_>
        <_>
          <internalNodes>
            0 -1 113 -3.7482567131519318e-03</internalNodes>
          <leafValues>
            5.1161170005798340e-01 -1.0177741944789886e-01</leafValues></_>
        <_>
          <internalNodes>
            0 -1 379 -3.6098800599575043e-02</internalNodes>
          <leafValues>
            3.5503852367401123e-01 -1.4142715930938721e-01</leafValues></_>
        <_>
          <internalNodes>
            0 -1 429 4.7317393124103546e-02</internalNodes>
          <leafValues>
            -1.3820590078830719e-01 3.9331203699111938e-01</leafValues></_></weakClassifiers></_>
    <!-- stage 14 -->
    <_>
      <maxWeakCount>35</maxWeakCount>
      <stageThreshold>-9.2943638563156128e-01</stageThreshold>
      <weakClassifiers>
        <_>
          <internalNodes>
            0 -1 423 4.6177968382835388e-02</internalNodes>
          <leafValues>
            -9.4017095863819122e-02 3.9222615957260132e-01</leafValues></_>
        <_>
          <internalNodes>
            0 -1 255 2.5231776759028435e-02</internalNodes>
          <leafValues>
            -1.6593565046787262e-01 3.0193775892257690e-01</leafValues></_>
        <_>
          <internalNodes>
            0 -1 61 -5.0340224057435989e-02</internalNodes>
          <leafValues>
            5.7700788974761963e-01 -8.1078790128231049e-02</leafValues></_>
        <_>
          <internalNodes>
            0 -1 146 -1.2319393455982208e-02</internalNodes>
          <leafValues>
            2.5269925594329834e-01 -2.5265073776245117e-01</leafValues></_>
        <_>
          <internalNodes>
            0 -1 462 1.5679769217967987e-02</internalNodes>
          <leafValues>
            -1.2518952786922455e-01 3.5092198848724365e-01</leafValues></_>
        <_>
          <internalNodes>
            0 -1 422 -6.7762490361928940e-03</internalNodes>
          <leafValues>
            6.5794378519058228e-01 -9.1887250542640686e-02</leafValues></_>
        <_>
          <internalNodes>
            0 -1 546 -8.1940283998847008e-03</internalNodes>
          <leafValues>
            6.8617749214172363e-01 -7.2727404534816742e-02</leafValues></_>
        <_>
          <internalNodes>
            0 -1 560 -8.7121119722723961e-03</internalNodes>
          <leafValues>
            -8.4430831670761108e-01 7.3510326445102692e-02</leafValues></_>
        <_>
          <internalNodes>
            0 -1 239 -4.6188004314899445e-02</internalNodes>
          <leafValues>
            6.5623718500137329e-01 -7.8398205339908600e-02</leafValues></_>
        <_>
          <internalNodes>
            0 -1 6 -2.4766996502876282e-02</internalNodes>
          <leafValues>
            -4.2900869250297546e-01 1.1390135437250137e-01</leafValues></_>
        <_>
          <internalNodes>
            0 -1 501 3.7580630742013454e-03</internalNodes>
          <leafValues>
            -5.6646626442670822e-02 6.6751432418823242e-01</leafValues></_>
        <_>
          <internalNodes>
            0 -1 499 -7.1339891292154789e-04</internalNodes>
          <leafValues>
            -3.8388484716415405e-01 1.1738943308591843e-01</leafValues></_>
        <_>
          <internalNodes>
            0 -1 287 -4.3916940689086914e-02</internalNodes>
          <leafValues>
            5.5927491188049316e-01 -7.1368828415870667e-02</leafValues></_>
        <_>
          <internalNodes>
            0 -1 400 2.6325011625885963e-02</internalNodes>
          <leafValues>
            -9.7932592034339905e-02 4.7875013947486877e-01</leafValues></_>
        <_>
          <internalNodes>
            0 -1 124 9.1254949569702148e-02</internalNodes>
          <leafValues>
            -2.1815480291843414e-01 2.1769583225250244e-01</leafValues></_>
        <_>
          <internalNodes>
            0 -1 298 -1.7636992037296295e-02</internalNodes>
          <leafValues>
            4.9768012762069702e-01 -1.0485383123159409e-01</leafValues></_>
        <_>
          <internalNodes>
            0 -1 133 6.5760277211666107e-03</internalNodes>
          <leafValues>
            -2.2314988076686859e-01 1.9643788039684296e-01</leafValues></_>
        <_>
          <internalNodes>
            0 -1 125 -4.2209297418594360e-02</internalNodes>
          <leafValues>
            5.7545071840286255e-01 -7.5184062123298645e-02</leafValues></_>
        <_>
          <internalNodes>
            0 -1 196 2.8810845687985420e-03</internalNodes>
          <leafValues>
            1.6985283792018890e-01 -3.9723822474479675e-01</leafValues></_>
        <_>
          <internalNodes>
            0 -1 207 3.7982603535056114e-03</internalNodes>
          <leafValues>
            -7.7469214797019958e-02 6.8221282958984375e-01</leafValues></_>
        <_>
          <internalNodes>
            0 -1 107 1.9100021570920944e-02</internalNodes>
          <leafValues>
            9.4860576093196869e-02 -5.9074378013610840e-01</leafValues></_>
        <_>
          <internalNodes>
            0 -1 106 -1.2507403735071421e-03</internalNodes>
          <leafValues>
            3.6868044734001160e-01 -1.3221549987792969e-01</leafValues></_>
        <_>
          <internalNodes>
            0 -1 36 8.0825975164771080e-03</internalNodes>
          <leafValues>
            -1.6861288249492645e-01 2.7049210667610168e-01</leafValues></_>
        <_>
          <internalNodes>
            0 -1 327 -1.9241072237491608e-01</internalNodes>
          <leafValues>
            6.6700083017349243e-01 -6.8938717246055603e-02</leafValues></_>
        <_>
          <internalNodes>
            0 -1 333 -5.9081299696117640e-04</internalNodes>
          <leafValues>
            -3.6563432216644287e-01 1.3431626558303833e-01</leafValues></_>
        <_>
          <internalNodes>
            0 -1 290 -9.5595136284828186e-02</internalNodes>
          <leafValues>
            6.2171375751495361e-01 -9.1683752834796906e-02</leafValues></_>
        <_>
          <internalNodes>
            0 -1 556 6.4578894525766373e-03</internalNodes>
          <leafValues>
            -6.5795347094535828e-02 6.0908728837966919e-01</leafValues></_>
        <_>
          <internalNodes>
            0 -1 110 -4.2616561055183411e-02</internalNodes>
          <leafValues>
            -6.6327816247940063e-01 8.1536144018173218e-02</leafValues></_>
        <_>
          <internalNodes>
            0 -1 144 1.8613031134009361e-02</internalNodes>
          <leafValues>
            -1.0165397822856903e-01 5.0984001159667969e-01</leafValues></_>
        <_>
          <internalNodes>
            0 -1 207 -3.3066796604543924e-03</internalNodes>
          <leafValues>
            6.6936570405960083e-01 -6.0147684067487717e-02</leafValues></_>
        <_>
          <internalNodes>
            0 -1 550 8.6562021169811487e-04</internalNodes>
          <leafValues>
            1.3994233310222626e-01 -3.4616389870643616e-01</leafValues></_>
        <_>
          <internalNodes>
            0 -1 568 6.9461355451494455e-04</internalNodes>
          <leafValues>
            1.2156417220830917e-01 -3.7319257855415344e-01</leafValues></_>
        <_>
          <internalNodes>
            0 -1 91 2.6354079600423574e-03</internalNodes>
          <leafValues>
            -9.6689932048320770e-02 5.4536980390548706e-01</leafValues></_>
        <_>
          <internalNodes>
            0 -1 399 1.4871759340167046e-02</internalNodes>
          <leafValues>
            -1.5024086833000183e-01 3.1733223795890808e-01</leafValues></_>
        <_>
          <internalNodes>
            0 -1 288 1.5423122793436050e-02</internalNodes>
          <leafValues>
            -2.0231847465038300e-01 2.7806454896926880e-01</leafValues></_></weakClassifiers></_>
    <!-- stage 15 -->
    <_>
      <maxWeakCount>45</maxWeakCount>
      <stageThreshold>-9.1305226087570190e-01</stageThreshold>
      <weakClassifiers>
        <_>
          <internalNodes>
            0 -1 420 2.1987143903970718e-02</internalNodes>
          <leafValues>
            -1.4513788046315312e-03 4.4017562270164490e-01</leafValues></_>
        <_>
          <internalNodes>
            0 -1 123 8.7685108184814453e-02</internalNodes>
          <leafValues>
            -1.6711634397506714e-01 2.6355370879173279e-01</leafValues></_>
        <_>
          <internalNodes>
            0 -1 470 9.8776724189519882e-03</internalNodes>
          <leafValues>
            -2.4900946021080017e-01 1.8538941442966461e-01</leafValues></_>
        <_>
          <internalNodes>
            0 -1 497 1.1883696541190147e-02</internalNodes>
          <leafValues>
            -1.2853440642356873e-01 3.7348774075508118e-01</leafValues></_>
        <_>
          <internalNodes>
            0 -1 360 3.4603990614414215e-02</internalNodes>
          <leafValues>
            -2.8329607844352722e-01 2.2225263714790344e-01</leafValues></_>
        <_>
          <internalNodes>
            0 -1 269 6.1047784984111786e-03</internalNodes>
          <leafValues>
            -2.7225118875503540e-01 2.0195837318897247e-01</leafValues></_>
        <_>
          <internalNodes>
            0 -1 353 -1.9065063446760178e-02</internalNodes>
          <leafValues>
            3.2667455077171326e-01 -1.4862704277038574e-01</leafValues></_>
        <_>
          <internalNodes>
            0 -1 474 -4.6495311835315078e-05</internalNodes>
          <leafValues>
            2.4386882781982422e-01 -2.3246610164642334e-01</leafValues></_>
        <_>
          <internalNodes>
            0 -1 204 1.8943289294838905e-02</internalNodes>
          <leafValues>
            -1.6834305226802826e-01 3.1353136897087097e-01</leafValues></_>
        <_>
          <internalNodes>
            0 -1 307 -8.8669499382376671e-03</internalNodes>
          <leafValues>
            2.8380572795867920e-01 -1.6033130884170532e-01</leafValues></_>
        <_>
          <internalNodes>
            0 -1 118 -2.6094710826873779e-01</internalNodes>
          <leafValues>
            -8.3690017461776733e-01 5.4333396255970001e-02</leafValues></_>
        <_>
          <internalNodes>
            0 -1 431 -8.3892999100498855e-05</internalNodes>
          <leafValues>
            2.3065102100372314e-01 -2.1306902170181274e-01</leafValues></_>
        <_>
          <internalNodes>
            0 -1 530 4.4775359332561493e-02</internalNodes>
          <leafValues>
            -7.6542071998119354e-02 8.0786782503128052e-01</leafValues></_>
        <_>
          <internalNodes>
            0 -1 29 -2.0287083461880684e-03</internalNodes>
          <leafValues>
            -4.9382099509239197e-01 1.0965997725725174e-01</leafValues></_>
        <_>
          <internalNodes>
            0 -1 20 5.8045471087098122e-03</internalNodes>
          <leafValues>
            1.0608202964067459e-01 -4.4963932037353516e-01</leafValues></_>
        <_>
          <internalNodes>
            0 -1 508 -5.0777997821569443e-02</internalNodes>
          <leafValues>
            -9.4070553779602051e-01 4.4266775250434875e-02</leafValues></_>
        <_>
          <internalNodes>
            0 -1 139 1.0376041755080223e-02</internalNodes>
          <leafValues>
            -2.1178893744945526e-01 2.1873319149017334e-01</leafValues></_>
        <_>
          <internalNodes>
            0 -1 523 2.9877701308578253e-04</internalNodes>
          <leafValues>
            1.4921326935291290e-01 -3.1280088424682617e-01</leafValues></_>
        <_>
          <internalNodes>
            0 -1 520 2.9467262793332338e-03</internalNodes>
          <leafValues>
            -8.2184650003910065e-02 6.5989440679550171e-01</leafValues></_>
        <_>
          <internalNodes>
            0 -1 566 -1.3968882849439979e-03</internalNodes>
          <leafValues>
            -4.8256227374076843e-01 1.0809635370969772e-01</leafValues></_>
        <_>
          <internalNodes>
            0 -1 130 -2.4565840139985085e-02</internalNodes>
          <leafValues>
            4.4203466176986694e-01 -1.1068493127822876e-01</leafValues></_>
        <_>
          <internalNodes>
            0 -1 380 -5.0528018618933856e-05</internalNodes>
          <leafValues>
            2.3422794044017792e-01 -1.8821232020854950e-01</leafValues></_>
        <_>
          <internalNodes>
            0 -1 266 1.6538973432034254e-03</internalNodes>
          <leafValues>
            1.3716436922550201e-01 -3.2221478223800659e-01</leafValues></_>
        <_>
          <internalNodes>
            0 -1 132 -1.4470383524894714e-01</internalNodes>
          <leafValues>
            6.5822547674179077e-01 -6.9850906729698181e-02</leafValues></_>
        <_>
          <internalNodes>
            0 -1 547 -2.5762501172721386e-04</internalNodes>
          <leafValues>
            -3.0211719870567322e-01 1.6336666047573090e-01</leafValues></_>
        <_>
          <internalNodes>
            0 -1 343 -8.0420542508363724e-03</internalNodes>
          <leafValues>
            -6.8032997846603394e-01 6.4692065119743347e-02</leafValues></_>
        <_>
          <internalNodes>
            0 -1 167 -2.0874267816543579e-01</internalNodes>
          <leafValues>
            -7.7319383621215820e-01 5.3276039659976959e-02</leafValues></_>
        <_>
          <internalNodes>
            0 -1 362 2.0215203985571861e-03</internalNodes>
          <leafValues>
            1.6356791555881500e-01 -3.0417013168334961e-01</leafValues></_>
        <_>
          <internalNodes>
            0 -1 256 -7.6594501733779907e-02</internalNodes>
          <leafValues>
            -7.1498763561248779e-01 6.8237729370594025e-02</leafValues></_>
        <_>
          <internalNodes>
            0 -1 117 1.2988292612135410e-02</internalNodes>
          <leafValues>
            -2.1827240288257599e-01 2.1962629258632660e-01</leafValues></_>
        <_>
          <internalNodes>
            0 -1 74 -1.6155650373548269e-03</internalNodes>
          <leafValues>
            -3.8777932524681091e-01 1.2554588913917542e-01</leafValues></_>
        <_>
          <internalNodes>
            0 -1 57 1.2760473415255547e-02</internalNodes>
          <leafValues>
            -1.7996464669704437e-01 2.6997244358062744e-01</leafValues></_>
        <_>
          <internalNodes>
            0 -1 187 6.6306092776358128e-03</internalNodes>
          <leafValues>
            -2.3706392943859100e-01 2.4742382764816284e-01</leafValues></_>
        <_>
          <internalNodes>
            0 -1 513 2.6290374080417678e-05</internalNodes>
          <leafValues>
            -2.5239083170890808e-01 2.0054316520690918e-01</leafValues></_>
        <_>
          <internalNodes>
            0 -1 472 1.0259235650300980e-01</internalNodes>
          <leafValues>
            6.5918013453483582e-02 -7.7043622732162476e-01</leafValues></_>
        <_>
          <internalNodes>
            0 -1 39 -1.1916258372366428e-03</internalNodes>
          <leafValues>
            2.1183741092681885e-01 -2.2347624599933624e-01</leafValues></_>
        <_>
          <internalNodes>
            0 -1 40 -2.0311202853918076e-02</internalNodes>
          <leafValues>
            -7.7155959606170654e-01 6.5797828137874603e-02</leafValues></_>
        <_>
          <internalNodes>
            0 -1 515 1.7149206250905991e-02</internalNodes>
          <leafValues>
            4.7149434685707092e-02 -8.1232792139053345e-01</leafValues></_>
        <_>
          <internalNodes>
            0 -1 433 -8.1125915050506592e-02</internalNodes>
          <leafValues>
            7.0503550767898560e-01 -7.7307306230068207e-02</leafValues></_>
        <_>
          <internalNodes>
            0 -1 135 2.1449591219425201e-01</internalNodes>
          <leafValues>
            5.9823434799909592e-02 -9.6838742494583130e-01</leafValues></_>
        <_>
          <internalNodes>
            0 -1 174 -4.1358703747391701e-03</internalNodes>
          <leafValues>
            2.7638986706733704e-01 -1.7203682661056519e-01</leafValues></_>
        <_>
          <internalNodes>
            0 -1 43 7.0945837069302797e-04</internalNodes>
          <leafValues>
            1.2541255354881287e-01 -3.9630821347236633e-01</leafValues></_>
        <_>
          <internalNodes>
            0 -1 481 3.4312354400753975e-03</internalNodes>
          <leafValues>
            -6.5697498619556427e-02 6.9045537710189819e-01</leafValues></_>
        <_>
          <internalNodes>
            0 -1 47 3.8837764877825975e-03</internalNodes>
          <leafValues>
            -6.2303964048624039e-02 6.1877954006195068e-01</leafValues></_>
        <_>
          <internalNodes>
            0 -1 286 -3.1807839870452881e-02</internalNodes>
          <leafValues>
            5.0404495000839233e-01 -8.6474344134330750e-02</leafValues></_></weakClassifiers></_>
    <!-- stage 16 -->
    <_>
      <maxWeakCount>35</maxWeakCount>
      <stageThreshold>-8.0860346555709839e-01</stageThreshold>
      <weakClassifiers>
        <_>
          <internalNodes>
            0 -1 16 1.5209966897964478e-01</internalNodes>
          <leafValues>
            2.9090908169746399e-01 -8.0000001192092896e-01</leafValues></_>
        <_>
          <internalNodes>
            0 -1 184 -1.5284304320812225e-01</internalNodes>
          <leafValues>
            -6.5461719036102295e-01 8.4243066608905792e-02</leafValues></_>
        <_>
          <internalNodes>
            0 -1 274 -1.0417468729428947e-04</internalNodes>
          <leafValues>
            2.0832571387290955e-01 -2.2150141000747681e-01</leafValues></_>
        <_>
          <internalNodes>
            0 -1 442 1.7928633838891983e-02</internalNodes>
          <leafValues>
            -8.9646711945533752e-02 5.0205200910568237e-01</leafValues></_>
        <_>
          <internalNodes>
            0 -1 102 2.8448451310396194e-02</internalNodes>
          <leafValues>
            -2.7134707570075989e-01 1.8405744433403015e-01</leafValues></_>
        <_>
          <internalNodes>
            0 -1 365 -2.0333676366135478e-04</internalNodes>
          <leafValues>
            -3.6170846223831177e-01 1.4819797873497009e-01</leafValues></_>
        <_>
          <internalNodes>
            0 -1 244 -7.7190781012177467e-03</internalNodes>
          <leafValues>
            3.0370581150054932e-01 -1.9776102900505066e-01</leafValues></_>
        <_>
          <internalNodes>
            0 -1 394 3.1078664585947990e-02</internalNodes>
          <leafValues>
            -1.1596547812223434e-01 4.9101334810256958e-01</leafValues></_>
        <_>
          <internalNodes>
            0 -1 177 -1.0168589651584625e-02</internalNodes>
          <leafValues>
            -4.6543517708778381e-01 1.0871256142854691e-01</leafValues></_>
        <_>
          <internalNodes>
            0 -1 479 1.0213844478130341e-02</internalNodes>
          <leafValues>
            -1.0406572371721268e-01 4.0898853540420532e-01</leafValues></_>
        <_>
          <internalNodes>
            0 -1 108 6.5454994328320026e-03</internalNodes>
          <leafValues>
            8.6348116397857666e-02 -5.1790714263916016e-01</leafValues></_>
        <_>
          <internalNodes>
            0 -1 361 -1.3299172278493643e-03</internalNodes>
          <leafValues>
            -5.3366619348526001e-01 7.2139248251914978e-02</leafValues></_>
        <_>
          <internalNodes>
            0 -1 250 7.0923775434494019e-02</internalNodes>
          <leafValues>
            -1.5346264839172363e-01 3.1859177350997925e-01</leafValues></_>
        <_>
          <internalNodes>
            0 -1 300 -5.5717170238494873e-02</internalNodes>
          <leafValues>
            4.0314060449600220e-01 -1.1546169221401215e-01</leafValues></_>
        <_>
          <internalNodes>
            0 -1 116 2.6683812960982323e-02</internalNodes>
          <leafValues>
            -1.6244149208068848e-01 2.8037834167480469e-01</leafValues></_>
        <_>
          <internalNodes>
            0 -1 361 -4.4638047256739810e-05</internalNodes>
          <leafValues>
            2.0414407551288605e-01 -2.3061724007129669e-01</leafValues></_>
        <_>
          <internalNodes>
            0 -1 112 1.3520357012748718e-01</internalNodes>
          <leafValues>
            7.5951293110847473e-02 -5.8229160308837891e-01</leafValues></_>
        <_>
          <internalNodes>
            0 -1 149 -6.5163537859916687e-02</internalNodes>
          <leafValues>
            -5.7210612297058105e-01 8.5082739591598511e-02</leafValues></_>
        <_>
          <internalNodes>
            0 -1 534 -4.0563885122537613e-03</internalNodes>
          <leafValues>
            4.8393037915229797e-01 -1.0617575049400330e-01</leafValues></_>
        <_>
          <internalNodes>
            0 -1 201 -8.2134187221527100e-02</internalNodes>
          <leafValues>
            5.4500228166580200e-01 -7.6360195875167847e-02</leafValues></_>
        <_>
          <internalNodes>
            0 -1 389 -4.4572923332452774e-02</internalNodes>
          <leafValues>
            3.3145722746849060e-01 -1.2895399332046509e-01</leafValues></_>
        <_>
          <internalNodes>
            0 -1 221 3.5278256982564926e-02</internalNodes>
          <leafValues>
            -2.6486262679100037e-01 2.1138668060302734e-01</leafValues></_>
        <_>
          <internalNodes>
            0 -1 366 2.5845002382993698e-03</internalNodes>
          <leafValues>
            1.5572404861450195e-01 -3.7214308977127075e-01</leafValues></_>
        <_>
          <internalNodes>
            0 -1 65 8.3013601601123810e-02</internalNodes>
          <leafValues>
            5.0347015261650085e-02 -9.4902181625366211e-01</leafValues></_>
        <_>
          <internalNodes>
            0 -1 306 2.3769002407789230e-02</internalNodes>
          <leafValues>
            -2.5944963097572327e-01 1.8067742884159088e-01</leafValues></_>
        <_>
          <internalNodes>
            0 -1 313 1.5852330252528191e-02</internalNodes>
          <leafValues>
            -2.4627503752708435e-01 2.2175769507884979e-01</leafValues></_>
        <_>
          <internalNodes>
            0 -1 382 -5.4703049361705780e-02</internalNodes>
          <leafValues>
